435 300
plane -1.16444 -0.457958 0.308147 1.592951 1.944158 -1.010131 0.868173 2.428675 0.16238 -0.876858 -0.137486 -2.636651 -1.267834 -0.710778 -1.837902 0.980484 0.910452 0.159087 0.649499 1.763218 -0.8911 0.371896 0.628576 0.281253 -0.048349 -2.188941 0.187515 -2.123365 -0.429188 -1.354051 1.299844 -1.589205 1.151058 -0.760467 2.040153 0.18347 -1.071662 -1.161103 -0.788906 -1.173903 0.568038 0.336094 -1.986621 -0.82167 1.653975 1.641793 0.222786 -0.514859 2.176971 1.090047 1.363454 0.328837 -0.773405 -0.725803 -0.2739 -0.391968 -1.567741 2.384558 -1.985701 0.831887 1.38295 -0.056451 0.579811 -0.097821 0.855349 0.219618 -0.00743 0.920123 0.405925 2.387803 0.966888 -0.84027 1.185397 -0.231021 0.957843 3.948106 -0.369405 1.106538 -0.335776 0.113659 3.698183 -1.417567 2.549662 0.077249 0.580612 0.732301 -1.179237 2.723621 -1.892088 -0.62535 -0.121579 1.998506 0.241512 0.308749 -0.897365 1.165522 1.03333 -1.336068 -1.006063 -4.632196 -0.620859 1.098902 1.627088 2.654215 -0.805136 -0.588913 -2.171312 0.356208 -0.855007 0.866117 0.055903 0.825273 -1.710493 -0.286769 -1.258851 0.428826 0.770244 -0.132136 0.757897 0.468029 -1.358874 -0.813964 0.8254 -2.272923 0.43308 1.419558 1.931818 1.884478 2.400105 1.767392 0.916778 -0.685983 1.887501 -0.702323 0.51477 1.306524 -1.302043 -0.062838 -2.216356 -0.530824 1.226385 -0.967786 2.205902 -0.129859 0.851237 0.272571 -1.106376 0.371176 -1.077874 1.549279 -1.394459 -0.843052 0.464558 -1.008883 -2.754992 -0.337743 -0.35067 0.005579 -0.241691 0.941068 -0.298007 0.006305 3.072112 0.922539 0.492519 -0.120646 2.781117 -0.117292 -1.577754 -1.169343 -0.371914 1.386875 -1.700323 1.3927 -0.999997 -1.213661 0.931619 1.508953 -0.552498 0.488248 1.043557 0.410273 0.295423 1.397969 1.295659 2.037749 -1.333909 -0.648217 1.075589 0.233503 1.677192 -0.076346 -0.210633 2.003761 0.159819 1.616256 1.324187 1.695922 -0.146004 1.342578 -1.121013 -1.60486 -1.192526 -2.365561 1.102246 -1.590274 -1.682471 -1.211051 -0.679285 0.961159 -1.448012 0.843038 0.971916 0.368725 3.193635 -1.137463 0.841906 -1.19508 -0.318244 0.446044 0.732917 -1.943469 1.655244 -0.248971 1.453632 4.24985 1.876986 0.691723 0.318187 -1.935843 0.085621 0.555138 2.186639 0.169861 2.567934 1.012828 -1.609605 -0.438646 -0.195189 -0.003002 1.7E-4 -1.32277 -2.013127 2.606284 0.679472 1.003885 0.212054 -0.466936 0.868979 -0.874596 -1.937393 -0.841046 -4.096224 -0.1436 0.605622 2.118978 -1.335018 -0.77016 2.217113 -1.181432 -1.412818 -1.246924 0.427191 -1.447098 -1.053982 -0.420323 -1.381789 -0.375599 1.667317 2.135583 0.596354 0.245901 -0.174461 0.783583 1.849874 -2.836656 -1.375277 -0.436426 -0.541828 -0.312134 0.332336 0.600817 -1.834858 -1.535215 1.425841 -0.40444 1.272979 0.498397 -0.36962 -0.357904 -0.865764 -0.640076 0.063795 0.822275 0.725945 1.282742 -0.571671 -0.704859 -0.450626 -0.528668
stupid 0.744819 -0.506343 -0.373711 -1.430236 0.331497 -0.3155 0.235197 0.378503 1.308917 -1.17235 0.824016 -0.344875 0.154163 1.204485 0.05529 -1.641901 -0.890276 0.350017 0.306668 -0.367255 -0.176453 -1.569638 -0.59936 1.427516 0.436147 -0.631642 -1.131352 -0.435155 1.367119 -0.90038 -1.480543 -0.585856 1.100701 -0.619324 -1.585517 0.497173 -0.704413 0.184968 1.409544 1.497964 0.160554 0.640226 0.35733 -1.51853 1.912598 -0.261905 -1.085986 -0.697614 0.107983 0.016576 0.49233 -0.209717 -1.175899 0.384415 0.82242 -0.997527 1.090562 -0.845573 -0.931483 0.645051 2.214257 0.567552 0.452258 0.575221 -0.772151 -1.865422 -0.153747 -0.62262 0.993531 -0.524279 0.093682 -0.870506 0.616242 0.23288 1.105159 0.012028 -0.557954 -1.34802 -0.087052 -0.714419 0.75206 1.354837 0.025336 0.33733 -0.780107 0.09458 -0.627311 0.078995 1.627761 -0.250515 -0.745328 -0.748918 -0.451891 0.288988 -0.576751 0.111426 0.842543 -0.956436 1.865872 -0.2527 2.19869 -0.237169 1.112251 -0.206706 0.425828 0.263138 -0.615856 -0.942305 -1.061676 -0.169587 0.384744 -2.27266 0.596879 -0.38931 -0.366762 0.160878 0.422247 -0.504691 -0.293765 0.602138 -0.201926 0.143829 0.478133 -0.759211 -1.425978 0.055949 -0.200333 -0.694629 0.708896 -0.941063 -1.518807 0.331409 -1.129947 0.667223 -0.086111 -1.959439 0.051068 1.396693 -0.368274 0.136371 0.268326 -1.203645 1.171019 -0.053435 1.64467 -0.657044 -0.791236 -0.243004 -3.870987 1.355217 0.510276 1.023643 -1.690879 -0.106771 0.889229 -0.459487 0.454488 -0.047355 1.275102 -0.679499 -0.939535 -0.057522 -0.918356 0.571891 0.636444 0.69719 -1.155509 -0.3797 0.647476 1.056362 0.24033 0.602421 0.859989 -0.381954 2.44586 0.347783 0.37723 1.001077 0.517884 0.2456 0.686973 -1.372843 0.621655 -1.432921 -1.230716 -0.025491 -1.035699 -0.140945 0.48369 0.218894 0.082572 -0.724972 -0.255901 -0.171701 0.713762 -0.076584 -0.337887 -0.905002 -0.83005 -1.516842 -0.790412 -2.398476 -1.303652 -0.980367 -0.380986 -0.131662 1.28974 -0.028069 1.164089 -0.643753 0.521456 0.335335 -0.030022 0.592604 -0.791872 -0.777952 0.07004 -0.095446 -1.009974 -0.402538 -0.214873 1.330826 0.379023 -0.045694 -0.212011 -0.541901 -0.402338 0.792149 1.587421 -1.192904 -1.894327 0.753629 -0.456702 0.626973 0.938273 -1.349161 -1.108912 -0.901985 1.093319 0.50864 0.491226 0.281184 -0.337267 -1.683142 0.480458 0.170681 -0.709493 0.609681 -1.158339 -0.607662 -0.264314 -0.9918 -0.650606 0.81854 0.951783 0.712395 1.136621 0.491056 0.43858 1.555476 -0.14836 -0.551252 -0.765123 0.502611 0.118287 -0.366337 0.342311 -0.737484 0.83645 0.426913 0.559476 0.053242 -0.289219 0.035914 0.765903 0.605951 0.021452 -0.846131 0.189564 1.487704 -0.451845 1.115189 0.126885 -1.124806 1.058515 0.556627 0.617858 -0.554482 0.108457 -0.865171 -0.386215 -0.570288 -0.869862 0.414454 -0.970133 -1.319537 -1.349801 0.184292 0.85463 -1.241752
egg -1.586561 -1.615148 -0.522313 -0.342323 0.630796 -0.194555 -1.650019 -0.210158 0.033514 -0.630826 -0.834481 -0.345715 -0.784501 -0.375565 1.079365 -0.040404 -0.942954 -0.258513 -0.057707 0.24983 -0.142422 -0.02699 1.638667 1.119247 0.847993 -0.522697 -0.99688 0.872839 0.309427 -1.186597 0.442992 0.158539 -2.48E-4 -2.081741 0.018232 -0.254804 0.465991 -1.767168 -0.279711 0.24644 0.327609 0.534126 0.18389 0.664784 0.016835 -0.001077 0.050183 -0.410325 -0.782402 -1.018473 -0.413676 -0.013598 -0.626829 -0.691919 0.404661 0.054568 -0.080751 0.31356 -0.669882 -0.296331 0.791549 -1.07234 -0.111273 -1.150947 0.171736 -0.536811 -0.636205 -0.539125 0.469144 0.625022 0.238261 -0.009457 1.261464 -0.306886 0.759916 -0.893457 -0.6687 -0.595334 -0.875491 0.2524 0.904653 -0.557629 -0.854559 -0.425263 1.173187 -0.142042 0.654458 0.791942 -0.184333 -0.102518 0.805361 0.633574 -1.996502 1.960334 -0.314245 0.139947 0.256372 0.111027 -0.680402 0.29178 -0.282638 -0.485499 1.904338 1.790665 -0.807196 1.074931 0.623463 1.4822 1.687249 1.505102 -0.536293 1.287671 0.518976 -0.676593 -0.374941 0.303464 0.471471 -1.538708 -0.326312 0.913361 0.357467 -2.293683 0.707889 0.379867 -0.118726 -0.145749 -0.648175 0.549145 2.413916 0.620178 2.03091 -0.79764 1.090832 -0.583239 -1.546857 -0.011272 -0.817238 -0.994877 -0.294082 -1.055776 1.632576 0.238874 -0.455454 0.040085 -0.383843 -1.548347 -1.615669 -1.696368 -1.585162 -0.554422 -1.129339 -0.940935 -1.922614 -0.005119 -0.116616 1.775506 -0.226986 -1.289633 -1.342058 1.633014 0.323783 0.598869 -1.809796 -0.119264 1.563012 -0.218026 -1.550164 0.271606 -0.633219 0.176283 1.343549 2.055138 1.309038 1.44708 1.61372 -1.258246 -1.130063 -0.333162 -1.911284 1.204236 0.62003 -0.250051 1.174786 -0.244635 -0.302475 -1.191072 -1.502174 0.68914 0.362416 1.691596 -1.095248 -1.379748 -0.552568 -0.630827 -0.324495 -1.023487 0.807523 -1.3409 -0.562681 1.621877 1.328019 -1.710644 -1.37317 -0.814533 0.073732 0.162307 -1.284539 -0.154877 0.017874 0.325438 0.874272 -0.590003 -0.968802 0.569972 0.950659 -1.477457 0.190764 -0.73827 -0.072053 0.074729 -1.399294 -0.01689 -2.132182 0.763431 0.253735 -0.777364 0.23822 -1.434371 -0.03945 -0.110819 -0.124147 1.299848 -0.295854 0.346034 -0.539259 -0.07192 -2.285582 0.188976 0.886201 -0.755867 -1.115096 -0.900013 1.122653 0.464614 -1.516826 0.491712 0.109414 1.269709 -1.367718 0.125693 0.003309 1.663492 -0.434866 0.003799 -0.646174 -0.282846 0.363673 -0.317924 0.722698 0.101188 -1.934298 -0.570455 0.288202 0.06807 -0.475821 1.089798 -0.166611 0.999674 -0.15633 0.624716 -0.672221 1.94243 -1.010343 0.550033 0.082191 1.363368 0.348391 0.342501 -0.382648 -1.409262 0.730666 1.056569 -2.02131 0.905866 1.319441 -1.330176 -1.529097 -0.319041 0.603458 0.752111 -0.72929 -0.760022 1.431234 -0.434087 -0.984247 1.963923 -0.280027 0.550227 0.34497 0.0674
year 1.02393 -0.863229 2.953409 1.164393 2.199126 1.745154 0.805627 -1.584437 0.600633 -0.569068 0.174184 0.082456 2.956449 1.243608 1.401879 0.264619 -1.89504 -1.308993 1.030742 -1.236757 -1.486371 -2.615766 -0.297889 -0.528383 0.155915 -2.144074 2.326025 -2.375394 3.603994 -0.895832 2.816935 2.529525 -4.828608 -0.684122 -2.665455 -1.017389 -0.705706 -3.862438 0.202749 -1.238719 -1.807752 -0.763723 1.885317 0.519926 0.784905 -4.915136 0.494879 1.541781 -0.415523 -0.601694 0.981126 0.96428 -1.891045 2.674589 -2.218751 0.094635 -1.680891 -0.119422 -1.128941 0.069642 3.581708 -0.947904 2.171169 1.014834 -0.818682 0.328464 1.428733 -1.782709 0.527963 4.606354 -0.545677 -3.726969 0.402984 -0.822737 4.224148 -2.110032 1.208524 1.755356 1.808752 -0.899993 0.626704 -0.334176 -0.746261 -4.351146 -1.393475 -0.334845 0.932671 0.633422 -1.143499 0.324656 2.36526 -4.068008 0.252045 -1.043558 1.025701 0.73135 1.721475 0.265785 -2.563865 0.330654 -2.965094 -0.181419 1.491025 1.349735 -0.891789 -2.997876 -2.546309 1.266351 -0.411303 0.422046 3.491035 1.683715 3.657532 1.255845 2.343912 0.352481 -1.769657 -1.414239 3.049966 -1.235509 -0.198217 -1.327886 -0.673504 0.604085 3.160392 -2.190906 2.120512 -0.605108 0.435685 -0.398825 1.76446 -0.59104 -2.529902 -0.378068 -0.607757 0.128806 0.228374 2.015812 1.389801 1.044614 2.198403 0.016139 0.564095 1.064443 -0.965369 -1.158083 -0.856717 3.50379 4.388873 -1.07506 1.024635 -2.675536 0.883033 -3.250029 1.621427 -0.056464 2.017146 -1.802652 0.836798 -0.593078 -1.438814 -1.039909 0.622214 -1.002495 2.219227 -2.369736 -2.111449 -0.624991 0.176663 -2.153083 -2.609548 0.284737 0.753368 2.543772 0.085768 0.244714 0.146469 3.782397 0.743244 1.82512 0.441827 -0.876411 0.00829 2.286408 1.285367 0.630267 1.864819 3.465974 -0.862875 0.850968 -3.102087 3.021846 1.393467 2.787581 -1.320796 2.029277 2.377022 -0.669304 1.981684 3.334963 -0.399524 -2.128821 1.893441 1.859976 -0.72926 -1.20617 -0.753866 -1.088128 -5.476231 -0.308767 0.012885 3.034244 -0.272496 -1.93242 2.165107 -1.581996 3.665531 3.024548 -1.655777 2.140898 -1.172646 -2.771899 -0.196011 -0.389212 -1.520957 -1.690039 -1.880896 -0.033726 -1.380941 1.069219 0.210437 1.343697 -3.505791 0.647277 -1.257232 1.120574 1.523699 2.57895 -0.9449 -1.384382 0.680029 0.996022 1.484892 4.073034 0.242477 1.333202 0.39866 -0.732648 -0.105812 1.573324 -0.380369 1.487639 0.048239 0.489968 0.635379 0.71033 -5.433493 -0.638497 0.446841 -3.750371 -1.142912 -1.267379 -0.569945 -0.831008 1.011292 -2.082296 -1.370303 -1.200994 -0.056532 0.665514 2.102254 1.522083 -1.115158 1.241123 -1.68955 1.971672 -0.207747 0.88039 -0.070038 -0.489699 0.146141 1.256739 -1.851882 1.130604 -0.693862 -0.275344 -0.544004 2.158213 -0.493563 -0.119483 -0.498675 -2.602389 -3.092665 -0.28345 -0.455494 -0.456668 0.347746 3.260191 -3.378576 -3.828655
psychiatry -0.360256 -0.593419 -0.0963 0.081965 0.491354 -0.171546 -0.62612 -0.081212 -0.717437 0.115825 0.095436 0.114951 -0.201697 -0.110872 0.020823 -0.328221 0.164005 0.197523 -0.458916 -0.219955 0.081112 -0.041799 0.255643 0.024004 0.153353 0.139873 -0.213534 0.465483 0.376498 0.180254 -0.040043 0.211981 -0.336128 -0.06301 0.702643 0.106153 0.066736 -0.77686 0.074645 0.144856 0.374514 -0.1108 -1.103778 -0.164525 -0.19079 -0.604951 0.693421 -0.089348 -0.750343 0.134088 -0.328601 0.394948 -0.447713 0.431368 -0.498743 -0.402398 -0.219925 -0.672912 0.866566 0.148232 0.42476 0.491065 -0.253563 -0.369758 -0.30432 0.718496 0.455923 -0.155949 0.341508 -0.2528 -0.238795 0.328855 -0.164303 -0.123816 -0.639377 -0.164202 -0.172725 -0.604949 -0.774124 -0.054223 -0.142007 0.908707 -0.35011 0.127568 0.296894 -0.391666 0.089823 -0.114373 0.179853 -0.262382 0.152538 0.141788 -1.182392 0.080053 0.170753 0.170987 -0.748948 -0.689288 -0.401894 -0.295571 -0.061803 -0.034052 0.018308 0.089495 -0.087101 0.704454 -0.209928 0.407167 0.422188 -0.521328 -0.168749 0.339758 -0.472176 -0.148909 -0.031676 0.018097 0.198131 0.294202 0.216057 0.023115 0.05115 -0.046664 0.344993 -0.10682 0.021941 -0.804111 -0.097758 0.154105 0.752852 -0.030048 -0.14337 0.306709 -0.214533 -0.083524 -0.691426 -0.240826 -0.376434 -0.142676 0.491129 -0.080554 -0.594674 0.662822 0.108293 -0.462144 -0.471772 0.485353 -0.576629 -0.20262 0.379508 -0.002827 -0.019133 -0.150725 0.292746 0.360577 -0.154923 0.118904 0.234151 -0.149068 0.657534 -0.70277 0.375187 0.074854 0.026016 0.092157 -0.185009 0.194042 -0.138108 0.348172 -0.15603 -0.084231 0.315923 0.051537 -0.119771 0.418311 -0.075853 0.683928 -0.407969 -0.590231 -0.105272 -0.262741 -0.297962 0.018303 0.041057 -0.259331 -0.276193 0.711511 0.156761 0.092754 -0.270641 -0.11768 -0.673777 -0.203958 -0.205139 -0.015174 -0.291846 -0.112471 0.367034 0.249435 0.456021 0.106507 0.358595 -0.278979 0.382637 -0.496516 0.280612 0.110896 -0.138398 -0.318269 0.142552 -0.169486 0.287439 -0.701668 0.037631 -0.026642 -0.500567 0.196523 -0.294733 -0.262992 -0.186548 -0.247006 0.664737 0.328569 -0.003228 0.145196 -0.041038 -0.076518 0.209983 -0.06306 0.358514 -0.18022 -0.241324 -0.060679 -0.142126 0.234903 -0.35115 -0.012924 -0.164499 0.503642 0.502281 -0.266499 -0.411856 0.362349 -0.23448 -0.300884 0.182093 0.449193 -0.134157 -0.175554 -0.308909 -0.474643 -0.541465 -0.752572 0.123616 -0.316618 0.318029 -0.726488 0.80648 0.319803 -0.818645 -0.034131 0.248518 -0.061925 0.409739 -0.135229 -0.162343 0.817667 0.280875 -0.809813 0.067373 0.62714 -0.01304 -0.520775 -0.244896 0.179097 0.10296 -0.101632 0.426883 -0.22349 -0.170942 0.520959 0.167803 -0.042029 -0.221487 0.117945 -0.484472 0.224063 -0.2426 0.070391 0.472273 -0.177003 0.119904 -0.27791 0.53582 0.009584 -0.10175 0.116665 -0.592628 0.570521 0.333278 0.124065
asylum 0.866349 0.558114 -1.206963 1.439319 1.855096 0.303822 -0.503286 -0.822915 -0.774718 -0.741269 0.394293 1.535434 -1.962124 0.025229 0.757126 0.218946 -1.51526 -2.815094 0.168664 -1.325084 0.412429 -0.223857 0.235859 0.372397 -0.227509 1.103799 -0.734315 -0.363063 -2.363035 0.60353 0.94314 1.627304 -0.372364 -0.305398 0.729766 0.350897 -0.82266 -0.55625 1.033118 -0.052548 0.013358 7.8E-5 -0.092041 -0.905511 -0.226115 1.159316 -0.014879 1.357656 -1.334094 0.428009 1.017279 -1.801382 0.424805 0.080837 -0.605923 -0.451677 1.69539 1.484566 0.318942 -0.389063 -0.735248 0.162301 1.776454 -2.108672 -0.772233 0.416075 1.121556 -0.646888 0.854527 0.38785 0.450361 -1.0104 0.112409 -0.78613 -0.992719 1.299247 -1.468696 0.51843 -0.629674 -1.460783 0.546584 -2.316747 0.674189 -0.659956 0.64076 1.548941 -1.05365 0.788608 0.577159 -0.668953 1.057679 -0.446232 0.330259 1.497969 -0.365948 0.687436 1.126458 -0.463964 0.058661 0.78487 -1.571989 0.07378 -0.230204 1.266461 0.217964 -1.10227 1.363932 -0.645286 -0.115639 0.623275 -0.081519 -1.178427 1.375435 -0.002091 -0.405412 -0.584309 1.624331 -0.158975 0.256355 -0.231068 0.064927 -0.27866 1.202881 -1.292583 0.431844 0.110739 0.53164 2.622174 -0.068086 0.165437 -1.258222 1.642178 -0.189883 -1.032486 -0.501915 0.983789 -1.810869 -0.625266 -0.804634 -2.161472 1.539456 -1.025169 -0.337345 -1.889084 0.831547 -0.435687 -1.399621 0.219077 1.422151 0.285457 0.123862 -0.727243 2.056385 0.466097 -1.232421 -0.268502 -0.594746 1.075443 1.427515 1.106453 -1.174583 0.85268 1.423097 0.564271 -0.715639 -1.104747 0.944475 0.531513 -0.695477 0.009607 0.171303 1.253857 1.176902 1.156337 0.678146 0.741785 0.81302 -0.116536 -0.447508 0.153714 1.533518 0.015151 3.883791 0.498601 -1.061457 -1.086314 1.157133 0.993978 0.180989 -1.439856 -0.980572 -0.395741 0.816324 0.58082 0.958201 -1.123525 -0.651876 -0.467882 0.809705 1.624809 -8.24E-4 0.829048 0.16032 -0.818399 2.220677 -0.089653 -0.802095 -0.65507 0.811816 2.015973 -0.165278 0.853328 1.825966 1.026878 1.120214 -0.705403 0.765455 0.64014 -1.36614 0.261038 -1.084563 -1.435577 0.530858 -1.115694 0.216351 -0.293302 0.250643 -0.803608 0.17452 -0.461724 0.533809 0.406512 -0.286111 0.64374 -0.334838 1.88329 -0.559536 -0.502632 -1.291704 0.306401 -0.562149 0.91891 -1.067806 -1.597317 -2.600643 0.824506 -0.655577 0.120406 0.455274 -0.049362 -2.313205 0.788962 -0.993931 0.824081 1.439144 2.299249 0.442672 -2.051475 0.077558 0.194686 0.713008 0.248235 -0.153536 1.969568 -0.689657 -0.956833 -0.830029 -0.077815 -0.472872 1.695322 0.912329 -0.003226 1.255102 -2.001053 0.874256 0.291275 -0.356215 0.188434 -0.847658 0.66137 1.308146 0.070916 2.038084 0.617417 0.831616 -1.246801 -0.064426 -0.517202 -1.08093 1.238733 0.367841 2.170701 -0.129871 0.217084 -0.037922 -0.277106 0.100102 0.233581 0.117423 -0.74215
manslaughter 0.971672 -0.901015 -1.518077 1.773746 -0.267965 0.358884 -0.264511 -0.699061 -0.604019 -0.94995 -0.721723 0.349674 -1.272957 -0.428858 0.396543 0.587755 0.745799 2.3284 -0.973981 0.131113 0.038794 -1.955848 0.664789 -0.868709 0.297876 1.565924 0.4315 -0.668823 -0.12787 -1.299282 1.369045 1.307024 -1.695298 0.15398 0.482013 -1.562837 -0.681688 -0.618874 0.871104 -0.44679 -0.949498 -0.150532 0.877635 -0.485019 -0.133655 1.473649 0.458466 1.711569 0.688726 0.671911 0.919665 0.776365 -1.444017 1.660368 0.119767 -1.331941 1.143429 -0.383977 1.040207 -0.66768 -1.532358 -1.441615 -0.399005 -0.115784 -0.942946 1.81746 -1.086058 -0.819315 0.13582 0.369505 0.387208 0.351207 0.754311 -0.343241 1.232418 -0.282159 -1.142758 -0.123474 -0.22529 0.055534 0.81826 0.380394 -0.801439 -1.376478 0.229007 0.068207 -1.134519 1.858745 -1.033953 -0.893549 0.995504 0.563855 -1.56809 0.105172 0.099799 1.909809 0.280164 1.077659 0.393651 -0.103734 0.461597 0.68193 0.701374 0.867595 -1.39687 1.895248 0.863984 -1.177548 1.603267 -0.444744 -0.832031 -0.573011 -1.509515 0.022035 -1.212925 0.505556 0.328708 0.345493 0.905291 0.410853 0.750036 -2.166329 -0.530941 -1.463407 1.069963 -0.59475 1.290242 -1.396878 0.601311 0.205783 -0.841187 1.811521 0.186893 0.437174 -0.228946 0.06301 -0.891453 -0.911286 -1.131391 0.102332 -0.021968 -1.702415 -0.563974 -0.892806 -2.257276 2.250962 -0.113013 1.020347 0.082131 -0.021864 -1.811875 -2.585531 0.262568 1.717408 0.422615 0.965081 0.727231 0.701203 1.521285 -0.120949 -0.920301 -1.151814 1.128331 0.195988 -1.651993 0.765795 -0.064834 -0.223031 -0.716649 0.062875 0.206817 0.581905 -0.484896 -1.105196 -0.0642 -0.359327 -1.4015 -1.149206 0.192583 -0.356137 -2.22935 0.563216 0.606553 0.272183 0.831635 0.263264 0.613118 0.496187 -0.675187 -0.603166 -0.286464 0.90345 2.878394 1.633758 0.052647 1.163615 1.332265 1.362238 -0.085877 0.606196 1.764694 -0.247284 0.612127 1.836459 0.331447 -1.051614 -1.386495 0.342258 0.467613 -0.668418 0.126258 0.372311 0.851572 0.588859 -0.502571 -1.341266 0.087532 -1.60993 1.537683 -0.247957 0.105419 0.347539 1.914296 0.584669 -0.075975 0.130333 -0.164117 0.116462 0.882703 0.76434 -0.311885 0.439636 -0.105526 1.431616 -0.337571 1.190313 -0.518758 -0.623457 0.3729 -0.143421 -0.008484 0.749505 -1.349736 -0.193354 1.178891 1.419464 1.135457 -0.388209 0.465922 -0.165843 1.397582 -0.407453 0.909997 1.188604 1.817928 -0.293125 1.19373 0.739465 -0.534098 0.638737 -2.150691 -1.998991 1.154554 0.281645 -0.489462 1.307565 1.361501 -1.221029 -1.627194 0.36905 -1.508767 1.737852 -0.532604 -1.785838 -1.215814 0.517753 0.735266 0.538278 -2.339796 1.438165 -0.183029 0.962005 -0.311625 0.810759 0.012409 -0.480495 -0.554497 1.332061 -0.277011 0.450705 0.516464 1.638661 0.132492 -0.367878 1.688155 -0.146402 -0.468475 0.265949 -0.807838 -0.478918
music -1.254673 -1.647412 -0.620074 0.621749 -0.177603 -1.873257 -0.365749 -2.270056 -0.675711 1.910693 -0.119879 0.252563 -1.776249 -0.349165 1.588199 1.329918 -0.642408 -0.681728 0.281434 -0.148681 -1.405636 2.136185 -2.15324 -0.443027 -1.538094 2.456865 0.959429 1.160398 -0.908063 -0.185964 -0.135917 -0.679657 -0.501347 -0.037504 -1.580609 0.474473 1.139589 -0.813699 1.069584 0.509999 -0.59543 -1.380442 0.920328 0.505997 0.582231 0.073755 2.487416 -1.541199 -2.444507 -1.540246 0.663607 -0.17464 -0.098984 -0.249285 -2.405516 0.93783 0.687477 0.738677 -2.15943 0.009352 3.1354 1.119945 -1.782527 -0.636518 1.518322 0.232002 0.766495 0.653084 1.11184 0.553769 -0.748185 0.554055 -2.216974 -0.621877 -1.045612 -0.60347 -0.357132 1.699193 -1.108463 -2.436096 -1.298347 -0.440244 -1.026518 0.70828 -0.471609 0.874776 3.524806 -1.165433 1.205251 0.27615 -1.221019 -1.360626 2.929358 2.746577 -0.982377 0.266245 -0.455147 -0.52221 1.167692 -0.106424 -0.088388 -1.698558 2.304669 1.185709 -0.367341 1.877291 -0.908338 -1.800275 1.284969 -1.28827 -2.066313 0.657576 -0.991321 2.660913 -1.553985 1.164545 -1.06278 -0.581307 1.504295 -1.934628 -0.66189 -0.208243 -1.297917 0.672379 0.90328 -0.484282 2.694476 1.421655 1.312648 -0.82263 0.460959 0.105005 -0.510033 -0.673845 -0.152831 -0.869393 1.259357 0.014903 -1.312886 0.53585 -0.876414 -3.094282 -2.665244 0.12536 0.198793 -1.137354 -0.132408 0.974681 -0.604542 -0.027777 2.101206 0.200538 -0.043114 -0.237001 -0.530017 1.330266 -0.039637 -1.259763 -1.525035 -1.485257 0.322673 -0.455312 1.027386 0.060885 1.065345 0.843767 -0.206274 2.817366 -0.354496 -0.378369 -0.680018 -0.372625 1.75476 -0.034616 1.518005 -0.567062 -0.859129 -0.678097 0.104017 -0.107588 2.296124 -1.698286 -0.08205 0.373352 2.159954 0.983334 -1.394148 -0.628071 -1.067425 -0.087239 -0.345518 -1.464898 1.160532 0.296508 -1.257068 -1.092782 -0.206649 -1.140461 -0.307323 -1.769838 0.868744 0.862115 -3.421345 1.324203 0.158052 0.168268 1.968206 1.041082 -0.462168 -1.132338 -1.651883 0.360558 0.088139 0.929112 1.474428 -0.500407 1.196266 1.976573 3.27999 -0.513667 -0.455973 -0.873577 0.114811 -0.498439 0.399722 0.33957 0.887917 -1.781713 -1.73904 -0.987308 -0.174389 -0.666259 1.891476 0.38634 -0.698834 -0.091315 -0.423708 0.899676 2.956903 -1.970228 1.512826 -0.314814 -1.029981 -0.304066 1.12418 -0.668959 -0.279921 0.978637 -1.402584 1.1143 0.287545 0.242259 -0.919144 1.157071 -1.146027 1.551961 0.484309 -1.450118 -0.491631 1.843054 -1.486233 1.371103 1.144784 -0.77163 -0.542075 0.766479 2.264805 0.123331 -0.818001 -3.721816 -0.559613 -0.814116 1.632554 2.53463 -0.170193 -0.676884 -0.001088 -0.412895 -1.115601 -0.553614 -0.064372 -0.289573 -0.849043 -0.455674 -0.612601 -1.681424 -0.14699 -0.466921 0.477831 -1.996176 0.437968 -1.790972 0.18668 -0.433689 -1.542001 1.713876 -0.471707 2.025805 -0.476646 -1.226548
record -1.334015 -0.638882 -0.993683 -0.496146 -0.322971 -1.092272 0.224044 -2.045899 -1.253645 1.324374 -0.921097 -0.595513 0.155139 -1.706008 0.776827 2.328672 0.775888 0.624224 -0.253964 -2.023028 0.576815 -0.74291 1.044932 -1.285674 -0.362646 -1.673165 -0.243589 0.840859 -0.60598 2.338365 0.573016 -1.360912 -0.938672 0.933556 0.107578 -1.535634 -0.136402 0.338465 -1.986645 -1.24215 -2.680058 -0.346164 2.200218 0.86539 -0.22663 0.593153 0.616419 -1.584565 1.22834 -0.83885 -2.038426 -0.088356 2.024955 0.300447 -1.599881 -0.006669 -0.061122 2.867097 -0.115077 -1.370885 -0.476903 -2.175961 -0.991515 -0.561759 -0.328026 1.36853 -0.94665 -1.23335 0.680366 -2.646175 -1.618475 0.618057 -2.463843 -1.519967 3.535118 -2.161343 -1.376494 0.812068 0.684914 -2.659281 -0.623475 -1.542639 1.037124 -1.527002 1.420044 1.43839 0.014346 -2.065311 -0.923994 -2.546411 0.423814 -0.23932 0.554241 1.222888 -1.363574 1.434892 2.131263 -0.024461 0.173679 1.04442 0.295579 -0.425326 1.872173 1.10594 -0.770475 0.515911 -2.125478 0.635767 0.930911 1.308862 -0.115053 0.411839 1.931103 2.706351 0.198504 0.59364 -1.864469 0.063844 -1.726487 -1.659537 1.142191 -2.54799 0.862737 1.9605 -0.674486 -1.590735 0.354508 -0.640294 0.284767 -0.97496 -1.185068 1.714655 0.433358 1.713233 -0.60507 -0.031602 1.327398 -0.946763 -2.288381 0.228566 -0.372375 0.682987 -2.13603 1.717697 1.228429 -0.927266 -0.791041 1.871082 1.368828 -1.538538 0.282788 -0.709568 0.732563 -2.199674 -0.506247 0.110094 -0.950216 -0.250415 -0.194662 2.569884 2.896404 1.082107 1.7031 -0.133539 -0.330515 0.54955 2.272821 -1.156819 -0.293923 -0.060369 -0.916934 -2.327818 1.29851 1.034697 0.849192 1.246883 1.965784 0.227644 -1.249943 0.06665 0.882276 0.334976 -0.564196 0.766191 1.5404 0.881672 -1.21697 0.116433 -0.347867 0.040204 0.00238 -0.668571 1.435455 0.122369 1.842381 1.244558 -0.58635 1.636289 -1.457414 2.175989 0.927678 -0.344133 0.650142 -0.188421 -0.819869 -4.59193 -0.579307 -0.082681 -1.024577 1.457498 -1.293622 -0.087281 0.652026 -0.509419 2.628642 0.98068 0.394015 -0.345625 0.597323 1.028745 1.414593 -0.851194 -0.33038 -0.211576 -3.701152 -2.40802 -1.049143 -0.927225 0.085053 1.743608 -0.497306 0.845364 -2.579925 0.163794 -0.712038 1.250809 3.315808 0.379424 2.729288 -1.057007 1.162181 -1.50771 1.350227 -0.094149 0.293552 0.635192 -1.791662 -1.223882 -1.023329 -0.173098 0.459903 0.051412 -0.017339 1.289358 0.73302 0.068681 -2.392322 0.702486 -0.61895 -0.251509 0.535591 0.530853 -0.499468 -2.944417 0.274632 -1.351569 -0.889173 -0.039272 1.408591 -1.715629 0.678908 0.058376 0.949885 -0.143645 -0.989941 -1.354441 -0.553091 -0.15887 -1.445225 -0.347775 0.426458 0.825598 -1.420071 0.753598 2.517356 0.178788 -3.115885 -1.766441 -0.207708 -0.194804 -1.025416 0.953762 -0.461873 1.010808 0.014422 0.293668 0.783191 1.325915 1.940232 -0.527843
energy 0.437875 0.019614 0.318481 0.331251 -0.049259 -0.278003 0.947047 -0.396054 -0.504968 -0.313679 1.627409 -2.004146 0.946998 0.22376 2.404421 0.035667 -0.127769 0.041519 -1.225904 -1.789432 -1.996246 -1.94144 -1.440128 0.734336 2.623681 -0.047228 -2.088575 -1.695703 -0.926054 0.710039 0.022338 0.305404 -0.871032 -0.509247 -4.10347 0.538845 -0.975043 1.673132 -0.995552 0.833898 0.584897 0.35692 -1.017172 -0.29997 0.918822 -1.089575 2.030807 -0.603514 1.620972 -1.756888 -0.100074 0.069423 -0.51287 -1.572731 0.459817 1.104672 -1.417866 2.366486 2.592849 0.309477 -1.991661 -2.59811 0.538109 0.541745 0.10025 0.281876 0.240759 0.847378 1.75861 0.523427 0.033453 0.027868 -0.753238 1.535698 -0.11585 1.010986 0.77856 1.924122 -2.491824 -1.384946 -1.438473 -0.460196 -0.531254 -2.98951 -1.531532 2.815365 2.422559 0.059557 -0.248588 -0.328803 -3.1E-5 1.852672 0.062382 0.975771 1.647089 0.249054 -1.705756 2.497013 -1.433038 0.006176 -1.127361 0.04681 -0.190021 0.013275 -0.011736 0.404454 -1.284529 1.123751 0.773553 0.150186 0.476522 -0.844947 -0.822727 1.237867 0.301099 -0.808226 -0.795328 -1.001324 0.97208 2.089526 1.334071 -1.774174 1.202239 -0.028521 0.583445 -1.758796 0.700464 -1.302324 0.651906 0.277665 -0.10369 -2.850493 -2.45992 -0.031481 0.1242 -2.131173 2.331275 0.508053 -0.630223 -0.757793 -0.017015 0.73476 -1.438342 -1.122003 0.23998 -0.397975 0.247438 -1.391531 0.654847 1.618204 1.284545 -0.119286 1.159434 -1.875068 -0.359493 0.609988 -1.210765 -0.736354 0.748033 0.871295 -1.006323 -1.61701 -0.935546 -3.003124 -0.349099 -0.323438 0.720048 1.033784 -1.324702 -0.118286 3.931173 -0.296161 2.062444 -0.858182 0.204783 -0.575649 1.356825 0.838264 -2.973729 0.610822 -0.229975 0.783754 1.036772 -0.958115 -0.437271 -1.708937 3.652432 -0.472494 0.286759 0.094739 -0.497881 -1.387636 -0.894347 1.717292 0.323606 -0.625553 0.254726 -0.556485 -1.92108 -0.473196 -1.618655 0.777586 1.582199 0.66663 -2.311072 0.211418 -0.907617 -0.593673 0.61858 0.600057 -0.79184 0.406752 -1.801186 -0.209005 0.162097 -0.076102 -0.074772 -0.994684 1.305931 -1.720343 0.723792 -0.598121 -0.715279 -1.554843 1.046576 0.15535 -1.145916 0.793641 -1.076449 0.825865 -0.304152 -1.548321 3.655304 2.411104 -0.810002 1.153178 1.275372 -1.121894 -0.032727 -0.766646 0.223692 -0.168763 2.005474 -1.203558 -0.856758 0.341494 0.840669 2.780009 -1.706788 -0.038544 -1.317873 0.858796 -0.808116 1.344565 -3.598089 -1.226561 0.480693 -1.559519 0.464856 0.120365 0.807042 0.406841 0.223723 -2.000093 -1.217671 1.569262 -1.231421 -0.267893 -2.058694 0.654401 1.512105 -0.414736 1.579325 2.207913 -0.729943 -0.175339 1.214555 0.141155 0.586225 0.108665 1.743266 0.99134 0.058758 1.519115 0.149547 -0.386182 -0.088094 -1.389024 1.529234 1.208803 0.261682 -1.784516 1.674532 1.695194 -4.784431 -0.182169 0.981859 1.866096 0.888375 -1.610476
announcement -0.249078 0.81479 -1.930335 0.69424 1.671801 -1.29746 1.550084 2.715472 -1.156351 1.006186 0.690975 -0.883329 0.174258 -1.308816 -2.09486 1.202628 -0.072382 0.083805 -0.221107 1.551542 -0.606052 0.475646 0.649532 0.10982 0.262238 -1.782589 2.987899 -0.771643 -0.767785 -1.491593 -1.338263 0.798715 2.060789 0.666775 1.388916 -4.059921 -0.762653 1.489832 1.384526 0.370092 2.076689 -0.473008 1.200464 -0.37335 -0.324134 -1.719681 1.291854 0.910205 -1.19228 1.348126 -0.988101 0.478949 -0.180734 -1.048073 1.239486 -0.98338 -1.428995 0.380814 -0.196225 0.002324 0.51909 -0.042371 1.30743 -1.264003 1.897843 -0.511567 0.009696 0.250924 -0.204435 3.285401 1.680403 0.597682 -0.750381 -0.950548 0.085289 -4.115609 0.464564 1.476727 0.81828 1.446264 0.912059 -1.539355 1.081304 0.682475 -0.850227 -1.113823 1.885672 -0.353882 2.60524 1.926361 1.087162 -0.840157 -0.782594 0.348355 1.553592 0.435664 0.21436 -0.742311 1.97611 -1.633019 0.293936 -1.88 -1.409886 2.895174 0.80118 -1.392214 0.94518 -0.386006 0.19373 -0.283432 2.178728 2.207491 -0.882547 -1.806208 1.723153 -0.775441 0.281673 -0.892578 0.500614 0.321354 0.143465 -0.30395 -1.483555 -0.587712 -0.292814 2.347285 2.799609 0.697641 1.686351 -1.324322 -1.616818 -0.899347 -0.393003 0.141995 -1.14688 0.792594 0.511698 -1.000989 0.032924 0.031657 1.083373 2.47492 -0.452087 -0.654688 1.734983 -0.145722 0.120358 0.548777 0.257746 1.33863 0.664621 1.717742 0.965043 -1.305104 -0.416624 1.255855 -2.925773 0.375546 0.523811 0.352933 -0.217947 1.728804 0.610852 -1.025444 -1.436787 1.107358 1.515354 -0.814687 0.122369 0.341041 1.765277 -0.9987 0.675765 0.31061 1.735294 -0.754174 -0.405278 -0.023594 0.085543 0.275597 -1.339591 0.461705 0.193457 -0.672795 0.328178 -0.082334 3.014027 -0.719447 -0.33013 -1.325025 -0.82673 0.372012 0.180781 1.923458 -1.231158 2.740148 1.745094 -0.153085 -0.427034 0.053304 -0.964181 1.374091 -0.590017 2.991806 -2.17231 -1.625816 -1.474521 0.065743 -0.507948 2.132885 0.703501 0.754141 1.273324 -1.819946 1.248974 1.028007 0.930489 -1.978339 -0.21779 1.922426 -0.171802 1.186212 -1.211003 -0.038842 -0.694717 -1.013383 -0.60787 1.700471 -0.785084 0.830384 0.651929 -0.135104 1.832106 -2.124289 0.980988 -1.658695 -0.360625 -1.043558 -1.487664 -0.749555 0.438439 -0.701854 0.276028 1.778467 1.388158 -0.010818 -1.708338 -1.836544 -1.034725 -0.106371 0.762531 -1.559521 0.938514 0.622762 0.698476 1.211094 -0.708005 -3.052845 2.4115 0.816054 -0.843119 -0.379232 -0.786714 -2.529688 0.42704 0.602656 0.220256 0.617201 -0.358512 -0.997319 1.312885 0.253404 -1.520217 -1.323028 -0.246036 -3.140891 0.666297 -0.240568 1.281655 -0.62194 -0.544871 0.61659 0.048988 0.393338 2.087074 -0.530158 1.157499 -0.173343 -0.057442 2.521813 -0.439583 -0.858253 -1.229302 1.672765 0.103342 0.036502 -0.271592 1.727745 -0.205168 -0.104197
mile -2.067881 -0.065216 -1.186066 -0.859437 -0.720498 1.03938 2.715622 0.351048 0.743488 -0.393346 -0.384644 -0.392924 -0.087806 0.649531 0.728531 2.485256 -0.248771 -0.358871 -0.130578 -0.462536 0.239028 2.049514 0.732484 -2.716639 -0.818911 -0.664103 -1.391019 0.2255 0.769786 -0.787394 0.471299 0.769084 -0.819093 0.195919 -0.492593 -0.84856 -1.041445 -0.651018 1.068402 -2.68282 -0.328329 -1.521136 -2.42245 2.138667 0.794394 0.019313 1.233141 0.369884 2.518121 -0.400605 -0.453156 -0.751447 0.130143 1.340577 -1.227733 -0.777134 -1.351049 0.441799 -0.364984 0.22542 0.578336 -2.593402 -0.448413 1.499689 1.133846 -0.662424 -0.404324 -2.569988 2.33037 1.085685 -0.495134 -0.59763 1.775231 -1.564053 0.672472 -1.485294 -0.151995 2.889719 0.653378 0.380876 0.644333 0.296155 0.862862 -4.513924 0.749283 -8.1E-5 0.022608 -0.11154 -2.326937 -0.238505 -0.44194 1.015603 -0.404554 0.1208 -0.174616 -1.798099 0.351988 -0.16049 1.278597 -0.633768 -0.670031 -1.136303 1.336276 0.338384 -3.151034 0.049647 -0.278638 -0.545705 0.016679 0.281181 -0.32158 -0.363439 1.29549 1.309845 -2.034728 1.677835 -1.437366 1.704088 0.870352 0.271934 -0.526448 0.518099 1.17559 0.96029 1.954985 0.959781 1.174678 -1.007357 -0.849687 0.651096 0.598008 -2.237053 -1.061367 0.653502 0.975651 0.183128 2.260335 1.249489 -0.446892 0.449636 0.686261 1.805161 1.047042 2.024778 -1.113088 -0.987578 -0.890783 -1.472972 0.043843 0.40324 -0.476986 -2.848512 -0.607992 0.870468 -1.256414 -0.932697 -1.192391 1.159076 -0.701928 3.403785 0.437052 0.088437 0.519365 0.447176 2.532181 0.126692 -0.388109 0.85968 0.753977 1.302122 -1.917935 0.372182 -0.542901 1.408347 -1.250806 -1.264737 0.579046 1.194421 0.79185 -0.439953 1.86601 -0.545844 -0.912159 1.433955 0.768343 -1.279238 1.212032 1.201475 -1.171858 2.023065 3.836397 -0.141909 -0.613013 0.253137 -1.597015 0.10189 2.599852 0.525372 -0.359809 2.25149 -2.522349 -2.737291 0.686543 -2.270003 0.290694 -0.182795 0.111318 -0.581098 0.507249 -0.845386 6.87E-4 -1.105596 0.039025 -1.883254 0.43685 -0.094779 -1.369038 0.885197 0.294682 -0.296879 -0.953237 0.147631 0.16789 2.734229 1.116449 0.512658 -0.367918 -1.085622 -0.411901 2.414313 0.710757 2.501202 1.61885 0.074265 -1.342587 0.393797 -3.233723 0.559618 -0.784241 0.33866 -0.252086 0.39974 -0.1803 2.278378 0.25531 0.8477 0.248326 0.596426 0.436789 1.870586 -0.717086 -0.206017 -0.773164 -1.416081 -0.110623 -1.618134 -0.615173 -0.059405 0.653684 -2.048669 -0.328335 -1.085761 -0.176629 -1.397388 -0.353763 0.662894 -1.052967 -0.611618 1.166451 0.489293 0.48605 -0.73724 -1.291045 -0.169639 0.167149 0.255872 0.117729 1.017331 -0.034557 -0.138079 -0.548608 1.35041 -1.5992 1.274808 0.679075 -2.217499 0.448884 2.252136 -0.045905 -0.664714 1.943322 -1.673839 0.569029 3.137172 -0.227663 1.752914 0.388045 -0.615156 0.078064 -3.475161
airport -1.177394 0.34743 -1.01012 2.642453 1.705259 -0.625286 0.025563 1.107954 1.204333 -0.763447 0.5041 -1.038238 -0.199933 0.136993 -0.710134 0.375317 -0.016021 0.455728 -2.504642 1.662783 -1.079985 1.301461 3.604339 1.287382 -0.12221 0.293585 -1.430126 -2.00186 -0.535555 1.41476 0.153861 -1.017645 0.806926 0.852412 1.039857 -0.182302 -0.725582 -2.318311 0.113599 -1.141568 0.577911 -1.317122 -2.786618 0.012335 0.337895 0.862933 -0.039928 -1.8143 0.861132 1.751982 0.472102 -2.80191 1.33716 1.160364 -2.113884 -0.323381 -0.435216 1.654694 -0.700951 -0.093386 0.135015 0.30282 -0.16787 -0.761526 0.641492 -0.575212 0.793823 1.400521 0.459717 1.257124 2.695201 -1.289675 0.786926 -1.14727 -0.089583 1.51266 -1.561912 1.556806 0.00554 2.562424 2.269593 -0.898951 0.932167 -1.11131 -0.875135 -1.115521 -1.817949 2.359829 -1.629718 -2.365463 0.94511 -0.089895 -0.322336 0.584 -0.091524 1.3479 1.653421 -0.895779 -2.83064 -2.794636 -0.234502 0.696494 -0.155652 1.514529 -1.730579 -1.680768 -0.01152 1.042963 0.648716 -0.483853 -0.457986 -0.230561 -0.930511 0.196524 -0.003132 0.828021 0.743306 -0.288339 0.397384 1.402027 -1.869845 0.276874 -1.788451 -0.67019 0.499984 0.502966 0.921412 4.117538 2.465237 1.485991 -1.002334 0.700276 -0.167653 -1.52595 0.343786 1.072473 -1.920138 1.363122 -0.654146 -0.19866 0.073792 -0.219938 0.307718 -0.031214 -0.617621 0.288184 -1.54149 -2.271096 -0.38945 0.626357 0.935936 -0.806631 0.721822 -1.550414 -0.08433 -0.053016 -1.259275 0.95456 0.532255 1.621104 -1.04993 -1.169305 1.461668 0.625063 -0.508069 -0.560778 3.379136 1.207419 0.137067 -0.415975 -0.373731 1.900761 -0.081871 1.343066 -1.365629 -1.942258 -1.655272 2.169827 -0.322667 -0.356634 -0.017833 1.097216 1.470027 0.348101 0.267535 0.67012 -1.624602 -0.298495 -0.507066 0.284974 3.224463 0.996378 -1.084094 1.328975 1.151912 0.956592 1.357827 0.352206 0.899643 2.502015 1.520351 0.927418 -0.624859 -0.41951 -0.181514 -3.054449 -0.293882 -0.429564 -0.562749 0.485486 -0.984174 1.839159 -0.19366 0.665721 0.981709 0.389904 -0.832259 0.295545 3.265222 1.153322 0.079043 -2.847834 2.338687 -1.112987 0.939493 1.162817 -0.21424 -0.147997 0.130549 -1.693498 -0.600806 2.139916 2.283781 1.399251 0.095753 -0.058926 -0.91174 0.920797 -1.565539 -1.028357 -3.060529 -0.208291 -0.73225 0.356991 2.102823 0.037313 0.023623 1.587133 0.270406 0.228695 -0.92527 0.938991 -1.937975 -0.275779 0.282536 2.852913 -0.402574 -1.13263 0.815277 -0.271322 0.253372 1.579534 0.484395 -2.51917 0.907148 0.78406 -2.024765 0.888496 1.094885 2.136772 2.912628 -1.421723 -0.190401 -1.792878 0.342232 -1.003555 0.15034 -0.091292 -1.687144 -0.948816 1.138249 2.241764 -0.515581 1.099753 0.928077 -1.791808 0.83958 -0.514059 -0.555244 1.171402 1.039319 -2.519318 0.95913 2.165688 0.035743 0.962631 -0.052555 -1.420646 -1.512072 -1.149488
population -1.252854 0.244902 -0.610998 0.336946 0.490666 -1.253987 -0.82687 -1.591412 -0.210803 -1.634632 -0.053224 -2.088258 -1.1434 0.312192 -1.207716 1.547628 -0.162054 -2.800213 0.127731 -1.977601 1.183874 -0.007538 -0.668394 -1.010182 -0.07853 -1.186764 -1.321971 -0.966912 -2.596712 0.286845 0.058918 0.888738 -2.800795 1.461821 2.755534 1.567847 -1.303831 -0.621133 -2.023244 -0.683351 0.636685 0.809863 1.537966 0.785858 0.033513 -1.391358 2.037035 -1.199032 -1.220912 -0.54944 0.116721 2.010143 -2.060971 -0.002051 -0.256207 -0.147887 -1.186564 0.616825 0.765662 -1.41958 0.788877 -0.079416 1.157673 0.488865 0.241156 2.688844 -0.973987 -0.348623 2.049347 1.059101 1.32687 -1.226042 1.900273 0.691561 -1.448817 -0.891399 0.609677 2.068911 0.613227 0.773179 1.626978 0.206649 -1.216112 -0.421521 -1.271183 -1.263306 1.008839 0.326087 0.32101 -0.784792 -1.024267 -2.492159 -1.253301 1.224583 -0.251392 -0.505886 -0.415644 -2.984227 -0.424266 -0.780107 -3.230581 -1.074381 0.267561 1.939092 0.196027 -0.26985 0.844978 1.68475 2.4467 0.889774 -1.328878 1.177316 -0.722618 3.556398 -2.284669 -0.42734 -1.049919 1.43606 -2.634899 0.055904 1.007515 -1.407802 0.254901 -2.599839 0.499391 0.170654 0.345326 -1.237159 -0.46594 2.248652 0.28206 -3.240198 -0.063481 1.44432 1.555794 1.688801 -0.903201 -0.676505 0.110549 0.20062 2.853858 -0.276554 -0.312791 1.114678 1.43374 -0.369957 -3.88102 -0.604093 1.445781 -2.027441 -0.496876 0.245882 1.179695 -1.409251 -1.389813 -2.589119 -0.93779 -0.116702 0.628349 1.366406 -2.56329 -2.535391 -1.047768 0.402099 3.662138 -2.939111 1.787087 -0.281936 -0.387276 0.81861 1.433993 1.416806 -1.93473 0.797729 -1.844283 -1.304217 -0.277945 -0.781223 -0.271331 3.191131 0.318611 1.205037 0.683415 3.42614 0.582905 -0.303461 2.972395 1.174513 -0.601236 3.259781 -1.140318 1.806885 2.024844 -1.097573 3.692667 -1.200238 -1.260369 0.122907 1.014919 2.186524 1.695548 0.572228 0.341926 -0.887595 0.721648 0.322228 -1.845781 -0.279485 -1.597023 -0.969726 4.22925 0.032379 1.006374 -1.058304 0.654953 -0.166602 1.408875 0.420749 0.294716 -2.778905 -1.801834 -1.000691 -1.324493 -0.55404 1.820091 -2.179349 -0.463835 -1.275396 0.381686 0.951773 -1.768484 4.868389 0.433647 2.572365 -0.442241 -0.252154 -0.943579 0.928727 2.745034 -1.775436 -0.140911 0.368375 -0.717346 -0.347337 -2.553562 -1.360925 0.640479 4.597338 -0.03409 0.653109 0.561514 2.253639 -1.222271 -0.415981 -1.592228 1.294701 0.733929 1.276836 0.906788 0.108559 2.164772 -2.581885 0.163781 -0.16357 -1.061691 0.889627 -3.675926 0.182872 -1.342788 1.444716 2.001112 -0.430174 0.956627 0.429761 -1.51764 1.412876 -0.647677 -0.671626 0.836891 0.807909 -0.057288 2.056667 0.215083 1.504284 -1.570924 -1.371472 -0.163362 0.59133 0.255256 -1.285145 2.355843 0.08219 -0.962122 1.304125 0.673238 0.33268 0.045969 1.188496 -0.071625 -6.040408
planning -0.178543 0.447687 2.275144 1.458782 -0.626385 -0.265918 1.244095 0.002761 1.260272 1.600425 0.715338 0.120678 1.609804 -1.151762 0.330284 0.801825 0.397224 0.405813 0.784344 -0.152809 -0.62931 -0.252572 -0.729638 1.192608 -0.656048 -0.454895 0.146742 -1.58926 -0.463546 0.44244 -1.635727 -0.622103 0.638497 -0.466683 0.499693 1.249369 -0.97999 1.316584 0.24862 0.798999 0.127811 0.237792 -1.223344 -0.400931 -2.233047 -0.787731 -0.06699 -0.869186 2.103342 0.615742 -0.866697 0.657936 -0.023979 0.25706 0.123859 1.677517 0.447009 0.285032 0.510005 1.532329 -2.667935 1.587062 0.602787 0.483039 -0.380178 -0.018944 0.834524 0.53221 -0.047072 -1.957348 -0.409876 -0.297447 0.387613 -2.328309 -0.369151 0.326714 -0.848208 -1.282772 -0.530057 0.239811 -0.324241 1.099843 -0.090147 -1.087049 -0.779721 -0.084989 0.807386 -1.553508 -1.853399 0.621852 1.158287 -2.067401 -0.0661 0.595926 0.556722 0.732914 0.079272 -0.522933 1.414498 -1.002017 -1.409056 -0.461693 -0.247827 0.781579 -0.946516 -0.311984 1.750367 -1.330302 1.011664 0.769673 -1.100638 -2.810545 0.268384 -1.506236 -1.821529 -0.541525 0.857547 1.131326 -1.463071 1.396923 -1.277762 0.137686 -0.179085 -0.588049 2.108925 0.640364 1.604768 -0.990136 -1.144734 -0.050582 -0.307853 -0.174488 -0.332856 -2.191069 0.441263 -0.657133 -2.033452 -1.136587 0.915781 -0.612771 0.374893 -0.181396 2.027793 1.4557 -2.786262 0.282854 0.005285 1.018122 -1.771896 -0.252773 0.026148 -1.082457 1.861587 -1.30905 0.299262 -0.236789 0.008068 0.766168 0.959933 1.197193 -0.433199 0.905914 0.886544 0.461122 -0.96485 0.800566 -1.149684 0.388227 -1.346957 0.475887 1.01992 1.66946 0.709212 1.161518 0.635195 0.323505 0.700415 0.192037 -1.976799 -0.881938 0.644342 2.061083 -1.832678 -1.187247 -0.907599 -0.761776 1.640069 1.148569 0.282543 -0.773823 -0.167597 -1.131623 -1.224565 1.661305 -0.322332 1.553146 1.081189 -0.144592 0.587815 -1.676285 -0.757093 1.378821 -0.600383 1.656836 0.148443 -0.138053 0.7926 0.06053 -0.311453 -0.645431 -1.587999 0.803047 -0.631609 0.403484 0.330665 -0.275825 -0.879801 -0.25462 0.438657 -1.258044 0.407785 -0.340384 2.699205 -0.52794 -0.633966 0.54538 -1.809538 0.614049 -1.404818 -1.28199 1.517679 0.082918 -1.810875 -0.64529 -0.325406 -0.721499 -1.066726 -0.031094 -1.511779 -1.192371 1.453365 1.365265 -0.895383 -0.340256 -0.244674 0.282385 -0.533177 0.759468 -0.15658 -0.011699 1.166494 0.911467 0.863506 0.913621 1.006892 1.403034 0.619033 -0.16049 -0.579103 1.332857 1.286942 1.117834 0.738095 -0.049961 0.504928 0.26827 -3.172097 -0.581263 -0.160331 -0.433767 -0.88209 1.148327 1.116834 -1.225022 -0.351198 -1.191317 -1.830468 -0.878227 -1.743819 1.647182 0.681902 1.41209 -0.878821 -1.580903 0.824348 -0.147878 0.669207 0.65252 -1.245247 -0.989768 0.24114 -0.64163 -1.115699 -0.800345 -1.615304 0.49953 0.764062 1.363031 0.102847 0.43593
canyon -0.949075 -0.514652 0.196807 -0.56236 0.25216 0.263482 -0.119464 5.9E-4 -0.577432 -0.356772 0.077813 -0.023918 0.393043 0.25852 -0.242119 -0.051538 -0.109071 -0.599384 -0.16617 -0.160573 -0.272191 0.426864 -0.121577 -0.337524 -0.516577 -1.118887 -0.160049 0.046889 0.225429 -0.24969 -0.130323 -0.165544 0.11105 -0.142299 0.496249 0.11378 0.130352 -0.838586 0.214857 -0.414076 0.023833 -0.125019 -0.314541 0.621436 0.349358 0.213515 0.35166 0.317754 0.272655 0.166666 0.400163 0.73222 0.166673 -0.433957 -0.407801 0.024543 0.0354 0.267977 -0.162982 -0.28393 0.324224 0.013482 -0.408413 0.02158 0.260794 0.054919 0.020621 0.055056 0.703984 -0.102595 -0.315829 -0.55916 0.527834 -0.046108 0.316422 0.231013 -0.192984 0.100818 -0.20719 0.491473 0.133452 0.412589 -0.187683 -0.813674 -0.031398 -0.002398 0.319011 -0.111496 -0.531752 -0.082732 -0.090242 0.320378 -0.778062 -0.20772 -0.391107 -0.091812 0.384407 -0.244735 -1.100411 -0.56597 -0.117222 0.065598 0.456905 -0.160219 -0.58847 -0.647056 0.134758 0.439025 0.289385 1.16371 -0.322136 0.751792 -0.343831 0.026731 -0.186661 -0.446973 -0.409423 0.394581 -0.439068 -0.50345 0.450489 -0.16228 0.549444 0.545314 0.259195 0.087173 -0.334855 -0.293423 0.378031 0.863531 -0.335412 -0.436402 0.351728 0.289905 0.513114 0.635144 0.199643 0.039812 0.146262 6.45E-4 -0.01814 0.335822 0.003655 -0.229164 -0.2627 -0.473412 0.216996 -0.682964 0.30589 0.446626 -0.289072 -0.12806 -0.218499 0.415539 -0.128193 0.243107 -0.083812 0.329735 -0.00483 0.817742 -0.081678 -0.357646 -0.149867 0.516005 0.424017 -0.404131 -0.130166 0.377643 0.133965 0.028633 -1.116682 0.562365 0.657481 0.377406 -0.900454 0.430649 -0.34921 0.214111 0.293209 0.365944 0.33349 -0.828378 -0.457219 0.535144 0.11056 -0.359963 -0.179336 -0.203713 0.289677 0.087487 0.867724 -0.839141 -1.076114 -0.084204 -0.296883 0.353268 0.404936 0.252399 -0.110103 0.392872 0.221455 -1.113977 -0.544245 0.195298 -0.048019 0.345024 0.664393 -0.344295 0.041477 -0.495309 -0.332683 0.027052 -0.33537 0.251689 0.703995 -0.029698 0.166306 0.079248 0.453945 -0.372932 -0.490189 -0.242424 0.238204 0.339873 0.038247 -0.377485 0.331626 -0.660661 0.159096 0.361085 0.370133 0.325624 0.912796 0.347787 -0.140273 0.313961 -0.68783 -0.002709 -0.160454 -0.539822 0.294861 -0.005277 0.080744 0.826102 0.117695 -0.342378 0.139296 0.167017 -0.06891 0.303788 0.226137 0.103622 0.062601 0.01587 -0.285917 0.060019 -0.076183 -0.273745 0.276608 -0.269429 -0.11273 0.627399 0.041562 -1.140129 -0.425738 -0.167971 -0.075234 0.355078 0.233217 -0.290892 0.395414 -0.248369 0.240634 0.27028 0.283163 -0.001322 -0.097598 0.213492 -0.255461 -0.174034 -0.468834 0.185472 -0.720622 -0.483952 0.476228 -0.007409 -0.176137 0.333609 0.148213 0.048741 0.08334 -0.308019 0.038126 0.571441 0.445017 0.207747 0.126103 -0.933709 0.244797 0.045251
delay 0.449317 -1.630677 0.400194 1.734748 0.974113 -3.063006 0.073993 -0.006116 -2.506859 0.519763 0.219274 -1.902679 0.179348 -0.818308 -2.476258 1.293621 -0.186387 -0.133755 -0.464364 1.380307 2.056531 -0.344672 -0.795111 0.704079 0.43835 -0.381354 -0.256795 0.432599 0.71384 -1.192281 0.38171 -0.229761 -0.955515 0.063131 0.055483 -1.675724 0.574686 0.403729 1.663384 -0.228429 -1.681726 -0.82579 -0.937116 -0.02427 0.928682 -0.71283 -2.126935 -0.219764 1.174491 -0.745131 -1.835584 -0.53503 -0.157008 0.647331 0.469129 -1.514285 -1.303099 0.769401 0.400399 1.209572 -0.023656 -1.214687 0.148512 0.98129 1.608199 0.611307 0.928964 -0.898233 -1.368415 0.071085 0.37323 -0.87643 0.143869 1.003546 -1.252658 0.145486 0.141817 -0.485146 -0.119258 1.113548 1.607553 -0.528277 -0.063941 -1.273492 -0.372477 0.809 -1.394807 -0.276238 -0.019686 -2.212193 0.761773 0.503545 0.487559 1.356719 -0.566242 0.300698 0.407518 1.244203 1.490852 -1.231017 -1.089548 -1.367741 0.290732 1.542164 0.094648 0.042295 1.89214 -2.060481 0.612333 1.832941 1.514114 -0.226486 0.898728 1.142536 -1.43584 -2.338603 -0.317695 -1.830316 1.131415 0.393971 -1.270994 -0.6921 -0.574798 -1.420103 1.098663 0.618573 1.076276 -0.413703 0.409777 -1.602844 -2.116913 0.214641 0.631938 0.669802 -1.708968 -1.428212 -1.191182 -1.019608 1.588466 0.306579 0.389567 0.990003 0.539236 -0.789191 0.5829 -0.162686 2.698578 -0.788976 0.247539 1.61382 0.272684 0.442169 0.485361 1.432654 -1.570846 -2.244657 -0.289779 1.146295 -1.158346 2.397104 -1.94927 0.650759 0.80508 -0.771052 -1.91453 -0.602396 1.237998 -1.330437 -1.738381 1.197075 -0.162367 -2.26848 -0.506611 1.086122 0.99173 -0.366983 -0.875608 -1.167166 0.529472 -0.882918 0.614437 1.177787 2.311636 0.19701 0.972121 0.148901 0.7079 0.451275 -1.814231 -0.684021 0.076181 -0.337941 0.94438 2.482278 -0.595931 1.217553 -1.206922 -1.080225 -0.934734 -0.387301 1.075595 0.480333 -0.63158 2.044045 2.775722 -1.145132 -1.189137 -0.344091 -1.549361 1.335257 0.642434 0.572758 -0.092905 0.94862 1.168516 -1.146756 -0.264949 -3.274472 -1.54227 -0.274586 -0.884629 -1.289667 -1.351975 -0.90696 0.752821 -1.189916 -0.192403 1.111845 0.954961 -0.429513 -0.549283 -2.095273 0.294024 -0.492935 -0.01726 0.327936 0.51162 -0.089889 -2.075649 -2.02 -0.07531 0.2075 1.528375 -0.697161 -0.191952 2.108761 -0.168398 -0.139611 -1.339443 -0.27901 1.276466 -0.540315 -1.049633 -0.19005 0.477522 0.391855 0.068795 -1.567757 1.794048 0.975246 -1.579562 -0.013603 1.086869 -0.097886 -0.275065 -1.341588 -0.775972 0.966699 0.101347 0.003831 0.707629 0.121231 -0.85693 -1.289795 -0.618186 -0.760056 -0.303243 1.552126 -0.415957 1.891309 0.030028 0.152892 -1.173201 -0.15659 0.65199 0.644206 -0.268553 0.704574 -0.735659 0.93148 -0.293071 0.1624 -0.581267 -1.218203 -1.107201 -0.294517 -0.116005 -1.738092 -0.228818 0.397718
size 0.813085 -0.854863 -0.092968 0.443041 -2.423745 1.172069 -0.420498 1.710991 0.18854 -0.941425 0.622767 -2.480087 0.540299 0.642942 -0.115912 0.92462 -1.406668 0.765861 -0.99334 0.892829 1.823227 -0.314402 -1.597487 -0.252717 0.110502 -1.024989 -1.166407 1.608616 -1.187602 -1.239484 1.34052 -1.654016 -1.701628 -0.340596 0.801884 -2.106683 -1.846641 0.907069 -0.744676 -0.09749 1.067933 -0.501967 0.11322 0.887332 -1.64893 -1.96146 2.116282 -0.053214 0.67388 -0.932348 -0.836276 2.241946 0.585802 0.056594 -1.031574 0.315102 -0.80531 -0.92092 0.027808 0.899678 1.291892 -2.099576 -0.292109 1.994005 0.981867 -0.222216 -0.108338 -1.233751 -1.03528 2.020818 1.147781 -0.9284 -0.171024 0.465985 -0.694633 2.201102 -1.222266 -0.207199 0.618797 1.989037 0.58284 0.054847 -0.157929 1.147971 0.275474 -1.824383 1.150359 -1.013723 -0.615658 1.210438 -0.044968 0.410169 1.001304 -0.343743 1.127689 1.333498 -0.206194 -1.622084 0.67467 0.238788 -0.629117 -0.639925 1.830261 3.14624 -0.970427 0.076007 0.683928 2.055741 1.009569 0.328864 0.249407 2.075786 -0.104759 0.355124 0.97051 0.494019 -1.948022 -0.254083 0.958003 2.683986 -1.05297 -1.984051 -0.138799 -1.65271 0.687085 0.421962 0.446682 -0.808317 -0.261736 -0.786072 0.005522 -3.575754 -0.384233 1.293439 0.120606 0.979894 -1.223366 0.167407 0.660385 0.091586 1.293304 -0.066518 -2.223807 1.253584 -0.47333 0.729737 -3.251123 -0.784436 -0.304764 -0.490595 0.571686 -0.72197 -1.114559 -0.64013 -1.809487 -0.306775 -0.177662 -0.391181 0.58295 0.486987 0.438162 -1.48742 -1.901708 1.115811 2.194948 -1.830351 -0.577949 -0.117332 0.450478 0.19471 1.247763 0.895589 1.442913 0.118918 -0.477504 1.461442 -0.519115 -0.458897 -1.398514 1.529678 -0.191585 -0.696105 -2.229538 2.69328 -1.483255 0.175786 0.84447 -0.358499 -0.837987 1.235279 -0.740209 0.170607 -0.138835 0.58966 1.24676 -0.517795 0.788844 -0.74196 -1.786819 2.199723 0.761718 0.165359 -0.580409 -0.237693 2.259799 0.809504 0.103642 0.240794 0.32982 -0.49023 2.207991 -1.218403 -0.10885 -0.21628 1.662186 -1.170848 -0.944424 1.627907 1.525914 -0.876235 -1.720719 1.380903 0.206136 -1.176228 0.235792 1.149375 0.399198 1.581143 -1.302898 0.868501 -0.193687 0.989797 -0.696171 2.469336 -1.126094 -0.032112 -1.63187 1.26461 0.385773 -1.237026 -0.315798 -0.229679 1.159971 2.079495 -1.237683 2.118734 1.011429 1.195088 -1.048059 1.160585 0.368938 -1.063366 -0.591775 -3.133724 -0.819484 -1.136188 0.348836 -0.047033 -0.328206 -0.060873 1.729795 -0.411654 2.267881 -0.23454 0.61312 -0.657671 -1.602391 0.329583 -0.610884 0.719136 0.739063 -0.133328 0.822368 -0.282657 0.185893 0.676185 -0.812376 -1.177651 0.667919 -2.63412 0.055204 1.386013 -2.651406 0.724698 1.254784 0.24912 -0.452921 0.711682 -1.641437 -1.058993 0.41144 -0.875979 0.975185 -0.098679 -1.378151 -1.007784 -0.208775 2.721996 1.739278 -3.144845
peace 0.30958 0.948498 -2.469611 0.212324 -0.133034 -0.942196 -0.987745 0.220748 2.57326 -2.32483 1.416665 -1.611259 0.476654 0.416856 -0.512266 0.034318 1.180658 -1.544167 0.945072 2.365155 -0.773219 0.812097 0.734014 1.279702 -0.200299 1.127905 -0.737781 -0.322881 -2.603013 -1.660185 1.385935 0.162906 -1.388726 1.037735 -2.106246 2.183586 0.803036 -1.771641 2.353912 -0.155765 -0.427455 0.770537 -0.503268 -2.263879 0.013738 1.522792 -1.787207 0.388222 0.652206 -1.23388 2.774039 -1.454873 -0.771648 -1.579598 -0.654708 0.098295 -2.402876 2.618001 1.749138 -0.399162 -0.483075 -2.900417 0.123178 -1.400528 1.532935 0.660949 1.871428 -0.261539 0.619686 -2.054458 1.260133 0.886623 -0.848182 -0.308084 3.364846 -2.739737 1.064826 2.564439 -0.663809 -0.168145 -0.522093 -1.566868 -1.870297 -0.477031 -1.143219 0.902667 2.801846 -3.150202 0.250975 -1.104088 -1.657549 -1.552261 -2.108074 0.99221 0.371194 -2.168144 0.823749 -1.03008 1.392308 -2.072842 -3.275529 -1.834473 -2.07437 1.251071 0.434128 -1.860103 0.626201 -0.468089 1.974538 1.543681 -1.365009 0.698542 1.468387 2.461388 0.42761 0.632898 -0.540195 -0.865309 1.156112 2.792128 -1.251544 -0.506884 0.972864 -2.593695 0.070594 -0.508201 0.569589 -0.638815 -0.879798 -3.995876 -0.390562 -1.353482 1.29166 1.781068 -0.794134 1.057109 0.074789 -0.038629 -1.837996 -2.138187 -0.460665 -1.195476 0.128721 -2.141864 1.356793 0.001487 -0.520563 1.328169 1.383199 1.513174 1.610469 -0.674083 1.019272 0.706856 0.675891 -2.06437 2.199727 0.951979 0.752931 0.263377 -1.400567 2.506522 1.507551 3.312675 -2.247814 -0.12449 0.109361 0.28539 1.590047 0.974252 -0.354958 0.861806 -0.545569 -2.945102 0.812441 -0.613595 -0.623105 -0.044019 1.499912 1.325515 2.214654 1.239496 0.837014 2.099292 -1.056816 0.097812 2.265102 -1.485123 -0.685367 1.19526 1.67582 -1.832737 1.255733 0.130428 1.329009 0.394426 1.013989 -0.684279 0.052762 0.619287 -0.813096 1.843132 -1.252857 4.643424 0.64376 -1.701251 -2.0464 0.723415 -1.230321 0.406164 -0.021239 -1.329829 2.059461 0.181746 -1.930509 -0.701395 -1.153977 -3.207754 1.635478 -0.879687 0.471994 1.939929 -0.348145 0.261977 -0.562207 0.814807 -0.295852 -3.005623 0.592732 1.567525 -0.629692 0.421722 0.460641 0.770459 0.997623 -0.701469 0.953877 1.853818 0.382948 0.088407 0.770227 0.41505 -1.959851 -1.091922 -0.74297 -1.446545 -0.309367 -1.87654 -2.170255 -0.59352 -0.786753 0.660179 -1.115743 1.073029 -0.71917 2.281698 1.000852 -0.955371 0.999061 -1.071488 0.753316 2.157704 -1.317971 0.917835 -0.070261 -0.936424 0.69828 2.299053 -0.134615 0.040902 1.04382 0.979768 0.247287 0.570664 -3.557322 1.615188 -0.365693 -0.212447 -1.142701 3.131079 0.88422 -1.044219 1.399118 0.212113 -3.52528 -0.995691 1.464202 -2.53423 1.255249 0.610495 0.63816 -1.584898 0.619655 0.944328 -0.579559 1.847197 0.718968 0.462174 -0.214825 -1.294069
science -1.018453 -1.131464 0.518485 -1.772138 2.123771 -2.132329 0.466907 0.362727 -0.446923 0.462749 -0.701312 -1.098567 -0.775679 -1.347586 -0.153773 -0.306325 -0.718152 -0.090424 0.182949 -2.332332 -0.104464 0.670152 -1.062259 -0.308115 0.847278 0.135042 -1.894997 -2.489994 -1.351205 -3.336716 -1.789834 -0.528992 -1.894546 -1.396941 -1.790061 0.736401 -0.365099 -0.655682 -0.166327 1.340234 1.001004 0.147147 -2.394288 -0.00289 0.619615 1.573999 2.024066 -0.443781 0.579546 -1.725468 -1.237305 0.166812 -0.54256 -0.158151 -1.089805 -0.361208 0.227153 -0.133869 1.373554 -0.994752 0.57086 -1.09937 1.228871 -1.904526 -1.567086 1.903341 1.060244 -0.326302 0.110273 0.300927 0.455507 0.566129 0.441329 -0.464615 -1.179135 -0.359353 -0.124751 -1.63535 -2.43106 -1.719775 -0.329748 1.199613 0.910684 0.11458 0.684032 -0.789713 0.665163 -2.516594 -0.972899 -0.86752 -0.691096 -0.434343 1.229624 -0.299385 -0.008732 -0.934628 -0.597423 -1.192838 0.540242 0.271039 1.230644 -0.505972 1.093031 0.800365 -0.320207 -0.350232 0.181971 0.845694 0.693909 0.171676 -0.297262 0.038963 0.224525 1.149301 -0.514563 0.374958 -0.394214 -0.597409 0.875774 0.771265 -0.345936 -0.862434 0.11953 0.065957 0.954356 -0.563252 -0.206283 -0.046811 2.8262 0.242615 -0.059424 -0.479396 -0.313914 0.58243 -0.404416 -2.020838 0.903084 -0.335093 1.362394 -0.729903 -0.432995 -1.717662 1.371708 -1.237378 -1.291577 -0.944602 -1.496742 -0.253157 1.918367 0.983751 1.072328 1.087551 0.68163 0.207208 -0.616835 1.279397 1.046994 -1.048423 1.873564 -0.215264 0.556925 -1.237923 0.96503 -0.905859 -0.509636 1.408209 0.625256 1.564016 0.33704 -0.328054 1.37475 0.208152 0.629476 0.008928 2.168134 1.092031 0.187224 0.237872 0.008485 -2.219757 0.198813 -0.26311 -0.268383 1.080177 -1.071735 0.206518 0.581739 0.768712 -0.435247 -0.733208 -1.940708 -1.418718 0.329579 0.6526 0.236807 -0.670198 -0.550566 -0.467737 -1.039279 0.113498 -0.984603 0.385582 1.967604 -1.702752 1.74668 -0.318762 -0.680094 0.506148 -0.822057 -1.925385 1.537262 -0.642552 -0.395127 -0.526655 0.551425 0.202439 -2.675451 0.335563 0.764173 -1.09457 2.309654 0.426395 -0.11782 -0.442486 -0.497858 0.767364 -0.837816 -0.504509 0.417138 -0.088818 -0.620433 -0.465376 1.139822 1.864911 -0.394266 -0.482338 -0.49076 0.400998 1.654171 -0.037535 -1.424007 -0.582567 -0.622438 -1.090044 0.809331 0.606758 0.30566 -0.169163 -0.68637 -2.550633 -2.402853 -0.131403 0.191504 -1.03221 -0.557555 0.015388 0.67251 0.034337 -1.687253 1.940682 0.103991 -1.452767 -0.174965 0.758025 -0.198546 2.371782 -0.573452 0.638101 -0.970273 0.916704 0.278074 -1.970589 -1.064181 0.030251 -0.93398 0.801716 0.759533 -0.778752 -1.523073 1.888265 0.310154 -1.245234 -0.522458 -0.823492 0.087139 0.873286 0.085431 -1.995711 0.472694 0.042278 1.124789 0.334151 0.090321 -0.215885 -2.097314 -2.381844 -1.128703 0.880844 1.481025 0.330208
dawn -0.595518 0.458395 -0.808159 -2.098017 0.520911 -0.78807 -0.036407 1.060124 -0.05828 0.617353 -0.057743 0.379198 -1.181409 -1.297431 -1.326602 0.316159 -2.337946 -0.89487 0.282824 0.325055 -0.939436 0.445878 1.821705 0.526967 -0.320757 0.101947 1.534109 0.181875 -0.104946 -0.855805 -0.402242 -1.354058 2.471496 0.265589 0.021182 -0.902532 -1.196382 -1.203272 0.376578 0.099189 0.54674 -0.467149 -1.290045 1.191792 0.944623 -0.650729 -1.304823 -0.391436 0.488442 -0.432004 -0.724866 -0.670974 -1.753603 -2.288229 -1.097596 -1.232204 -1.235037 2.5914 -1.472867 -1.139016 1.020098 0.077844 0.059589 -0.273561 0.790784 -0.20032 0.252136 1.260683 0.462848 -1.112927 0.354842 -0.694888 0.452036 -0.365505 0.09364 -1.212076 -0.158081 0.638257 0.527346 -0.565649 1.314168 0.084697 1.475281 0.46024 -1.433172 -1.377833 0.904171 2.023638 -0.196366 -1.231983 -0.677408 0.009611 -0.28998 -0.431441 0.526149 1.005908 -0.300313 -0.660848 -0.80813 -1.39344 -0.929325 0.050106 2.222089 -0.404896 -0.676049 -1.042843 -0.072958 0.152788 1.191382 1.63567 -0.884624 1.214375 -1.054489 -0.50803 -1.482527 0.02959 0.950192 0.157061 -0.354437 -1.286042 -0.544503 -1.542325 -0.721194 0.904327 0.815894 0.914237 0.788191 1.230537 2.000077 0.362001 -0.413428 0.189891 1.477029 0.370811 0.139722 1.512978 -0.822641 1.009561 -0.026897 -0.124717 1.285209 1.456295 0.295957 0.676027 -0.527376 -0.636132 0.982942 0.880854 0.3557 1.011226 -0.460694 0.10234 -0.692987 2.433643 -0.714036 0.908354 -0.676133 0.460775 1.863832 0.440222 0.295453 -0.103548 -0.458305 2.852865 0.250813 0.421868 0.982335 -0.75908 0.012922 -0.512746 0.848545 0.396844 0.34886 1.5394 -0.361823 1.133103 -0.187279 0.122855 -0.190295 1.94732 1.290707 -0.549874 -0.749679 -0.197557 -0.03634 0.706348 -0.14936 0.238614 0.342783 1.596454 1.461972 -0.671396 -0.153169 0.67774 -0.926868 1.241245 2.086861 -0.522779 -0.793835 0.925289 0.153347 -1.852161 0.776295 1.160322 -0.031642 -0.785942 -1.027718 -0.465319 -0.336429 -2.047526 -0.842177 0.495327 0.089736 -0.764351 -0.48507 0.796246 -0.304299 -1.060433 1.038571 1.860102 -0.77292 0.454548 1.222136 0.3558 1.995782 0.776621 0.606708 -1.488797 -0.642885 2.732012 0.086118 0.954962 2.94741 -0.961691 -0.448198 0.242773 -0.221473 0.038727 -0.120142 -0.135715 -0.713152 -1.534333 0.117003 0.96582 -0.073945 -0.249586 0.369584 -1.108842 0.115099 -0.382943 0.788124 1.156 -0.324185 0.836504 1.135969 0.487017 -0.906376 0.207492 0.515369 0.495311 -1.241259 0.504813 -0.864147 -0.900029 -0.152152 -0.566381 0.645727 0.165485 0.82385 -0.008375 0.379919 0.252667 -1.140952 -0.058819 -0.113581 1.155065 -0.410784 2.079 -1.904358 -0.690211 0.30585 0.508872 -0.246896 0.423545 -1.005106 -2.20715 -0.213883 0.13278 1.198041 -0.14091 -1.051741 -1.124861 -1.353912 0.848583 -1.3202 1.219188 -1.313407 -1.343311 -0.691573 -0.346559
brother 1.106526 -2.538047 -2.817601 1.30138 -0.119273 0.829249 2.07879 -1.571581 0.201254 -1.144779 -0.930081 -0.281524 0.558082 -0.861822 0.72327 -0.660969 2.146756 -1.001969 -0.353848 1.115568 1.75256 0.243788 0.956238 -1.498988 3.852541 1.607956 2.283858 0.572348 0.846747 -0.220047 2.667734 -1.184575 0.423229 1.691956 -1.557782 -1.426316 -1.238201 -2.400295 -0.851745 -0.703364 -0.22595 -0.181656 1.43716 0.01103 1.741784 -0.717631 -0.931364 -1.419394 -0.113319 -0.036305 0.949053 1.653668 -1.482994 -1.004812 -0.862674 -0.543028 0.483677 0.778661 -1.352695 -1.20347 -0.167003 1.797376 -0.166803 -1.477208 0.672077 0.456068 -0.84869 0.555406 1.514325 1.012271 -0.972909 -0.137679 -1.373264 0.390262 1.224511 -0.296567 0.745766 0.055382 1.045404 1.950839 1.731291 -1.253736 0.691013 1.729308 -0.924485 -0.571828 0.927637 1.179602 0.372263 -0.568517 0.198903 -0.371934 1.358377 1.641797 -1.541475 1.307433 -0.509947 1.223177 0.511267 -1.690032 -0.929506 0.627205 0.795946 0.008619 -1.722458 1.843761 0.844116 0.314932 -0.695797 -0.688155 -0.409868 -2.101819 -1.726645 0.764396 -0.930251 1.43701 0.066765 0.743429 -1.72562 1.267007 0.201911 -1.612552 0.351376 -0.622768 0.67616 -1.463545 0.238993 -0.504669 1.994985 1.037203 0.761553 -0.827338 -0.907372 -1.076384 0.926109 -1.147896 0.343878 -1.38089 -0.631494 -2.187579 0.405508 -0.60269 -1.816587 -1.050326 -1.731482 2.695119 -0.785801 1.645866 -2.526692 -1.382983 -2.695694 -1.479687 -0.712723 1.094724 -1.368385 -2.345981 -0.294236 0.670825 -0.408358 0.36468 -0.227863 1.261377 0.300087 2.697977 -1.59174 -0.350485 -0.051671 0.829107 -0.345875 0.306644 0.246837 1.175474 1.28045 -1.458607 0.557706 -1.623381 1.381306 -0.868883 -0.62152 1.420904 0.36622 1.50605 2.300592 -0.12718 -0.243932 0.302064 -0.375518 0.656362 -2.348843 -1.143398 -0.242585 1.766785 0.154943 -1.384863 0.081951 0.375602 0.667995 2.044948 -0.928262 0.237214 -1.172183 -2.12335 -0.144314 0.197307 0.200392 -1.120972 0.08106 1.71746 0.219058 0.931993 -1.397705 -0.232272 0.811225 -1.04397 0.434738 -1.099351 2.161101 0.076867 -0.092389 0.41117 -1.559389 -1.374471 0.646616 0.246452 0.124231 1.528259 1.482925 1.323835 -1.116154 -0.610638 0.448125 1.029197 1.07837 0.76559 0.470884 0.006935 0.111085 -1.517407 -0.590263 0.069062 -1.025274 -0.054783 -4.423168 -0.362281 -0.007365 -0.107441 2.399601 -1.014579 1.516267 0.859217 -0.841586 -2.130698 1.37554 0.757561 0.940898 0.615313 0.297015 -2.01786 -0.198534 -0.436909 -1.014915 -3.388278 0.239741 -0.012119 -1.64339 2.322756 -0.386636 -0.428781 1.442319 0.504602 -0.812713 -0.889403 -1.634507 -0.893246 -1.077921 -1.441785 -2.443401 1.728334 -0.815043 -0.057791 0.270089 0.28793 0.262038 1.751265 0.464287 0.663279 -0.951427 0.471136 -2.255137 -2.247799 2.555124 -0.331083 -1.013992 1.417212 2.064506 -0.700352 1.696204 -0.017042 -0.712657 -0.534772
wine -2.301507 -1.077336 -1.601114 1.109284 -0.439082 -1.0626 -0.130826 -0.512093 -1.283941 -1.058131 0.140407 -0.322914 -1.663953 1.026124 0.884657 0.285719 -2.19242 1.215559 0.592848 1.30865 0.913789 -0.244309 -1.69975 1.664886 -0.126375 1.88769 0.11736 1.925871 1.676839 -1.167326 -2.578897 0.822204 -1.709269 -0.145651 0.059229 -0.514985 0.405366 -0.30668 -0.405109 1.649892 -0.970146 -0.572392 0.294861 1.25464 -0.458663 -0.351225 1.881545 -1.573054 2.061852 0.519811 0.058887 -1.41068 0.788615 -0.740187 -0.083773 1.406858 0.261892 0.51188 -0.46375 -2.28696 -0.382765 1.04502 -0.958858 -3.769574 -1.107211 1.218665 0.162877 -1.530859 0.20703 1.821344 1.274604 0.697394 -2.083544 0.531346 0.261005 0.064495 -0.514081 1.422034 -2.123024 0.122878 0.509967 0.763724 -0.56539 -1.340043 2.261311 0.775164 1.059342 0.748232 1.288222 0.347886 2.156115 -0.988124 0.78914 0.743957 0.882476 0.527628 0.048701 0.513326 -1.551261 0.083257 -1.485058 0.690955 1.425509 0.193916 -1.637679 0.026142 0.402089 -0.076501 1.64285 2.141601 -0.12211 1.924846 -1.557966 0.523589 -0.473028 1.815889 1.231724 -0.417824 0.425532 0.222586 2.199471 -0.233032 3.406166 0.816892 0.463578 -0.748547 -0.295385 0.136331 2.779428 0.66453 1.738826 0.379618 0.222815 -0.484391 -0.638708 -0.151871 -0.499252 -0.289071 -1.440066 -1.606206 0.442927 -1.213395 0.663261 -0.779802 -0.659168 -0.198156 -0.529739 -0.183332 -1.059187 -1.707085 0.394513 0.247436 -1.151072 -1.852829 0.397558 -0.04884 1.00475 0.217346 -0.474732 0.532674 -1.182741 0.774554 -0.532692 -0.090382 2.260278 -2.006123 -2.479294 -0.25213 2.161652 -1.151535 2.363595 1.560445 0.972841 -0.682663 0.116577 -1.03236 -0.995762 -1.372054 -1.088633 1.016711 0.240007 -0.45904 0.34338 -0.057766 1.453284 1.178471 -0.775763 0.917532 -0.581171 1.253461 -0.349635 -0.133706 -2.070235 1.076296 -2.268508 0.552336 1.52556 -3.320825 -2.972458 1.469641 -1.073524 -1.618802 -1.89596 1.150688 0.662062 1.342415 -0.033158 -0.740453 0.904014 -0.740747 0.849164 0.084946 -1.395439 0.542581 1.823593 0.093221 -0.360062 -0.596315 1.090639 -0.598705 -0.450512 1.828694 0.021765 -0.237877 -0.303946 -0.235736 -0.503219 -0.069551 -3.021143 1.599686 -0.835245 0.938354 1.453604 -0.365437 1.918754 0.644626 -0.735636 1.503079 2.512566 -2.121022 -1.170762 0.408104 0.313685 -0.362076 0.39434 0.202774 -0.727704 0.981355 -2.150627 1.304708 0.877195 1.480703 0.486592 0.294088 -2.894771 -0.130753 -0.231394 -0.222924 0.987963 -1.652751 -0.014004 1.523703 -0.04354 0.305492 -1.164363 -0.316756 0.233214 -1.12538 -1.100323 -0.15227 -0.648571 0.963052 0.942634 0.805776 0.171231 -0.801329 -0.3967 0.472803 -0.847717 -1.563451 -0.570204 0.758742 -0.365877 0.627132 -0.544024 -1.64646 -0.765546 0.618261 -0.332411 0.018448 0.870336 0.271103 1.586057 -1.144993 -1.561839 -0.655773 -2.499401 1.763802 -1.933026 -0.797526
object -0.301533 -1.28599 0.384455 0.675144 1.059496 -1.392241 -0.207909 0.808018 -0.747901 -1.477989 -1.048421 -0.644562 0.210274 0.013423 0.029849 1.007541 0.796286 -0.122322 0.178397 2.102121 0.371991 -0.728181 -0.460654 0.501587 1.937433 0.219379 0.569523 0.404684 -0.135611 -1.264592 -0.161946 -0.349204 -0.112875 -1.733394 0.140308 -1.329286 -0.402393 -0.878046 -0.200479 -1.16928 -0.430207 0.294106 1.428716 0.34359 0.668504 0.435533 -0.46202 0.986889 0.460342 -0.311813 -0.573326 0.884939 -1.731966 -0.952491 -0.046494 -0.366363 -0.515043 -0.769086 -0.258953 0.359013 1.691904 -1.659027 0.617673 -0.600494 0.287029 -0.49598 0.879719 -0.253107 1.361252 -0.696672 0.775357 0.172592 1.038252 0.440382 -0.146983 0.219427 -0.887462 -0.314786 -1.277876 0.230844 0.86195 -0.41746 0.757357 -1.356959 -0.627811 -1.133581 -0.904498 -0.713944 0.376212 0.070154 -0.274232 1.17268 -0.213144 0.355992 0.577147 0.750735 -0.135919 -0.902574 2.229339 -0.57736 0.337012 0.562009 0.924305 2.498024 -1.14683 0.15759 -0.400585 0.131742 0.649715 -0.362281 -1.57591 0.307185 0.330062 -1.671362 -0.895806 -0.308316 -1.022837 -0.860267 0.096711 0.878162 -0.111464 -1.401837 0.345931 -0.404263 -0.246652 0.303794 1.035389 0.711049 1.350842 0.839142 0.134006 -1.65908 0.875025 -0.650012 0.638529 -0.25915 0.023366 -0.194747 -0.985917 -0.540774 -1.052477 -1.129453 -0.073286 -1.739421 0.61096 -4.13E-4 -0.311636 -0.513024 -0.216053 1.747686 -0.556542 0.663513 -1.302105 -0.492804 -0.715172 0.702435 0.742125 -0.638569 -0.626553 1.314847 -1.061286 0.589337 -0.249311 1.206616 0.696993 -0.057138 1.063433 2.010432 -0.70789 1.022962 1.027132 1.454032 -0.712791 1.923149 0.289361 1.113308 -0.156968 0.290783 1.118037 -0.295726 1.009936 -0.494943 0.305612 0.710235 -0.279684 -0.083438 -0.083906 -0.261746 -0.062263 0.528536 -0.658366 -1.341115 -0.42087 -0.530004 -0.18161 -0.555382 1.466993 -1.179694 -0.082067 0.869091 -0.078101 0.123347 0.407126 -0.004269 0.077646 -0.611904 0.056161 -0.089187 0.208476 0.164607 0.555505 -0.140153 0.046689 0.256986 0.590368 -0.358021 0.503823 -1.431372 1.450869 0.674295 -0.174033 -0.197033 -1.08225 0.240601 -1.342766 0.822315 -0.005765 -1.014814 -0.022353 -0.201211 -0.581836 0.079645 1.312476 -0.106295 1.930831 -1.247913 -2.449617 -0.371315 0.509139 -0.817513 0.414789 -1.141253 -1.446513 -0.302532 -0.147863 0.016915 -0.281554 0.675797 -0.683788 -1.268221 0.112793 0.32082 -0.359358 -0.13903 0.465881 0.945919 0.473889 0.698073 -0.299449 0.262409 -1.408162 0.247322 -0.287699 -0.304743 -0.77474 1.032164 0.723897 0.04135 0.002054 0.451511 0.301696 -1.16224 0.163183 -0.973787 -0.612509 0.355927 0.088576 -1.270068 -0.592282 -0.950888 -1.160582 0.836856 -0.3705 0.925232 1.939536 -0.891314 -1.375733 -0.797139 0.015211 -0.47404 -1.826075 0.671818 -0.239773 -0.301885 0.153446 -0.7348 -0.489014 -0.495 0.890519 1.287755
attitude 0.716285 -1.990435 0.687781 1.897717 -0.376655 0.8935 1.222328 -0.661061 0.278882 -1.806805 0.36117 0.550348 -0.277812 -0.187625 -0.817146 -0.759498 -0.075752 1.78814 2.154869 1.826957 1.529215 -0.335705 -0.99833 0.095443 0.948523 -0.079249 1.757223 -1.260469 -0.275448 -1.938396 -0.564653 -0.18113 0.78096 0.894133 1.828936 0.47984 -0.098709 -1.342704 -0.612308 0.9727 -0.013869 -0.530833 0.482016 -2.227579 1.544485 -1.584288 -0.142911 -1.121729 -0.596808 -0.005296 -0.346995 -0.193034 -0.797565 1.050461 -1.26012 0.227861 0.470083 0.956744 -0.087733 -0.159461 -0.154408 0.669279 0.828831 -1.501338 -1.428442 -2.313458 -0.097792 0.153074 2.152627 0.077006 1.155649 0.691986 -0.203824 -0.499522 0.371645 0.139627 -0.152042 2.089319 0.181404 -0.335289 1.343822 0.646885 -0.342227 -0.581021 -2.030445 1.451197 0.411047 -3.028589 1.710568 -0.621865 -0.329872 -0.666611 0.76063 0.128308 -1.437181 0.300897 -0.651528 -1.544551 -0.641267 -1.366953 0.901312 -0.945318 0.148191 2.697212 -0.45749 -1.31865 -0.143334 -0.953977 1.120613 -0.637678 -1.616449 -0.872402 1.11468 -1.229697 0.749198 -1.402745 -1.707752 -0.685577 0.651238 1.370525 0.041398 -0.658044 1.558639 -0.959872 -2.197982 -0.016082 -0.48133 -0.154395 1.043216 -0.64074 -1.088277 -1.02828 0.228863 0.90713 0.239528 -2.700097 -0.208773 2.626899 -0.123539 0.140089 0.045044 -0.363823 0.21333 -0.75888 0.983599 -0.088637 -2.669819 -0.157641 1.009466 0.789735 0.658316 0.643334 -0.17436 1.088937 -0.030536 -0.321611 -0.846989 -0.156271 0.454543 0.213854 0.191478 1.048281 -1.43037 2.052264 -1.42759 1.044963 0.887764 0.482182 0.787325 -0.061892 -0.227345 0.435049 0.623073 -0.339765 1.214956 0.500065 2.493915 0.336909 1.291617 0.657335 -0.201796 0.215494 1.595278 2.353153 -0.914176 0.875305 -0.283644 -0.727858 -0.798087 1.124507 -0.374208 0.448018 -1.763535 0.045198 -0.422593 -0.621865 1.465289 -1.703117 1.960195 0.424843 0.531271 1.129669 -0.051885 -0.007109 0.461541 -1.19549 0.006534 -0.204366 1.033099 1.056328 1.771494 -1.253524 0.526193 1.094588 -0.668362 -0.482172 1.58673 0.369445 0.239951 -0.154557 -0.485154 1.34254 0.24044 -0.827175 -1.730805 -0.964654 0.288677 0.42281 0.819288 0.084229 0.495365 1.066624 1.443897 -0.314585 -0.610495 -1.853048 -0.763607 -1.2324 0.705996 0.420381 -0.120842 0.147422 -1.399566 0.078999 -0.037215 -0.194952 -0.478866 0.974216 -1.723406 -0.481011 0.70805 0.587237 -1.017043 3.197052 0.376981 1.066868 1.084698 0.386176 0.925299 0.174046 -1.265928 -0.652201 -0.410157 -2.750143 0.27244 1.208407 -1.08266 -1.15142 1.085297 0.377815 -0.293719 -0.327813 -1.178346 0.357285 0.179307 -0.970345 0.682037 -1.626557 -1.023508 -0.732892 -1.270545 0.736391 -0.726528 1.910686 -0.18699 0.062966 -1.524316 0.555942 0.449698 -1.076575 -0.105688 -0.88106 0.618393 -0.757221 -0.792472 -0.778064 -0.411178 1.207221 0.455913 -1.048879
treatment -0.333532 -1.642272 -0.30497 2.399906 0.879669 1.351182 -0.760024 -0.576686 -1.17269 -2.922913 2.445948 -0.190542 -0.636392 -2.745152 0.556603 0.352617 0.611995 -0.538702 1.804509 -0.715368 1.082934 -0.286652 2.415556 -0.820342 -0.423386 0.475549 -1.564163 -1.982793 -0.813699 -0.339311 0.751795 -0.890769 -2.11048 0.579459 3.447257 -0.350156 1.810795 -0.906764 0.401902 1.09522 -0.195318 -0.861642 -3.432974 -1.401863 -0.505913 -2.686366 0.777953 -0.622322 0.211824 1.28469 -0.908389 0.089949 -1.333449 1.303813 -1.192963 0.538125 0.008432 -0.705688 0.514434 -1.368057 0.660713 0.687137 1.278531 -1.268187 1.059879 0.440003 1.525645 0.426409 1.384415 0.939511 0.545489 1.400847 2.071054 -0.838377 -0.358774 1.402667 0.271696 -0.170299 2.168577 -1.497138 -1.057648 -2.18903 -1.793222 -4.01888 -0.635364 -0.593089 -0.504516 -0.209733 0.255814 -1.176257 1.753597 0.072452 -0.627332 -0.038144 -0.400827 0.955492 0.303839 0.355632 -0.653202 -0.661009 -1.047706 -0.711069 -2.830079 1.498522 1.18767 -0.453643 2.112012 0.786879 1.413331 -0.433661 0.151413 -2.180724 -0.100141 -1.174805 0.080081 -3.139658 1.231129 0.232305 1.249226 0.251617 1.172003 -1.753054 1.453485 -0.254714 0.298775 -0.758398 0.062282 0.75601 1.580114 -0.644307 0.619348 -0.809203 1.337708 0.896925 -0.066062 -0.964188 -1.273795 -0.563627 -0.066492 2.113925 -0.365829 -0.53467 -1.390105 -0.346496 -0.987273 -2.265264 -2.103562 -0.053277 -0.599463 -0.564603 -0.72256 -3.080402 2.699179 3.370979 0.340621 -0.591415 -1.690193 -0.5832 0.269782 0.658633 -2.941133 0.646096 0.835409 -1.264264 -0.977932 -0.193868 -1.440164 -1.965987 -2.114584 1.013893 0.458931 0.7156 0.308138 -0.321708 2.058118 0.690135 -0.511993 -1.461568 0.918085 0.688444 -0.20956 -0.220532 1.46392 0.280809 0.286167 -0.201494 2.749355 1.173522 -1.550925 -1.09225 0.3275 0.969228 3.348184 -0.355793 0.42588 0.670255 0.617122 -0.288009 1.368453 1.036165 0.069894 -0.086167 0.572329 2.933678 2.676433 1.157354 -1.46329 0.469311 1.802695 2.386202 1.023141 -0.152645 0.307473 -1.639732 0.894174 -1.908174 0.474991 0.158584 -1.048674 0.457287 0.551431 -0.767048 0.396238 0.196559 -0.020755 -0.020065 0.342093 0.19712 0.266229 0.457013 2.399724 -1.225472 0.814754 -1.035137 -0.766514 1.997332 0.707479 0.645497 0.689008 -1.620406 -1.451107 1.579201 1.192059 -0.51589 -0.989978 1.4622 0.347551 -0.114252 -0.156636 -0.132165 -1.292967 1.253692 -1.677474 -0.314583 0.872702 -1.222494 0.148007 1.591717 -0.257289 1.101245 -2.338493 -2.378148 1.429149 0.652036 -0.193312 2.199563 0.274379 -0.051636 -0.808346 2.645178 2.490483 -0.050177 0.420312 -1.743944 -2.793215 0.482015 -0.638259 -1.19815 -0.21405 -0.426074 -0.004524 -1.162356 -0.375867 0.48411 -0.345131 -0.929154 -1.38012 0.947651 0.07009 1.734666 -2.222363 0.331695 0.719182 -0.758067 -0.162876 1.065037 -2.204314 1.845165 1.41864 -1.300745
flight -0.971047 -0.419146 1.070249 1.984487 1.836121 0.60575 0.849473 0.567345 1.393283 0.491684 -0.725929 -2.679976 -1.608989 -1.334845 -0.653369 0.611672 1.66546 1.198665 1.186748 2.482655 -1.235839 0.221157 3.439875 -0.899702 -0.332943 -2.575505 -0.282144 -2.347902 1.331631 -0.357672 0.784215 0.242525 -0.249121 1.011422 2.115422 -0.340214 0.448721 -1.021912 0.580227 -1.374533 -0.850378 -1.333081 -0.32272 -0.839427 1.743479 2.180649 -0.52514 -1.989715 1.230533 0.630058 -1.025961 -0.592084 -1.548574 -0.178889 1.073712 0.172045 -0.713781 2.125448 0.366779 2.123514 0.025225 -0.05367 2.111679 0.330816 0.936809 -0.436419 -0.047562 1.296729 -0.552313 2.713603 0.941125 -1.270223 1.375475 -0.072738 0.596566 3.5446 -0.214134 1.806249 0.44731 -0.983112 3.301103 -0.402259 0.667654 -0.132483 1.30251 -0.987577 -2.102679 1.04609 -0.999015 -0.62125 1.229527 -0.089766 -0.764679 0.935063 -0.606536 2.014039 1.306086 -2.168703 -1.974811 -0.871631 0.131903 1.221063 2.133319 2.345506 -1.542347 -1.993508 -0.517143 -0.370968 -1.869459 0.900728 0.255758 2.532195 -1.65888 -0.592831 -1.722459 -0.222558 -1.5321 -1.687769 1.085069 -0.901576 -1.915591 -0.294733 -0.036747 -1.139975 -0.509767 0.561437 2.758537 4.163793 2.497238 -0.381423 1.05719 -0.040336 2.368412 -0.593685 2.185004 0.392454 -1.465531 0.711982 -0.545492 0.263753 0.614457 -1.770516 0.995144 0.088408 1.138595 0.037794 -0.582754 0.126956 -0.473633 1.309032 0.268157 -1.180506 0.06359 -1.887492 -2.367047 1.01028 -0.55682 -0.035924 0.575004 0.467302 -0.02812 -0.536999 2.850947 -0.566715 -0.431933 0.272054 0.939486 -1.182497 -1.0164 0.481619 0.735552 1.258943 -1.138096 0.273095 -2.807877 -2.041096 -0.582527 0.714349 -0.438473 -0.422774 -0.233949 0.553666 0.712066 2.036439 2.509426 2.801178 -0.975907 -0.955462 -0.836878 0.246858 0.879115 1.579365 -0.147087 1.445283 -0.841652 0.240625 1.570806 0.825024 0.56407 1.516915 0.413982 -1.522109 1.190951 -1.13821 1.871309 -1.740821 -1.158959 0.628401 0.142383 -0.375862 -1.1528 2.02484 1.544281 -0.53015 3.570696 -0.078096 0.377321 -0.576944 -0.642233 1.270136 0.570928 -1.63172 2.759861 0.858187 1.332709 2.698462 -1.025168 0.414113 -1.6637 -1.01759 0.63881 0.097408 1.984296 1.470849 1.037659 1.103943 -1.422612 0.895321 -0.602419 -0.211382 -2.644981 -1.059484 -1.604618 1.527791 1.438574 1.344214 1.16805 -1.457508 -0.556093 -0.281414 -2.80636 -1.134543 -4.625382 -0.542615 0.136501 1.488688 -1.183547 -0.464956 2.215056 -0.693892 -1.279403 -0.733754 2.844888 -1.24753 0.274833 1.620131 -1.748486 -0.226092 1.027027 1.229066 0.424149 1.883026 -0.13716 -0.747921 1.823284 -1.6218 -0.929624 0.031866 -1.264884 0.544295 0.303178 0.57345 -1.82769 -0.802601 1.307903 -1.296299 2.776445 -0.603211 -0.956664 -0.184253 0.324391 -0.877898 0.040955 0.910181 -0.134387 1.776013 0.552575 -1.051943 -0.765854 0.289938
forest -1.87349 -0.166561 1.098669 -0.424288 2.380362 -1.088732 0.444018 -1.93444 -0.859007 -0.716735 0.211583 -1.779253 -0.267299 1.562441 -0.098846 -0.251008 -0.019171 -0.983097 0.075371 -0.559642 -1.233404 0.038408 -0.256537 -1.221138 -0.72412 -2.564076 -0.636888 0.149754 -0.298138 0.277983 -0.84818 -0.924294 -0.178703 -0.363284 -1.106911 1.485135 -1.289829 0.752486 -1.052107 -0.475246 -1.025532 -0.517595 0.173329 1.181307 1.818568 0.912472 0.731156 -1.302187 0.784019 -1.145014 0.299668 0.27403 -0.414967 -1.116797 -1.054157 1.297329 -0.689519 1.201401 0.141826 -0.467213 0.407311 -1.53218 -0.532244 1.101054 0.578834 0.372249 -0.04262 -0.113433 0.308111 -1.071975 0.231994 -1.718851 0.942855 0.20057 0.605589 0.282639 -0.065439 0.616254 -0.955497 2.336629 0.798795 0.310215 0.61362 -1.487577 -0.203696 0.471118 1.036165 0.063149 -1.018917 -0.190436 0.097239 0.011649 -1.325409 0.666537 -1.024613 -0.765068 -0.507173 -0.092999 -0.817393 -1.979702 -0.388706 -0.780112 1.389822 1.246879 -0.816237 -1.279192 0.52797 0.704586 2.214639 2.278699 0.331771 1.681313 0.420701 0.262793 -0.700586 -0.138738 0.275575 0.693942 0.325535 -0.795706 0.538039 -1.366887 -0.290258 0.873175 0.540818 0.812924 -1.844163 0.695695 0.757028 1.718635 -0.725727 -1.313896 1.742997 0.629993 2.056707 1.139439 0.321044 -0.644602 -0.419173 -0.737819 0.524055 -0.017272 -0.66803 -0.63463 -1.288818 -1.138617 -0.234486 -2.299865 1.268201 0.278351 -0.173273 -0.954992 0.048029 -0.245965 -0.461806 1.727643 -0.309422 -1.081761 -0.439275 2.26189 -2.020859 -0.747915 0.047298 1.105683 0.765164 -0.946755 -0.682305 0.567242 -0.368081 0.428093 -0.88115 1.459541 1.284849 0.53494 -1.243137 0.132751 -0.371538 -0.453407 -0.313043 0.917955 0.340356 0.154876 0.376233 1.295871 -0.237362 -2.466192 0.263515 -0.426462 -0.713484 -0.044686 -0.160489 -1.165935 -1.090331 0.356708 0.008027 1.550015 1.614845 -0.145285 -0.135087 1.760388 -0.590685 -1.119947 -1.661309 1.484929 -0.997226 1.493318 0.301918 0.386501 0.796453 -1.886677 1.232002 -0.670813 -0.297664 -0.284441 0.461004 -0.082892 -1.290321 -0.014576 1.46398 -0.745076 -1.365637 0.248527 0.041087 0.381844 0.751444 -1.530252 1.187273 -0.129282 -0.587127 1.079911 1.083564 -0.007798 1.531988 1.058742 -0.737468 0.63557 -1.859054 -0.470487 -0.088568 0.541241 0.931858 0.790429 -0.430871 1.425938 -0.964086 -0.187098 -0.100434 1.442688 -0.124671 -0.5447 0.736866 1.320542 -0.262451 0.570809 -0.103038 1.132019 1.048328 0.618617 -0.996915 -0.132316 1.077821 0.345619 -0.313019 -1.861727 -1.140758 -0.42636 -3.022877 0.332746 0.71227 0.459656 2.812683 0.481448 0.735105 0.858614 -0.578183 -0.460205 -0.478978 1.176048 0.724897 0.045237 0.050917 0.067437 -1.373144 -0.808471 -0.339501 0.434078 -1.462202 -1.817066 0.702135 -0.884628 1.281036 -0.926564 0.098953 1.632238 0.693355 0.11173 -0.154866 0.649706 -0.116194 -2.697126
abuse 0.583065 2.285423 1.209699 -1.209676 -0.072873 -0.796447 -2.56991 -1.02882 -0.428889 -2.765064 1.191375 -0.427677 0.164494 -1.178983 -0.768598 0.705659 -0.069474 1.946683 1.809073 -1.682656 2.488221 -2.737004 -0.126142 0.651001 0.856446 0.32086 -0.973459 -0.416327 -1.400206 -0.340139 -0.767815 0.136343 1.037916 -0.748827 3.008483 -0.854975 -0.835483 -1.795689 0.971437 -1.951196 -0.233312 0.814409 1.160525 0.81751 -0.957486 1.199913 1.022879 0.748992 -2.411821 0.649213 1.419064 0.875929 -0.937974 -1.221755 -0.153539 -0.356561 1.71293 -1.901563 1.28854 -0.346231 -0.441854 1.392384 2.317136 -0.621903 1.272329 0.297354 -0.10613 -0.102288 1.392478 0.078891 1.088107 0.196537 -1.720661 -0.838002 -2.797669 1.479228 -0.131118 -0.355879 1.001355 -0.571439 -0.242261 -0.311872 -1.259814 -1.456958 1.651426 1.751927 0.581899 1.128144 0.666682 0.419897 0.928872 -0.784873 1.693882 -0.858802 0.154788 2.511068 0.708223 0.357431 0.236908 0.673033 -0.158109 -1.130478 -0.523444 0.722089 -1.240974 1.892925 -0.817559 -0.31676 4.646657 -2.427529 -3.279473 0.276457 -0.750703 1.08058 1.012198 -0.515002 0.762609 -0.675242 1.663056 0.101783 0.469755 -1.819154 -0.333905 -2.459728 1.488354 -3.007306 1.907242 1.120684 -0.872472 0.748447 0.846536 0.096856 1.646861 0.603371 1.740632 -0.405109 -3.308 2.335141 -0.329532 0.75646 0.412846 -2.632184 -0.359441 -2.034094 -2.626439 -0.148313 0.429967 0.470967 -1.463966 1.346181 0.227494 -0.49566 1.636041 3.624048 0.221692 0.402378 2.145845 0.542488 2.389832 -1.294764 -0.18848 -0.321325 0.485834 0.190545 -1.76406 1.674948 -0.351622 -1.63706 0.790727 -0.590037 0.63143 1.119229 1.751464 2.097541 0.648782 1.191012 1.99048 2.047796 1.120925 2.156 0.868962 -1.149515 2.186781 0.86392 0.757133 0.063278 -1.393676 0.841789 2.268054 1.495965 0.103832 -0.086636 3.593794 2.452125 -0.817031 -0.095979 0.198628 0.936851 -0.401405 1.109334 1.680238 -0.411753 -0.662548 -0.688448 1.084218 2.687732 -1.298097 0.795027 2.462893 0.465876 2.30385 0.294421 1.763459 -1.096681 -2.263677 -1.280696 0.444955 -1.776546 -0.248764 -0.602296 -0.808323 -0.876366 -0.594498 -1.088666 0.319307 -1.840366 -0.360479 -0.394966 -0.402098 -0.897456 -1.00732 -1.794358 0.70549 1.180222 -1.031614 -0.845242 1.263048 1.190256 -0.396147 0.461259 0.571956 1.12912 -3.854144 -0.631895 1.168519 0.609714 -0.852331 0.396041 -1.832581 -0.349246 1.175053 -1.628842 0.729147 -1.456856 2.479263 0.139167 1.816877 1.144946 1.474508 0.437486 -1.390923 -1.087988 0.161865 -0.036833 1.214152 0.556572 0.453485 -2.407443 -1.358229 1.256028 3.099747 -0.079311 1.218952 -0.211472 -1.259264 0.635774 0.360063 0.9505 -1.169765 -0.265415 -2.313072 0.200743 0.787476 0.432686 0.021562 -1.084854 -1.437795 0.298857 0.672682 0.248571 -0.626198 0.760597 1.682415 -0.841954 1.689247 -0.153482 -0.482433 0.529286 0.459502 -0.362662
criterion -0.34522 -0.127503 0.231149 0.438298 -0.215121 0.105984 -0.087116 -0.314875 0.052985 0.096451 0.088383 0.104504 0.054802 -0.193071 0.078163 0.252906 0.102061 0.26993 0.176193 -0.11202 -0.076345 0.201664 -0.294657 -0.257949 -0.167308 -0.282635 0.098377 0.236202 0.151698 -0.220523 -0.261234 0.298905 -0.065561 -0.172644 0.120146 -0.186767 -0.072659 -0.113589 -0.014367 0.127834 -0.127819 -0.193049 0.146996 0.077969 -0.333676 -0.117498 0.025526 -0.004181 -0.102981 -0.164122 0.056307 -0.338686 -0.058451 0.213483 -0.22939 -0.199577 -0.171863 -0.061489 0.059245 0.237808 0.147654 -0.292203 -0.145407 0.106208 -0.014296 -0.022553 -0.062782 -0.098741 -0.013856 0.032281 -0.164457 0.031143 -0.124655 0.117325 -0.011543 -0.452482 -0.172095 -0.143063 -0.257621 -0.172621 0.220943 0.25226 -0.16047 -0.237848 0.282584 0.034865 0.053674 -0.276158 0.195703 -0.12987 -0.096129 0.116493 -0.037509 0.040756 -0.07916 -0.130314 0.116202 -0.376406 0.369501 -0.186043 -0.049351 -0.029763 0.017892 0.191519 0.110121 -0.16204 0.030398 -0.212768 -0.435451 0.140439 -0.190994 -0.457748 0.187475 -0.21142 -0.009662 0.151901 -0.256078 0.019431 -0.046012 0.335912 0.16822 -0.348251 -0.026771 0.069341 -0.100181 -0.013409 0.216217 0.027045 0.474834 -0.04287 -0.002175 1.77E-4 -0.242564 -0.080278 0.094131 -0.268786 0.26421 0.283692 0.343831 0.044813 -0.225682 0.100174 -0.053369 -0.302293 -0.1341 0.010589 0.128998 -0.068933 0.459472 0.430637 -0.235861 0.014899 -0.311282 -0.103332 0.116581 -0.186505 0.073711 0.231433 -0.094986 -0.149846 -0.029174 -0.033737 -0.145287 0.145173 0.048948 -0.199051 -0.105841 0.007274 -0.086266 -0.20137 0.185781 0.073643 0.043504 0.186186 0.050045 0.116383 0.021948 0.15333 0.067216 0.317015 0.093977 -0.076226 0.218293 0.019462 -0.20962 -0.181088 0.163508 0.057127 0.159237 -0.120349 0.022804 0.054629 0.117541 0.140317 0.011155 0.101387 -0.018803 -0.397711 0.321884 0.077585 0.068624 0.020587 0.094549 0.028654 -0.016852 -0.168477 0.099198 0.189796 -0.015602 0.273344 -0.117741 -0.103406 -0.0493 0.066592 0.221922 -0.093405 0.002947 0.112476 -0.063224 -0.049345 0.355757 -0.122672 0.199449 -0.130036 0.002971 0.198361 0.068268 -0.115328 0.088953 -0.095169 -0.107593 -0.179407 -0.102107 0.158406 -0.030345 -0.109957 -0.364798 0.184332 -0.076049 -0.271094 0.291576 -0.014219 -0.0802 -0.336994 -0.149376 0.072436 -0.157856 0.112481 -0.320195 -0.009943 -0.250398 0.07669 0.24588 -0.235372 -0.17087 -0.040452 0.051801 -0.009539 -0.088493 -0.026189 -0.025253 0.084916 -0.315393 0.110561 -0.013845 0.318607 -0.126061 0.563334 0.087711 0.243211 0.162786 0.191486 -0.139078 0.160608 0.092409 0.238413 0.29706 0.167063 -0.219412 0.291181 -0.175021 0.047843 -0.181472 -0.062699 0.154799 0.324103 0.022135 -0.004537 0.267677 0.481296 -0.020729 0.048327 -0.02813 -0.100734 0.238734 0.076736 -0.004711 0.140598 0.238669 -0.12758
sea -0.737889 0.567412 1.342122 0.205997 -0.101462 0.560833 0.122874 0.030963 -0.519582 -1.760843 0.011754 0.053682 0.485266 1.045286 -0.538171 -0.074881 1.164124 -2.313437 0.144921 1.329762 -0.448532 0.432388 1.09143 -0.108291 -0.624682 -2.751404 -0.860222 -1.614981 0.419356 0.157906 -0.595292 -0.785107 0.307452 -2.888235 -0.125569 2.442497 1.79673 1.099701 0.396242 -0.559032 0.018975 -2.175968 -0.122378 2.009496 2.261352 0.392619 -0.037281 -0.877494 0.3496 -1.97261 0.812842 -0.341808 -0.45169 0.462705 -0.280626 -0.975523 -0.395362 1.713254 1.190919 -0.905407 0.029715 -1.673391 0.951913 -1.37087 0.306293 -0.441312 -0.117723 -2.404444 -0.862147 -0.360828 0.860056 -0.637402 0.974431 -0.748657 1.006006 2.129158 -0.507697 1.144211 -1.710678 -0.356282 0.001638 -0.465225 -0.837213 -0.731041 1.333227 -0.518078 1.382161 -0.178093 -1.692433 -1.231885 -0.771253 0.392144 -0.083694 0.268996 -2.296602 -0.071305 -0.261404 -0.243403 -0.989139 -2.108241 -0.779195 1.076073 2.310009 2.221552 -1.635042 -0.22545 -0.280437 0.597677 2.5104 2.730809 0.223773 2.413495 -1.162324 0.467043 -0.957727 -1.686962 1.666404 1.10924 0.417829 0.39238 0.740984 -0.10835 0.656888 1.353289 0.123872 -0.10392 0.112937 1.23432 1.505748 1.09385 1.148634 -1.016311 0.587553 0.481088 2.914795 3.34313 -0.704372 1.370602 1.302252 -0.723839 0.758262 1.055569 0.001176 -1.485401 -0.684345 -1.099002 0.806478 -1.512821 0.534668 0.581876 -0.6878 -0.013576 -1.469859 1.775694 -1.610261 1.685722 0.57615 -1.256756 -0.298969 1.962403 -1.064817 -0.57659 1.278528 3.081054 1.656708 -0.947768 1.367522 2.158307 0.805428 0.274334 0.846856 1.566988 1.934084 -0.259513 -0.919634 0.202738 0.567832 -0.226187 0.254368 1.17448 1.690069 1.337735 0.219002 0.892931 -0.731691 -0.994613 -0.014811 -1.625198 1.574655 2.611611 1.270205 -0.890321 -0.984188 0.894146 1.46227 0.215293 -0.575322 1.514347 -1.287848 0.905195 0.298631 -2.872469 -1.346627 -0.334313 0.485623 1.239522 -2.170413 -1.247309 -0.245622 -2.601859 0.676504 0.671241 2.150225 -1.389483 1.606512 -0.709966 -1.36217 -1.976229 2.448042 -0.505006 0.175129 -0.967239 1.243563 1.289073 -0.125022 -1.387532 -0.759037 -0.858975 -1.354926 0.765763 0.443119 1.817744 3.225346 1.855227 0.507739 1.399737 -1.943773 0.187399 -0.588372 -0.302112 -1.039446 0.974044 0.394683 1.319572 -0.973993 -0.028158 0.139051 0.82581 -0.497047 0.190308 1.01788 1.095002 -1.135794 0.429597 -2.00305 2.177774 0.709672 -0.373907 -0.781513 -0.064972 1.006606 -0.511253 0.442515 -2.435555 -0.39483 -0.352998 -0.61303 0.785127 0.853159 0.097624 0.621814 0.720516 1.974639 2.332574 -1.882416 -0.264332 -0.820186 0.890041 -0.324364 -0.12307 -0.547757 1.209407 -1.402938 -1.089285 1.256983 -0.852021 -2.02985 -0.058486 1.952643 -1.084339 0.612624 -1.246385 0.113044 0.928837 -0.246029 -0.568111 -0.643946 -0.577832 0.394373 -1.116907
dollar 2.24073 0.22864 -1.371173 -1.830914 -0.83766 -1.306296 -0.011395 2.67183 -1.840317 -1.6511 0.037619 0.346932 0.410731 0.082494 -1.066369 2.381988 -0.890314 -0.713328 0.804179 2.373394 -1.717017 -1.87818 1.817937 1.760393 -2.021134 -3.175215 1.057354 -0.408799 0.074601 0.08074 0.874853 0.839629 -2.262327 1.678069 -0.678643 0.053185 -0.328384 0.524445 -2.453728 0.751769 -0.459079 -0.846512 0.758501 -0.843783 0.524239 1.655281 0.577704 -0.723021 1.826306 -1.233947 -2.368335 -2.692494 0.686568 0.080145 1.980645 -0.283744 1.362298 0.117108 1.270709 0.741109 1.468529 -0.976605 -0.039711 -2.512395 1.98359 -0.536604 -3.319586 -0.574474 -1.707887 -0.155792 1.333459 -0.007479 2.447853 -1.573179 -0.273866 -0.279351 -0.358977 1.501527 1.090727 -1.027376 -0.445842 -1.996363 0.924403 -1.662002 -1.068613 -0.509081 0.349642 -1.958729 0.15589 -0.931081 0.456423 0.572499 0.946924 4.337971 0.23796 0.714325 0.164761 -2.46452 -1.696115 -1.6117 -1.068091 -0.618686 -0.911439 2.789472 -1.132603 -1.683094 -0.996741 -1.044612 0.745939 -1.881685 -0.068507 1.52951 -1.794994 1.598837 1.393152 0.629224 0.729034 -0.039149 2.232263 -0.898325 1.180163 -0.189195 -0.044196 1.404155 1.134984 1.002824 -0.686674 -1.557419 1.785533 0.70983 0.50147 -1.907713 1.172887 0.9006 0.002405 -1.24557 1.266472 0.809818 -0.931992 1.880793 0.336075 1.400409 0.86233 0.901434 1.579418 -1.430522 -0.193428 0.917785 2.120689 -0.588263 -0.340833 -2.013171 -1.336779 -1.022292 -2.424694 -0.901289 1.409563 -3.473878 0.609163 0.16218 -1.271583 0.377954 1.297889 -0.657605 0.051681 0.507379 -0.59514 0.076275 -0.800545 -2.049618 -1.868327 -0.716567 1.36729 0.16296 -1.454469 1.782428 1.326956 1.264631 -0.603764 2.860037 -0.11938 -0.103145 0.468318 2.639657 0.251062 -1.954657 2.580653 -1.3151 3.730999 -1.356028 -0.664329 1.53952 2.85947 1.68307 -0.936029 0.009235 -2.13682 1.266533 0.112922 -2.25892 0.002967 -1.048995 -2.285729 0.436275 -2.568984 -1.244948 -0.80357 0.712272 -2.245287 1.554856 0.773376 0.863696 0.22908 0.698335 4.215831 -0.696996 2.068167 2.015684 1.688368 -2.520939 0.014475 -0.81828 -2.334468 1.76976 -1.648339 -0.767957 0.255558 1.787712 -0.969429 0.853735 -1.049308 1.322695 -0.686864 0.481923 0.575873 -0.696621 2.875095 2.407614 0.723498 -1.028728 0.707975 -4.58187 1.660522 -0.715518 0.692584 0.860185 1.249506 2.072861 -3.378832 0.906305 3.358183 1.112337 -0.23328 -2.116904 0.08724 1.528669 -3.578883 -2.580824 -1.802109 -1.271827 0.291362 -3.30619 -0.611892 -1.679508 -3.545362 0.811154 -1.358681 0.785293 0.279976 0.416151 0.231871 1.919481 -0.943193 0.407106 1.495463 0.303684 0.22694 -0.33717 -0.861961 -0.772336 1.051316 0.590877 -1.242376 3.689837 -0.296236 -0.825379 1.191401 -0.761186 4.261963 -0.336371 -0.383631 -0.250129 0.790433 2.090494 -1.846775 -2.356935 -0.998606 -0.296657 -0.190407 0.605992
example 1.081041 -0.747438 -0.888377 1.220642 0.383327 1.153889 0.896473 -0.415624 -0.624469 -2.553257 1.080308 -0.290809 0.079939 -0.494887 0.474352 -0.755551 1.641806 1.050872 0.330469 -2.096818 0.028432 0.684798 -0.151243 -0.593792 -0.932829 -1.612912 1.647123 3.861519 0.268437 0.084401 -1.038687 -0.894321 -0.071458 1.152134 1.371832 0.194102 -1.481688 -0.64364 -0.097037 -0.366282 -0.211946 -1.20974 -0.123879 -0.364317 0.112818 -1.809947 0.49872 -1.448123 -1.220025 0.623271 -1.480926 0.863054 -0.230378 0.20101 0.028436 1.758103 -1.93735 0.361324 1.124239 0.287761 -0.631081 -1.731528 2.149206 -2.223045 0.299399 -1.415675 0.893353 0.015723 2.549788 1.335796 -0.522698 -1.587178 -1.769493 -0.738795 0.796571 0.768541 -0.273478 -2.819646 0.487262 -1.656016 2.327078 0.911634 -1.082128 -2.877397 -1.146405 -0.199468 -0.612587 -2.796763 1.253296 -2.456247 2.517858 0.079696 -0.668742 1.024555 0.222326 0.333715 -0.338493 0.959129 0.539099 -2.158165 0.687963 1.107422 0.102695 2.093012 0.075378 -0.042836 -0.242854 0.415589 1.771259 0.425985 0.71637 0.640901 0.611645 0.435076 -1.448215 1.126619 -0.005072 -1.205265 0.594895 0.752394 0.063368 -1.362437 0.527723 -0.434964 -0.138083 -0.788968 0.543678 -0.65009 0.946653 0.720347 1.088275 0.938542 0.071548 -0.087242 -0.887946 -1.540861 -0.246985 1.646596 -1.484773 0.469616 1.485721 -1.272508 -1.604289 -0.362296 1.003837 0.965444 -0.376973 0.251471 0.3592 1.18666 -0.467625 -0.925456 0.264348 -1.288412 0.582117 0.274528 -1.869315 -0.690249 -0.310494 2.21293 0.083824 -1.788262 0.211311 -0.086538 0.931248 2.044368 -2.206985 0.463763 -1.611616 0.589834 1.492267 1.099824 0.022908 0.102589 -0.317894 0.390697 -0.333403 0.706662 0.791261 1.839517 1.564902 -0.864586 0.997149 1.495134 -0.141073 -2.333984 -0.571145 -0.283745 -0.888058 -0.626394 -0.787724 0.412018 1.632807 -0.795196 -1.12047 1.266885 -0.151276 -1.519865 1.514684 0.725389 0.386753 1.216617 0.97862 -0.794876 -0.004946 0.136294 -2.413551 1.552495 0.535631 -0.020848 0.342204 1.210193 0.17431 -0.819325 2.539402 1.726461 0.625926 2.057196 -1.071171 1.142414 0.115894 -0.679461 -0.93996 1.837764 -0.532352 1.151861 1.496831 0.851258 0.895949 2.724059 -0.839658 0.158461 -1.627809 0.159209 0.560826 -0.564647 -2.07609 0.266403 1.110053 -1.197098 1.748693 -0.301888 0.119629 -0.191107 1.024554 -0.601879 -2.073554 0.114982 -1.007273 -0.257469 -0.653319 2.547942 -0.016023 -0.256127 -1.324423 -0.972622 1.998263 0.685361 -0.735433 1.475644 -0.743094 2.732433 -0.68416 0.516892 2.022345 1.021144 1.216591 0.381956 -0.07361 1.46447 -0.514832 -0.892743 0.776979 -0.22026 -0.940504 0.684262 -0.163737 0.772815 -0.592265 -0.42301 -0.316474 1.307797 1.311157 -0.158831 2.19515 0.592376 -1.836871 0.254954 1.886994 2.708948 -0.659052 -0.787371 -0.877004 0.76153 0.20612 -0.580951 -2.018336 1.000521 -0.469801 -1.68715
journal -1.319235 -2.570787 1.254568 -0.059984 1.515111 -2.602618 -3.789042 2.73668 -1.357111 1.075534 -1.076224 -0.943547 -1.240523 -2.258081 -1.11958 -1.900609 -0.588585 -0.645356 1.324662 -3.425911 1.714257 -0.008945 0.819513 0.321864 0.628314 -2.041992 1.873928 -1.479941 1.136848 -0.696708 -0.30838 -0.909271 -2.448016 -2.188361 -1.120331 -0.265895 -0.737588 -0.925246 -0.633887 -0.629129 -0.539744 0.023909 -2.333883 2.776631 -0.739416 -1.343462 0.138096 -0.269498 -2.026656 0.769848 -1.680613 1.12913 -1.866071 -0.501126 0.301173 -0.556192 0.674739 -0.474203 -1.084402 0.785778 -0.71904 -0.917589 -0.06431 -1.457511 -0.379538 2.407359 1.050446 0.322179 1.940915 -0.492112 1.074959 1.439897 0.528187 2.399166 -1.664502 3.071043 0.422546 -1.560499 -2.492334 -3.118375 0.702333 1.021419 -1.236426 1.547668 1.731475 -1.838195 1.262429 -0.54016 0.061725 -1.085755 -1.050727 2.366007 -0.49228 -0.089692 -0.455094 0.441959 -2.006707 -0.978795 0.992016 -0.278594 0.517969 1.257927 -0.621493 0.926559 -0.221835 -0.444685 0.776418 -1.906148 -0.197229 0.498711 -0.515982 2.037451 -1.955883 -0.447987 2.589112 0.490091 1.197432 0.956352 1.411718 0.44879 0.428056 -0.547757 2.41675 -3.665847 -0.752382 2.483755 -0.275308 -1.27355 2.864992 -0.204967 0.203019 -0.387689 -1.073762 1.693684 1.087615 0.65718 -0.0312 -0.975074 1.251655 -0.600559 -1.139757 0.26413 -1.464002 -0.495262 0.211377 1.107624 -4.346878 2.435264 0.404052 -0.424591 -0.077529 0.878091 0.932036 1.777401 0.161753 -0.190898 -0.525584 0.201457 -2.831508 1.172318 -0.636277 1.374991 0.416698 0.198317 -0.537096 1.956427 -1.500587 -0.003748 0.31359 -1.131305 0.429872 -0.401934 2.600508 1.81064 -0.139401 0.441246 -1.855579 -1.502706 1.880826 -0.388525 -1.003479 0.857138 -1.241089 -2.19471 -0.404368 1.001258 0.251568 0.013545 -0.106479 -0.532184 -2.415817 -0.124504 2.673982 -0.861905 -0.526731 0.972944 1.437855 -0.311501 0.113125 0.363753 -0.009345 1.541368 0.903758 -1.16143 0.751567 0.011865 0.53013 0.693593 0.363138 -0.1807 0.981186 -2.207825 -1.30237 1.502589 0.829704 0.882792 -0.35803 -0.379336 -3.014176 -0.164901 2.406889 -0.737644 -1.239089 -0.566081 -4.237075 0.385274 -1.237195 -1.492149 0.290239 -0.288329 1.602658 -2.10914 0.448855 0.403719 -2.132086 1.852594 -1.27913 0.223066 -0.429905 0.647046 1.044607 0.685405 -1.546913 -0.30373 1.072026 1.138887 -2.638788 -0.123067 -1.489483 6.41E-4 -2.033537 0.941795 0.237474 2.171595 1.0824 0.22521 -0.757775 0.984939 0.538278 -0.002238 1.928987 -0.872094 2.305875 0.712944 0.117448 0.006019 -0.17379 0.130864 2.178491 -0.405296 -1.282982 -2.136557 -1.150593 -0.872207 -2.126211 -0.670634 0.28019 -1.083545 -0.525195 4.07542 -0.30491 0.186426 -2.141808 0.932532 -0.285717 0.938369 0.42754 0.733584 2.9908 -0.351354 0.953172 -0.70768 0.167096 -0.243839 1.708354 0.23107 -1.972702 -0.009287 0.637947 -2.720281
laundering 0.464595 0.665807 0.387375 -0.104842 -1.368264 -0.420572 -0.733096 -0.624886 -0.309884 -2.974955 -0.72522 -0.890315 0.343924 0.157811 1.436812 -1.034708 -1.063216 0.877235 -0.534648 -1.827597 -0.243885 -2.064716 0.380737 -0.543158 -1.073925 0.882321 -1.295934 0.343876 -0.170943 1.387851 1.105349 0.954326 -1.665275 -0.006648 1.120219 0.690851 -1.494298 1.515494 0.916483 -0.214651 0.552936 -0.061207 0.854935 0.463912 -1.22753 2.162706 -2.138258 -0.316473 1.302477 0.446525 0.469101 -1.416907 0.118198 -1.652559 0.843339 -0.561311 -1.750614 -0.195677 0.587322 0.912048 -1.587498 0.172538 -0.344914 -0.67017 -0.325522 0.144228 1.336536 1.223532 -1.534437 0.444476 1.767364 0.559224 -0.260289 -0.00112 -0.629701 0.433186 -2.212154 -0.222352 1.001727 0.815265 0.501477 0.941441 1.326488 -0.118341 -0.845099 -0.114426 0.006962 1.219816 0.041046 1.054344 -0.370283 -0.598001 -0.056988 1.043387 0.914649 2.295457 0.343714 -0.498582 0.884855 0.283257 -0.11593 1.897252 -0.214833 -1.230244 0.017605 1.734989 0.580109 0.627607 0.398753 0.019594 0.90248 0.240967 -1.380809 1.792023 -0.400013 0.454715 -0.440603 0.433982 1.38475 -1.366961 -1.751805 -1.031391 -0.890883 -1.018349 0.994631 0.592202 0.731408 -1.829252 0.339384 1.742059 -1.033934 -0.47967 -0.511574 0.191936 0.266294 -0.482966 -2.218507 -1.446337 -0.622732 -0.504257 -0.121428 0.02251 -0.00654 -0.132374 -2.539645 0.892697 -0.560171 0.847486 -1.3943 -0.131551 0.551418 -1.126082 0.287298 0.847975 1.299263 -0.684367 0.769727 0.239932 0.080813 1.248085 -0.39309 -1.379697 0.461169 0.146745 -1.530841 1.071087 0.314184 1.356418 1.395113 -0.07585 -0.143115 0.336153 0.144998 0.638045 0.162112 0.667206 0.290102 0.924714 -1.537766 -0.171599 -0.530445 -0.475191 1.242691 0.117911 -1.119026 -0.224423 -0.492469 -1.155754 -0.562637 -0.347366 0.559482 1.320083 -0.286644 -0.015186 -0.814398 -0.265744 -1.883511 1.364982 0.77719 0.495759 1.487354 0.34517 2.734897 -1.065786 0.479888 0.987337 0.191065 0.856128 1.288236 0.584158 -0.195376 0.773148 -2.640682 1.540894 -1.474946 -1.818843 -0.315546 -1.498773 -0.148799 -1.336577 -0.268942 -1.105972 1.934281 0.574223 -1.459955 0.693137 0.363933 -0.525077 0.46264 -0.389655 -1.645171 -1.394884 -1.599147 1.44758 1.921724 2.03775 2.180638 0.827431 -0.471033 -0.385499 1.254322 -1.275643 -0.809925 -0.347227 -0.283102 -0.938245 1.623638 -0.891352 1.52067 -0.540762 2.093261 0.165695 1.266207 -0.703417 2.174502 0.829217 0.073842 1.023118 0.023947 -0.287039 -0.840609 -1.669161 1.561668 0.132653 -1.823205 -0.781763 -0.027363 -2.50401 -0.614995 0.807604 0.449674 0.655469 0.430127 -0.168627 -0.828392 -0.120888 -0.258037 -0.32662 -0.48966 -0.509535 -1.167421 1.133741 0.447997 0.600722 -0.4235 -0.673579 0.701728 -0.075112 -0.548255 0.440062 0.973321 1.016987 0.998804 -0.62355 0.670747 1.250291 0.147741 0.752549 0.509843 2.097614
