437 250
plane -0.105132 0.941791 0.256763 -2.279028 -0.719006 -2.851471 0.004733 -2.562123 -0.298115 -1.544444 1.839032 -0.274471 0.294335 0.395238 1.18007 2.466641 0.216484 -4.148558 0.333755 5.092789 -2.381752 -4.54876 3.36896 -0.730429 1.89276 1.211626 -3.727556 2.69756 -0.181263 0.58709 -6.175529 1.878948 0.221011 2.127682 -1.101702 0.166773 -0.291265 -3.593621 -3.303469 -0.462607 1.415748 6.155211 -1.336021 0.541561 -1.945755 0.727629 0.040099 -1.707208 0.046188 2.245567 0.021091 4.01862 2.57262 -0.007969 0.20338 0.49662 -1.716452 -0.038678 1.999682 1.18606 -0.96812 1.574156 -1.150638 -3.370387 1.340651 -4.097885 -2.194816 -0.641528 2.228923 0.367195 -1.467125 1.666747 0.911573 2.36923 -1.818307 1.759315 -0.94851 -0.462366 0.304784 2.301557 -0.807441 -0.990807 1.964894 3.834487 2.963647 -3.667171 -3.554139 0.53019 -1.621753 -3.970723 -1.020735 -0.606406 0.488283 -1.52411 -1.424501 2.395155 -1.307209 2.205835 0.276649 2.702847 -3.361815 1.875564 -2.934869 -3.04652 3.481711 1.712185 1.147453 -2.285909 -0.892732 2.115875 1.774614 1.41809 1.530584 -3.778065 -3.881359 -0.437992 0.511758 -0.694343 -2.686065 1.317766 5.35615 -2.142056 0.642433 -2.790255 0.875268 -2.688905 0.158493 -4.559096 -0.232162 -0.405913 1.604518 4.100859 3.009203 -0.757573 3.373883 0.373594 -1.331254 -1.065588 -1.915949 -0.662717 4.204613 -0.577833 -0.743986 -1.187664 1.032298 1.288974 -2.312435 -1.449685 0.45204 -6.193452 -2.516926 1.529668 -0.29917 0.98271 -3.694163 0.822631 2.31012 2.810233 1.243183 0.57592 6.292894 2.152558 2.719561 1.120676 0.665992 0.659359 -0.35536 -1.749104 -0.657355 2.873796 -2.126168 -0.948873 3.439384 0.836742 2.65083 -0.067828 1.231862 -1.542125 -0.8068 -0.115255 -4.563037 -1.280296 -0.921314 -3.322546 5.793141 -2.018156 -3.032077 -1.524914 0.228275 -0.858446 1.603617 -0.333904 0.592632 1.597993 -0.366693 0.374656 -0.541461 -4.668985 -2.889996 1.375242 -2.526319 0.237535 0.967349 1.750464 -0.074369 4.386213 0.697237 3.617852 -2.190305 3.298179 0.826485 -0.260497 2.429609 -1.886155 -0.050869 1.230192 2.178685 4.117235 -0.144035 3.779606 0.062952 -2.063447 1.104739 0.208536 -0.921685 -1.731264 0.933909 -2.140501 0.726195 0.529325 0.745022 -1.168249 0.641588 -1.275814 -2.03744 -4.583659 2.732934 1.338942 0.907624 1.521008 2.860955 0.292406 -2.480189 4.403195 -0.617609 2.371958 -0.224696 -3.148966 -2.16607 -1.008116
stupid -0.53108 -0.449985 -1.819885 0.122081 -1.422265 -0.411373 1.697795 0.082305 1.384606 2.949903 -0.783899 -0.022264 -0.050048 1.939908 2.275924 0.662438 1.998747 -2.334128 -1.548616 1.903321 -1.224127 1.174886 -1.044557 -2.066734 1.452905 1.82923 0.523204 -0.523968 0.390125 -1.124855 1.429925 -2.460632 -1.063935 -1.053679 0.828437 -2.2121 2.054576 -0.853234 -0.524037 0.006378 -0.381898 -1.096611 0.011482 -1.732023 0.576289 -2.768777 -0.593751 0.607163 -0.892057 0.930257 -0.952333 -0.932833 -0.50838 -2.106449 1.954823 1.740742 2.929951 -0.104701 0.847586 0.444639 -0.165724 1.747399 1.223706 -0.719231 -2.079673 -1.225028 -0.279035 1.261371 -3.615426 4.197423 1.31745 1.543622 -0.963778 -0.538615 1.548804 -1.790658 0.24609 0.498833 -0.207095 -0.879488 0.428371 0.866418 1.258027 0.775846 -0.052594 -0.489755 -1.614726 -1.363263 -0.148341 -0.054143 -1.002347 -0.669522 0.184967 -0.696651 -1.909091 0.924531 1.86716 0.729783 2.382384 -1.533715 -0.131345 -2.711187 -1.684505 -0.659392 0.036757 0.847087 -0.940964 -1.066213 0.459446 0.869467 -0.670042 -1.023772 -0.209243 -0.883812 -3.024729 -3.064335 -0.148688 1.809841 -3.405467 -1.586775 1.174075 -0.08123 1.813423 -1.805484 -1.910894 -0.181226 -0.976484 -2.09079 1.669766 1.886257 1.048099 -1.973196 0.186229 -0.907757 1.686949 3.065346 0.121761 0.305481 -1.369463 -0.996725 0.41799 0.848824 -1.245761 -3.12572 -0.471278 0.579597 0.322554 4.022024 -0.643999 0.255814 2.526089 -1.088477 0.422192 -0.83965 2.431307 2.610555 2.230885 -1.820173 0.358525 -1.128134 -0.30543 0.531011 1.786425 0.096697 0.423073 1.268413 3.484169 0.464127 1.287786 -0.937824 -2.023507 -1.842035 -1.153808 0.121918 1.558961 0.106581 0.396247 -1.200044 0.346256 -0.053202 -0.819978 0.19747 3.849427 0.461753 -2.934263 1.43824 0.640894 1.370607 0.474273 0.347908 -1.099274 -2.011063 -3.22943 -0.120707 3.913599 -1.419215 -2.30228 0.786543 -1.817861 -0.715859 -0.349555 0.924673 -0.052468 0.917372 -1.393301 -0.857436 2.38509 0.788161 -2.07651 -0.186111 5.13941 1.183124 0.624216 -1.07872 -1.657156 -0.246771 -1.922483 0.43613 0.500329 -1.062818 -1.531581 1.106939 0.597404 0.2411 0.219833 2.924119 1.143698 -0.780936 2.911667 1.006584 1.694337 0.059308 1.367556 3.8767 1.162708 -0.007751 1.332572 -0.04057 2.176373 0.268768 -0.678068 2.384938 -0.985728 1.209779 1.064181 1.043158 -0.082727 1.981889 0.889448 -1.556038
egg 1.324398 0.995038 0.298617 -0.633633 -4.469963 -3.103341 -3.143029 0.994966 1.19819 -1.289492 3.132132 -0.262846 0.726905 -1.595957 -0.247492 -0.577635 -0.412032 1.47462 1.72709 1.200338 0.882374 0.926525 2.769635 -0.741543 0.182456 -1.364542 1.05982 1.526321 -0.546655 0.956585 -1.902234 -2.893865 -2.139862 -0.471918 -3.600517 -2.990467 2.039363 0.535345 -2.261452 0.647781 -2.274708 1.271523 -1.626938 -1.264229 -0.383123 2.866654 0.442696 -0.722225 -3.405259 -0.722114 0.989058 1.739069 0.910826 -0.816325 1.95153 1.295724 -0.327046 0.273272 -0.499026 -0.534916 -1.051678 2.315536 1.614062 0.546213 0.321281 -0.962204 -3.486242 1.054179 1.371712 -0.265669 0.448389 1.246063 3.321422 -0.675584 3.862293 -1.977835 -1.039543 0.021474 -2.739776 0.383393 1.407398 0.785813 -0.964228 -0.04165 5.80773 -0.726947 -1.22108 1.10631 1.76972 -1.982893 2.264073 1.260196 3.922385 -3.051742 0.113697 -0.834703 -2.76429 -2.036862 -1.509548 -1.343217 1.130111 -2.356458 -1.037832 1.312675 -1.422264 -0.573047 1.25585 0.05406 0.044071 0.929384 0.674933 0.887134 0.208156 -1.512763 -1.202832 1.362931 -0.41907 -0.745181 -1.458165 -0.573215 0.592868 -3.248742 1.121725 -1.988359 -0.129986 -2.595424 -1.981554 0.686703 3.090151 0.554479 -0.576043 0.920112 1.165156 1.08614 1.970213 -0.583004 -0.514411 -0.394838 2.588075 -2.137214 -2.269372 1.417046 1.070005 2.36221 -1.275233 -0.918249 1.242478 -0.668664 -0.925087 1.627584 3.853082 -0.520589 -1.42283 -1.356634 0.275018 1.572425 0.856757 1.585194 -1.107071 2.285678 0.789989 -1.496773 -1.756606 1.415437 -0.642124 2.345502 -4.429347 -0.764999 0.217267 -0.907415 -0.370154 0.73026 2.319448 -0.259035 1.759942 -2.627049 -1.886367 -1.764553 -0.802172 -0.831072 -3.050446 0.805469 -1.082308 -2.213899 -0.096668 -2.016147 -2.362924 -1.156178 -1.593615 0.009873 -4.494327 -0.233751 0.371291 0.219135 1.439408 2.533238 0.472248 1.70529 0.333155 -0.576141 -0.948998 -1.216818 1.087617 3.599306 -1.172996 -0.741405 -0.276425 2.676009 1.724841 -1.312322 4.261533 0.353472 0.533875 0.787947 -0.427852 -0.919561 0.446412 2.953777 -2.113214 -5.460661 0.198183 -2.972371 -1.577798 -1.31072 -2.141068 2.9784 0.110394 -2.689682 1.666014 -0.521431 -0.019424 1.161209 0.530541 1.204093 -1.384442 -1.140764 0.728748 0.635666 0.265437 -0.145467 3.112849 1.924353 1.789293 -2.333529 -0.81218 -0.241001 -0.728297 -0.760611 -0.449273 -0.652975
year -9.692912 -1.479281 -2.564972 -0.834577 4.596748 -8.336414 1.385055 1.957963 4.336145 -0.75703 1.955156 3.034559 1.115239 3.587622 -2.158873 0.227128 -7.303244 -0.352073 5.215555 2.620172 -2.178651 -4.040792 2.302788 2.359911 -2.184323 1.188189 -0.278041 -1.246894 5.347185 -4.929876 -1.994211 2.308498 -5.340219 3.934608 5.775883 -2.48999 4.840593 -5.163845 -0.557208 -1.686412 0.651225 2.965578 3.801074 -7.293824 -0.103967 3.377497 3.352524 -1.826681 3.225267 -5.255497 -4.777391 -1.123914 5.446186 4.246998 0.17289 -2.192075 -2.466644 2.497127 3.151153 -0.877251 1.336074 3.12967 -0.023717 2.329441 4.418497 -2.124582 -4.862799 -2.899489 1.648557 -2.240292 -2.934366 -0.285145 5.43398 1.039802 -3.148133 -3.069502 3.287749 -8.353328 1.370958 -0.650679 -1.728994 -7.017828 -3.677082 -6.31479 6.61164 -5.951605 4.790879 7.649211 -1.829854 2.513227 -1.12959 -1.544625 -0.630446 3.718175 0.376492 -4.815882 3.803652 -1.88391 4.096201 -2.70445 -0.3422 -1.344439 -5.809269 5.229627 -4.692044 1.844492 0.326546 0.858528 4.348572 2.884338 0.653177 -0.166338 0.200274 2.755874 -4.935045 8.036886 2.799614 -2.081444 3.827331 5.033003 1.902714 -3.654688 2.026618 -1.807815 -0.856057 -0.26824 -5.511612 1.069608 1.832464 -2.666585 -6.028265 2.327654 0.28883 -3.370304 -4.687984 3.104758 -2.212107 1.846487 4.145131 0.787483 0.461959 -2.650216 -5.547434 3.416386 -0.721152 -4.743841 3.27547 -3.224809 -3.453212 0.212945 -3.059038 0.982947 -0.448797 1.549061 -1.414953 0.950682 -2.01951 2.535068 -3.110557 -0.259674 1.138712 0.355674 -1.073194 -3.047067 4.648108 -1.280729 -4.302981 -1.220079 3.284258 -6.631457 6.042962 5.334236 0.83703 -0.448461 -0.183603 1.822438 2.807554 3.693971 -5.491314 -4.19375 3.608283 -2.062041 -0.668045 -2.617066 -1.54519 0.589602 -0.097403 -12.113481 -4.371054 0.206765 0.201798 -0.605868 5.119864 -4.538095 2.645564 -4.348371 2.655535 -4.328119 -4.927611 -1.421559 6.905407 -0.629636 -4.305051 -3.426769 -2.01393 0.862931 0.429791 0.162575 2.055865 -3.881039 -1.197627 3.80881 2.430281 0.962535 2.136591 2.605976 1.624419 3.226874 -0.928422 1.460323 -0.177935 2.075679 1.56697 1.568769 -2.582652 0.164339 2.067304 0.1826 -3.920379 -2.307269 1.915458 5.986989 0.121806 -1.744185 -5.34439 -4.070168 -4.646058 -2.512769 2.404767 -1.975921 -11.102038 0.383849 -1.665533 0.207034 1.520681 1.377247 -0.165787 -5.464716 4.604805 -3.180905
psychiatry -1.583827 0.637994 1.081361 0.590511 -0.315847 -1.62766 1.003495 -0.935053 -0.807602 0.01032 3.039079 0.67189 -0.570641 1.212166 1.146924 -0.416612 1.089703 -0.527841 -1.504131 -0.332145 1.871958 -1.22989 -1.468804 -0.146546 -2.099401 1.43222 0.679064 1.922119 -1.401022 0.742512 2.66978 -1.744066 -0.23598 -1.977047 -0.853872 -0.1835 -1.620005 1.616299 2.538539 -0.351758 0.928895 -1.947129 1.337333 -1.689954 2.772817 -2.22165 -3.498107 -0.979881 -3.250899 2.460892 -0.683842 -0.365773 1.868667 0.777878 -2.150136 2.508077 -0.760675 0.40163 -0.488728 -1.244758 0.789004 0.205497 -0.083534 0.529192 0.13375 0.451859 -0.587925 -1.698932 0.500927 0.836267 0.571841 1.589465 -0.337879 1.478155 -2.231483 0.903696 -0.290764 0.978528 -0.520432 -0.274631 -1.972234 2.458558 -0.420377 -0.641349 -0.2933 -1.594486 2.799068 -2.369333 -0.225952 -1.028278 -1.670188 0.380751 2.723212 -1.178239 2.505887 0.547407 1.695058 -0.015754 -1.046571 -1.082296 -0.931181 0.173753 0.686308 -1.10387 -1.083161 2.754821 -0.850585 -0.680183 0.93011 2.053067 1.397284 -0.717918 1.062081 -0.810612 1.333564 0.02362 0.92163 -1.460569 -0.218691 0.739099 -1.575015 0.965663 -2.52481 1.986975 1.245361 -2.723957 -1.247668 -0.046919 -0.181884 1.101857 1.953938 -0.014133 2.912867 0.315198 -0.902609 -0.939712 0.1397 0.605537 1.218618 -0.890028 0.016185 0.956349 -0.304458 -1.652223 0.988202 -1.353464 0.265796 0.333488 -0.483564 1.10667 0.558131 -0.745738 0.468632 0.621079 -0.627848 0.301289 -0.335707 0.761429 -1.721241 0.840663 0.180098 -0.79889 1.073406 -0.250827 -2.225452 -0.167859 -0.487813 0.440183 1.48827 0.643471 0.426025 -0.436979 -0.301885 -1.408116 -1.152238 0.963904 1.1465 2.772703 1.016617 -1.390321 -1.037158 -0.05932 0.203086 1.396703 1.165461 1.59904 0.633719 1.055436 -0.402832 -2.063013 2.296477 -0.240348 0.361423 -0.141826 3.292266 1.382449 2.602204 0.911356 1.793715 -0.167096 2.428393 -0.042462 -1.21929 3.32461 1.745128 -2.763684 -0.076158 2.242302 -0.567421 3.926546 -2.18301 -3.160741 1.491977 1.633539 1.910014 -2.093971 -1.603791 0.102995 -1.619192 -0.872404 0.679998 0.834488 -1.683555 0.94359 -2.345925 0.549238 1.718697 -0.322584 1.270091 -0.292918 0.457955 1.396185 -0.664543 2.228387 -0.500709 1.49517 -0.530558 0.075041 -0.32548 -0.008551 0.973099 -0.445495 -1.68544 -1.155534 -0.443901 0.590608 -2.424809 2.904523 -0.828433 -0.976801
asylum -0.078335 -1.859463 0.464433 -1.720347 0.749119 3.064 -0.253108 2.940707 2.321141 1.12175 1.658383 -2.240669 -2.797137 -1.942249 -0.528772 0.454405 1.311198 -1.320909 -1.607283 -0.321452 0.607743 1.2693 0.968403 -1.77277 0.308577 0.665411 -2.170412 4.629541 0.720717 0.159024 3.030795 2.119202 -0.778457 2.325079 -0.586837 -2.646677 -2.267111 2.526212 0.052792 -4.589936 -1.964528 0.045961 -0.495557 3.053157 -0.086781 3.88029 3.145834 1.987296 -3.134162 0.870604 -4.709124 3.265874 -1.118844 -0.052887 2.380085 3.208674 2.889797 -1.117505 -1.279336 -5.352637 -0.27047 1.387725 0.208027 -3.087241 1.049001 -4.240091 -1.589498 2.424185 2.357298 1.444499 1.488122 -1.911934 1.130004 1.39405 0.81226 2.576488 1.704147 -2.176488 -0.438643 -6.962409 -0.065188 -0.020775 -0.500883 2.033636 0.379407 1.331295 0.107541 1.754929 -2.677112 -0.478935 -1.612014 -3.895743 3.638113 0.280825 5.554399 1.643342 -1.028854 -2.713268 -1.312649 -2.428989 -0.76437 4.033243 -1.709812 -0.211542 -0.734184 4.504241 0.93697 0.424277 -1.163123 -2.534103 1.713196 -1.818696 3.693637 -0.69457 2.096207 1.415899 2.872146 -1.808876 -0.539802 2.972534 0.331819 -1.848548 -0.899972 0.421063 0.660725 -4.122843 -0.068609 -1.108554 -5.216152 0.395738 -2.055296 1.55715 3.55353 1.114946 4.70525 -4.826118 1.412483 -0.793691 -3.201751 -3.481045 -2.883345 -2.61117 -4.69456 2.218067 -0.713166 -1.144289 0.662456 -0.051813 2.540885 -0.814954 -0.473494 1.746083 -4.827403 3.39547 2.694846 4.79501 1.885604 3.40154 1.652055 -1.793833 0.384833 3.06475 -1.488242 -0.379715 2.08376 1.032565 -0.340115 -0.57233 2.465652 1.910418 2.434329 -1.964579 -0.865678 -0.738508 -1.976905 -3.186155 -0.78515 2.11241 4.213181 -2.855239 -0.409841 0.019259 -2.014449 0.298749 1.800302 -0.411656 -0.238575 1.402204 -5.182676 -2.621814 0.839796 -2.298409 -4.075643 -3.934129 -0.11036 -0.873845 0.953944 -1.315986 -4.389361 -0.694846 -3.010307 1.135425 2.090566 0.808877 -1.696793 -0.751759 4.22276 0.259898 -1.401663 0.003406 -0.320809 -2.393003 2.466242 -3.166435 -1.588935 -2.473259 -2.322656 -0.065136 -1.915339 -2.117501 1.768881 -0.69322 2.790358 0.645936 3.409329 0.079123 -1.866013 0.760534 2.243796 3.114384 0.954754 6.165174 2.101609 -3.745494 -1.202641 -3.550403 1.960798 -1.529914 1.34927 -0.529487 -0.105229 0.204545 -0.856677 0.120539 -3.302197 -3.434202 0.329211 -2.003276 -0.34961 1.004463
manslaughter 0.363595 3.829119 -2.572769 2.718776 -1.039378 -3.72707 -0.213747 0.356853 1.51887 -1.072173 -1.557402 0.708944 -2.682889 0.376819 1.512549 -1.344897 -0.916099 -0.843551 -0.08902 1.663108 -0.826129 1.890559 1.590853 -2.078929 0.839527 2.677987 -1.064717 -1.489357 4.075268 3.954178 1.728462 0.784304 1.90299 0.729526 -4.092359 -0.90883 -1.99495 -0.304694 -0.419942 0.988107 1.444339 1.976108 -1.150766 1.691652 2.549052 0.767207 1.326022 -1.710635 -0.453642 1.531981 0.546144 -1.379574 -1.482677 0.076645 -2.380066 -1.249352 0.323643 -1.320191 -2.42789 1.061766 2.161053 1.688561 2.912436 -2.777366 -2.088977 -0.416298 1.191068 -4.18378 -0.764364 -2.08161 -2.899077 1.869085 0.446459 1.66603 -3.956635 0.174357 -1.330366 -1.392441 -0.628102 -1.025529 -3.231839 -0.054166 -0.083878 -1.919155 0.94445 1.532132 -0.146871 1.3677 -0.114666 -2.932169 -0.388931 -1.726864 -1.259537 -2.964768 2.82759 -3.069757 -0.971873 -1.762444 -1.481209 0.774547 1.977788 -0.276965 -1.907708 -1.737895 -0.012775 3.672042 -2.63722 -1.734155 0.153157 0.835274 -0.023963 -0.921223 2.843073 -2.554537 0.705076 0.471247 2.960176 -3.229728 -0.774463 -2.52038 0.122159 4.218774 -0.910608 -1.866388 1.085549 -1.921915 -1.715956 1.817376 -1.23821 3.060026 -1.566485 0.050711 3.440822 2.20402 -0.817545 -2.358338 -3.065455 1.233153 1.266904 -3.019505 -0.926889 1.850148 0.255918 -1.416301 2.627401 -1.358095 0.098325 1.281069 -1.308672 -0.410845 3.889917 2.950922 -4.517692 1.215356 4.182456 0.328596 -3.813483 -0.355502 3.65259 -3.98786 -1.399818 1.053833 0.180178 -2.884694 0.16024 -0.84844 -1.677935 1.649193 -1.177094 -2.203462 -1.27062 0.060139 -2.311831 -2.194803 0.038026 -0.835233 1.527408 0.064224 0.892936 -1.569412 -3.148894 -1.078211 -0.8844 0.335419 -0.996842 3.82876 0.86905 -0.972644 1.861279 -5.522738 0.685737 1.458643 -0.382831 -1.91304 1.476833 -2.872531 -0.201905 -1.311081 -1.722507 1.436432 -4.242282 1.144082 0.129417 0.719854 0.737229 -2.790313 -4.532669 -0.621691 -1.515038 1.986112 -2.215117 -0.872959 1.702916 -4.208516 3.447375 3.242012 0.806983 1.997202 -1.613631 0.937137 1.000339 2.140754 -3.145961 -2.716042 4.786919 2.247007 -1.402452 -1.739369 0.09851 -1.252644 0.690898 -1.035733 -0.34361 0.608343 -0.759528 -0.062082 -0.486902 2.313385 -0.786334 0.949241 -1.736586 1.843183 -3.373602 -1.599681 0.880607 -1.843425 2.68398 -1.341689 0.89525 2.517493
music -0.384485 -0.284266 -1.075126 -0.541269 -0.464514 -1.325052 -0.611454 -1.100964 0.740503 -3.149894 4.147384 -2.939175 -1.550896 3.480857 -0.762812 -0.533819 2.166117 1.806813 -2.73015 0.062837 -2.259502 1.184309 -0.290253 0.554528 -2.921382 -1.386401 -2.038354 3.210432 -3.571728 0.325058 0.722156 -1.274064 0.327675 0.286895 0.86973 1.234447 2.344867 1.443214 -0.210892 2.139249 -1.004752 -2.886305 -0.610687 -0.11439 2.91231 2.406752 1.916895 -0.122749 2.173649 1.423627 2.076786 -0.790934 1.465949 -1.928941 -0.077533 2.911364 1.592386 0.789895 2.914801 2.349244 3.661334 1.067699 -2.095544 1.313424 -1.904218 4.865168 1.14137 -1.626452 1.520047 -0.066692 1.032762 -2.827868 3.357904 -0.799406 2.027918 -1.553181 -1.036948 1.815108 -1.439197 -2.209863 1.487252 1.464251 -0.173416 -1.753199 2.895 -1.260414 1.645386 -1.047803 -2.170326 -1.59907 3.48128 -1.863982 -1.763225 -2.64535 -1.50451 -0.401777 -1.374989 0.415822 -0.161665 -2.71962 2.719002 -2.218424 1.496424 2.178857 -1.019516 -1.052343 0.040885 -0.368371 2.340075 -6.441124 -0.070492 -0.456284 0.044022 -0.798235 -1.831582 0.192473 -0.279418 -0.953792 2.546399 1.536789 1.500564 -0.246112 0.212359 5.19032 0.371348 -2.921549 -4.794848 -3.532754 -2.024605 1.967652 1.71593 -4.232348 -0.00504 -0.030793 -1.290161 -1.095426 -2.778826 0.113038 0.786268 0.333898 -1.129215 -1.439974 -1.102914 0.517471 -0.841632 0.571691 -1.259068 -0.644168 -2.17428 -1.132454 -1.694276 0.125286 0.323001 -1.562762 -0.522063 1.031401 4.250394 -1.231522 0.875257 -2.404607 -2.372604 -2.365083 0.20036 -2.994324 -4.16081 -2.800684 -0.630162 -0.857489 -2.327239 -0.228031 -0.14294 -0.446035 -0.64887 1.068017 -1.086064 -1.327803 -1.286698 -1.302734 1.19622 0.80694 3.055355 -0.170527 2.127821 -0.515155 0.12286 2.036385 -0.175931 1.060166 -3.028269 0.051038 3.353206 1.181589 -1.929154 2.276055 0.044741 -1.014367 -4.457081 1.583047 -1.908678 2.418983 -1.293367 -0.362633 -2.235169 -0.274402 -0.147158 1.87895 -0.748533 3.971365 2.261721 -3.202955 -1.40705 -0.861432 -1.1831 -0.927794 -1.820357 -1.026264 -0.066405 2.367399 -0.445442 -0.525493 -2.745299 0.160849 -1.766533 -0.686829 -0.519479 0.205996 0.715099 -1.509863 -0.854193 -2.751152 -1.202764 -6.09235 0.988643 -0.181152 -0.510689 1.734637 0.086612 0.718031 -0.191904 -1.015708 -1.955805 -0.847448 -1.289419 0.57912 -1.635628 -3.615061 -1.396334 0.45888 -2.397482 -3.015488
record -3.129883 -0.992724 -1.626447 -1.603618 1.177725 -0.640432 -0.722558 1.45768 -0.539885 1.053805 1.316933 -0.457715 4.198223 -0.253424 -2.407108 -1.861348 -3.071408 0.583142 -0.975204 0.608695 -1.434152 5.311564 4.239868 -4.113309 -1.099284 0.18417 0.155936 -0.069752 3.647887 -3.435101 -0.862341 -1.174558 0.099047 0.461272 1.856638 2.188456 1.826829 -1.838589 -4.167813 1.192351 -2.519605 1.016313 -2.196962 -2.347909 -2.461675 -0.885734 -0.749274 2.26598 2.432677 -0.711449 -1.062587 1.807328 -0.230808 -2.872355 4.429473 -0.550778 -0.649475 2.582936 2.437728 0.692372 2.680707 2.333357 0.672898 2.634568 -1.457042 1.527912 -1.849184 -0.43528 2.102028 -3.107975 2.752949 -3.562529 3.09881 -0.048379 -3.324262 1.220466 2.789181 -3.434161 0.263162 -1.561505 1.217311 -0.464957 -3.30189 -2.07093 -0.388122 0.240691 -0.417856 0.889968 -0.1348 4.555061 2.348881 0.172158 -0.234758 -2.022911 3.018538 -1.028594 1.440802 -1.512312 0.558457 -0.045514 0.636885 -0.152142 0.809487 1.314431 -0.729338 0.307078 0.934564 -0.81812 0.037876 4.05022 3.911632 -0.434302 3.835062 -2.708534 1.700721 0.473416 -0.968283 0.21812 0.09689 3.983871 2.756345 -0.155668 -0.862039 -0.178973 2.635917 3.621187 -1.975694 -0.272305 -1.00093 -1.090162 0.833387 1.264337 1.487946 1.639171 1.170277 -1.669208 0.208805 0.283592 3.304249 -0.261844 -0.514258 0.636054 3.166431 0.691981 -1.525566 4.500253 -0.802874 -3.660851 2.471025 -0.993542 2.796759 1.625139 -0.152727 -1.697818 -0.803084 -1.953223 2.296854 0.03329 -0.44698 1.344202 0.064927 7.553439 -2.09514 1.627488 -1.441289 -3.239331 -1.435598 -0.681403 -1.836647 -0.847673 -0.116067 2.115561 -1.160739 2.333658 -0.240451 -2.656484 -4.027475 -1.38531 -1.672579 -1.359908 3.964932 -3.842537 0.12651 0.191356 -1.707056 -0.166576 -0.087494 -1.526804 -0.765522 -1.722598 0.980035 -2.925148 -1.872125 1.155023 -0.63688 1.202235 -1.129107 -1.675571 -3.331072 2.666684 -0.632941 0.814361 -3.709512 -3.523525 -0.669215 1.072463 -1.775983 3.302862 3.752763 -1.133417 -4.684926 -0.732595 -0.92137 0.863167 1.444256 -1.438715 -0.42836 0.999394 0.757638 1.691508 0.84918 -0.552885 -0.724445 -0.506332 0.726021 -0.427909 1.36072 0.768168 2.121145 -2.070233 -4.831308 4.740178 -2.68275 -1.374677 -1.546735 0.281481 1.076163 -1.731669 0.793044 -3.23948 -1.498122 -2.380599 0.223778 1.48746 -0.80809 -1.640232 -0.01687 1.816974 -3.07001 1.01724
energy 2.360916 1.46559 1.237307 -0.5564 1.818617 -2.05781 -2.670099 -1.357222 -1.545231 0.994479 -0.533598 0.241743 0.783128 -4.336486 -0.749004 -0.811106 -4.735088 0.410672 1.120689 -5.346163 3.197772 -0.743417 -2.20718 1.958621 -3.130553 -1.997155 2.37869 1.115279 -0.878817 -2.911588 -1.765107 0.775203 0.479576 3.448281 -2.80703 -1.070679 0.209794 -0.114661 -2.600762 -3.181437 -0.132752 -3.276966 1.056906 -0.877026 1.289475 -0.333333 -0.442083 3.965294 0.484067 0.404458 1.127214 1.295108 -4.203748 -2.84953 3.535632 -0.896137 -1.632137 -0.354768 -1.444005 -2.159096 -2.711261 0.246569 1.550736 -1.106652 0.801504 3.740033 -2.163266 1.182127 0.118068 4.40244 -1.447979 -2.525819 5.328977 -1.569593 -0.431027 -0.392584 -1.255285 -0.276899 -1.642426 -1.032002 2.367952 2.170244 2.855774 -0.920396 1.665331 0.702793 2.963963 -1.765736 0.615509 0.286719 -0.299282 -1.03577 0.527589 2.051126 -2.114382 -1.844834 2.156439 3.595268 0.130957 -0.546054 -0.025951 -2.620346 1.895063 2.230069 0.832817 1.259012 1.93688 1.78111 0.418987 -2.824029 -1.200535 -2.015023 -1.720459 2.067584 -2.056043 2.345965 -3.281106 -0.747953 2.484233 0.785459 1.858541 -1.212898 -3.700392 0.020864 -3.918032 0.228796 -0.380428 2.08527 1.402827 -1.18101 -0.381744 -0.908224 3.355402 -0.906887 2.837667 -2.497018 0.245219 3.582015 0.776737 1.815797 0.574588 1.387857 -1.182681 0.845254 -2.013623 -2.594136 1.67447 0.289963 -4.874422 -1.539406 -0.637947 -0.513234 1.852213 -1.189561 2.089472 5.649941 2.379401 -2.714293 -1.737583 -0.94844 -1.946692 -1.190876 -3.166427 1.702168 -1.284624 -3.023497 -1.549078 -1.468081 0.976517 4.619905 -2.185893 -1.197102 -1.556516 3.983653 -3.429826 0.642118 -2.115702 -1.015753 -2.84811 -0.483731 3.549455 3.455994 0.282808 -1.906523 -0.112982 -2.534225 -1.761826 2.444807 1.602602 0.129005 -1.395636 -0.598317 -1.003837 3.425136 -0.977533 -1.222134 0.050387 -1.118269 -2.42748 0.740315 3.317194 -2.710558 -0.891116 0.484298 3.051201 -1.859903 -3.370761 0.71683 2.214695 1.261326 -0.591114 1.438531 -1.771625 1.044237 -0.217579 1.05143 3.673449 1.53504 -4.957887 4.856118 2.453744 -1.23792 0.52283 -0.011773 -0.80692 -0.873206 -1.062121 0.247915 0.534538 0.190588 0.948041 -1.240678 -0.994452 0.898551 1.353978 0.448558 -2.337761 -2.381132 4.072456 4.202778 0.490651 0.07679 -1.410418 0.970564 1.456019 -0.581421 0.713671 -0.845754 -1.328825 -0.688053
announcement 1.386772 -3.674298 -1.161077 1.014485 -2.017729 -2.994886 0.868987 -1.68578 0.199127 1.859838 2.6646 -1.412518 0.872101 -0.6999 -0.302467 -0.65847 -0.893878 -0.322171 -0.789437 2.455265 1.180884 -4.304301 0.073827 2.441546 0.930387 -2.329868 3.290878 0.813166 0.586593 -3.055142 1.480562 -2.248477 -0.309238 -1.561391 -1.896917 -0.541122 -4.674672 -3.228225 -0.344936 2.261019 0.577673 1.941484 -0.043501 -3.182611 -0.518966 -3.784344 -0.833699 4.09167 0.333891 -0.388636 3.830103 3.456744 3.747074 1.056956 -0.663922 -3.9103 -3.867377 0.515913 -2.647279 2.591636 2.608297 2.955836 1.226241 -0.146962 -0.74194 -4.261345 -1.607774 3.408332 1.059312 -2.095841 3.484503 -2.700663 2.182549 0.549994 -1.091015 1.091774 -1.200146 0.017963 -2.048876 1.450733 -3.705272 -2.887475 3.716489 0.769393 -0.250375 0.03877 2.83687 -1.774422 1.576954 -3.07601 0.563419 0.246342 -1.643488 4.017191 1.541282 3.200653 -0.291326 -1.4061 1.840217 -5.878506 -0.62632 0.8884 -3.978394 0.583164 1.319645 1.889102 -1.94876 1.456967 2.60093 0.124971 1.146914 2.869822 2.712865 -1.30917 -2.60395 2.491646 -1.718683 -0.610026 -3.076668 3.954666 2.087109 -2.595777 -2.379225 -0.143808 -2.963153 1.196208 0.456776 -0.257742 0.722891 -4.276061 0.65201 2.352689 0.005003 1.72919 -0.676709 0.960795 -1.027342 2.1564 2.541816 1.724401 -0.013129 -1.240223 1.108582 -3.118599 1.323599 1.410429 -0.756124 2.678236 0.480536 -1.130669 -1.007225 -1.106865 -2.321645 0.543716 -2.922053 0.248053 0.857109 1.538411 2.613778 1.790968 -1.632944 -1.286498 0.968813 -1.788641 -0.841362 -2.348381 -1.437961 -2.672675 -4.601582 2.840221 0.014701 4.563181 0.165963 -2.576135 0.449524 -1.2643 -1.994955 -0.388131 -0.466461 0.542343 -2.293116 -2.142119 -0.099964 -1.588548 -2.251871 -2.527366 0.816236 0.390266 -0.380808 -1.81048 -5.95839 2.681773 0.673589 -0.728739 -0.571804 0.705551 3.907859 -5.126269 -1.963986 1.429051 -1.923428 -3.623171 1.641926 -3.627764 2.468227 0.110232 1.196326 0.07668 -1.314513 -4.183918 -2.205479 -0.988018 0.308142 0.970643 0.585309 -1.849419 2.545487 -1.633414 -0.341394 -1.408397 1.029496 -1.76919 4.59658 0.965725 1.475776 2.992206 -2.459309 0.289226 1.183829 -2.547322 0.442657 -0.166871 1.222229 -0.506242 2.418968 -2.535571 1.685862 -0.489861 -1.71003 -2.410486 -1.978784 -1.990853 0.773294 2.257975 1.39004 -2.13729 -0.009426 -2.766049 3.446829 1.136473
mile 0.866639 3.65018 -4.506692 -5.989646 3.160066 -1.965475 -3.441135 -0.630078 1.718391 -1.507866 2.398505 -0.966271 1.554676 3.905669 -0.288079 0.754654 -2.942615 2.347594 4.209619 1.459257 -0.576227 -0.48669 0.380982 -1.909005 -0.135559 -2.809168 -1.733639 2.539055 0.778925 -0.116154 0.058536 -1.317664 -2.8238 3.722261 -2.738861 0.371488 2.576602 -3.727475 -7.411533 -0.166807 -1.834065 0.660295 0.700665 2.471111 1.182252 2.941027 3.179309 -1.496537 -0.584019 -0.985235 2.841384 -1.07534 4.594263 -2.232173 0.666843 -0.356907 -4.719721 2.83151 2.138534 -2.76278 0.194796 -3.624458 1.019555 -3.389536 2.434186 -0.053222 0.066083 0.529772 3.611505 -1.257384 -6.991828 1.822414 2.00978 0.8774 -1.431068 -0.542148 -1.100743 -2.97807 2.712723 3.48632 -2.571344 0.493648 -0.532092 0.488811 -0.751124 -2.257819 -1.623216 1.065775 0.681846 -3.838273 0.691358 -1.74542 -0.055253 0.438424 -2.103487 2.018795 4.967933 -0.164388 0.780346 2.98986 -2.645978 -0.489707 -3.066945 -1.239577 -1.46556 -0.433753 -1.782228 2.585464 1.038846 2.501334 -2.112699 1.449581 -0.248191 2.271188 1.585178 -3.085458 1.025 0.176435 -1.129707 0.796967 6.887064 1.932493 1.857733 -3.658676 2.215795 -2.975295 -3.703421 0.30404 0.450405 -1.637266 0.659149 2.906381 2.085418 -0.338291 -3.882193 -0.48414 -0.936674 1.690315 -3.943982 0.82505 2.180612 -0.999822 -0.356441 3.652876 1.792144 -1.149322 -0.981449 -1.304037 -0.89711 0.081227 1.175677 0.27101 0.904106 3.133775 -2.948568 -0.719772 -1.363364 -1.542756 1.249356 1.553308 2.443225 -0.858586 1.970349 5.100529 -2.593239 -0.965338 2.137326 2.967877 2.656821 -2.191188 1.453772 -0.931145 1.509546 -1.934879 -2.706354 -0.707067 0.977083 1.939649 -4.451075 1.695321 2.06891 -0.519731 0.782589 2.744232 1.482453 -3.79813 1.782072 -2.099478 -0.071442 1.108428 -0.095176 0.345073 0.329171 0.678419 3.354061 -0.264288 2.604633 1.000756 -1.800749 -2.265365 -1.39662 -2.839816 -0.257683 2.607948 0.498652 0.666415 2.202688 -0.676443 0.966153 -0.74496 1.506797 5.071948 -1.171558 -1.979447 0.262227 4.149884 -0.607306 -0.738043 0.019274 -0.201007 -1.262749 -0.269776 -2.819038 -1.825567 -1.252993 1.602312 0.127633 -3.60297 -0.192397 -0.633584 -3.948415 1.661559 1.117216 -0.932375 -3.215183 -2.12053 -1.392089 -2.858043 -1.606072 -3.433366 -2.284663 -0.113928 -3.475604 3.59172 1.147985 1.721066 3.510002 2.415915 0.045325 -1.124572
airport 1.91779 -0.921955 1.579867 -3.417512 1.99284 -4.124012 -0.526571 -1.493328 1.045628 1.009368 2.827577 0.486228 3.798665 -2.363716 2.141599 0.87896 -2.476076 -1.373335 1.468236 2.070747 2.692755 -3.841961 2.718484 1.520323 -2.712247 -0.645454 -3.23902 6.110179 -2.80884 3.000265 -1.844351 3.974334 -2.850637 0.522556 -1.025912 1.958249 2.117087 -0.643796 -1.095633 -2.305085 -0.117371 5.885034 0.3325 -0.683458 1.013222 0.855377 -0.218302 -1.809225 0.083134 1.779819 1.667639 1.176598 2.481662 -1.647755 -2.63793 -1.439286 0.079794 1.070433 -1.092843 -1.297068 0.014294 1.39662 0.292195 -3.121169 -0.93586 -3.059253 -1.200363 -3.769385 3.905953 0.373429 -0.685839 1.670576 2.460833 0.235325 0.369813 1.404629 -0.374817 -1.231758 -1.391081 2.166667 0.344222 -0.870388 0.674723 2.365358 1.780756 -3.220066 -1.220259 1.226479 -1.330291 -0.606026 -1.935187 -0.825132 0.879635 -2.602609 -2.209088 0.305218 -0.07267 1.648137 -0.131593 2.914826 -3.887064 -0.165735 -1.573022 -4.548059 -0.300778 0.893918 -1.228436 -0.286728 -1.861495 0.948324 4.232783 -1.066853 -0.018488 -4.41417 -0.127627 -0.145862 -2.380126 0.975195 -0.919851 3.87469 5.226161 -2.524716 1.494916 -0.392943 -2.239431 -2.716116 2.584082 -1.694786 0.352072 -0.988004 -1.691498 4.427907 1.621868 0.133308 0.993636 -1.073356 1.67274 -1.566637 -1.495852 2.347566 1.037837 -1.511103 -0.325024 -0.136965 3.326183 -0.488811 -1.42411 2.093914 -2.594804 -5.408896 0.836943 3.51209 -0.500864 3.521805 -1.186041 -0.739251 2.40932 1.678082 2.534544 -1.547601 4.895294 -0.708069 2.083654 3.071494 -0.207489 -0.956333 0.852688 -2.220457 -0.584675 1.042807 -1.225222 -0.068972 1.040819 -0.620989 -0.754858 -2.078168 0.332178 1.034805 0.579456 -0.164604 -2.193513 -0.625742 -2.165174 -2.850313 2.672746 -1.254563 -1.321176 -0.60807 4.023022 -1.872868 -0.072016 -0.983351 -0.030077 -1.459541 -0.738732 2.801034 1.82886 0.45925 -0.435533 -1.233446 -2.586982 0.896524 0.789003 3.595639 0.57084 3.569202 1.164583 1.005843 -2.472413 2.943713 -1.916495 0.325707 -0.944546 -3.01115 2.560388 -0.662364 0.648952 2.072361 0.339385 2.904486 0.630451 -3.072847 3.206171 1.991524 2.040581 2.037521 -0.960319 -1.724149 -0.495241 0.940031 4.191758 -2.079906 -0.459207 -5.747653 -3.984523 -1.81119 3.702593 0.083259 -0.248138 2.583867 -0.921533 -1.105207 -2.132699 3.824649 -2.460557 -2.965994 0.241436 -0.715601 -0.037058 -0.501743
population -2.289497 3.461831 1.270201 -6.610403 -4.192772 -1.955136 1.372516 3.699862 2.105171 -4.267803 1.755281 -2.249669 1.330526 0.149517 -0.475974 0.999564 -0.706465 1.806637 1.158874 2.013932 2.067273 -2.217017 -1.345896 -2.445729 -4.015042 0.991884 3.212164 2.552665 1.092091 -4.042393 -2.2426 -1.349269 -0.43751 -0.566146 -1.480125 -2.81759 1.185951 -3.761441 -2.496592 -2.174944 -4.116786 1.993712 0.393717 -3.060052 1.529093 3.486584 1.432723 -2.684496 -4.121923 -1.136625 -0.934801 0.414077 3.017795 -0.187625 2.34307 -0.203254 -4.186319 -0.923115 0.498079 -3.660781 -1.875095 -2.66804 0.259585 0.510381 2.406412 -2.42602 2.260731 -1.344849 6.750933 1.375632 -3.521991 0.627133 4.480756 0.715511 1.928793 -1.729589 -4.474711 -1.264764 -3.008654 -3.150248 -0.665048 0.924662 -1.942487 0.698185 -0.945149 -1.917949 1.960785 7.113358 -1.465567 0.175553 -3.942727 3.543631 2.404951 -1.045786 1.577375 0.113215 0.265897 4.527705 -7.034563 0.230893 1.435074 -1.175726 -3.803488 -1.173724 -3.962049 0.622936 0.547684 5.904368 1.997149 -0.880163 3.539237 -2.291194 -1.726877 3.828144 0.780961 -1.220783 -1.520635 -3.552968 3.767336 0.656305 0.969137 -0.546342 -0.039489 -1.801337 -0.438469 -2.079017 -0.800757 1.564943 -2.906018 2.273058 1.200758 2.167954 5.819545 1.325307 3.014121 -0.420822 0.537509 2.238232 3.89409 1.684214 4.561147 -2.332464 -5.477098 1.883015 1.622211 -4.518362 -1.962811 -0.051059 0.66178 2.9003 1.834401 0.211679 2.066029 1.991854 -1.197312 1.247107 1.103257 -2.141393 -4.58101 -1.357796 -1.565737 2.573385 -0.372745 2.083642 1.995997 1.207563 -3.345008 0.276876 -4.315107 -3.57724 -2.657146 -3.955147 -1.486208 2.463173 -0.334285 -2.911594 0.319182 -0.732662 -0.459053 1.319093 -0.039471 1.362589 -3.161893 -1.055028 2.242433 0.944085 1.121877 -0.075366 -3.179789 -0.315627 2.624403 0.522804 -4.948356 -0.023477 0.830371 -0.178812 1.105336 -4.282073 -6.019268 -0.706953 -2.058534 0.557979 -1.239398 2.200321 4.614785 -0.626262 1.510127 -3.497011 -1.623915 2.45749 -2.881879 3.276597 2.399268 3.778665 -1.689603 2.114825 0.312012 -1.348373 -5.116129 1.884926 -3.452842 -2.789715 -3.323439 4.674922 -0.589816 0.159801 3.917851 4.560289 4.726644 -2.437411 0.735219 0.842949 1.67061 0.582029 -0.96497 0.838936 -0.149481 3.127195 1.039499 -0.599608 -0.690279 -0.691977 -1.245318 -1.560227 4.600482 -2.731543 0.047296 -0.381718 0.35349 -0.247706
planning 2.206112 -1.01719 -0.162209 1.391123 1.44752 -1.346101 1.061405 -0.038445 -0.174582 1.879304 -2.546384 2.075502 -2.687467 0.896273 0.246383 0.081112 0.294491 1.644321 0.099296 -3.646679 2.281808 -4.656773 1.576215 0.911597 1.898293 0.477258 -2.380422 0.988405 0.461858 0.085887 1.997972 -1.301364 -0.906848 -0.386933 0.187296 2.733979 -0.867274 2.537933 0.303011 0.205199 1.300791 1.429267 1.197435 1.613626 -0.502979 -0.704915 -1.665654 2.504483 0.473326 0.378011 1.240813 -0.091648 0.489466 -1.344756 1.942266 -1.894517 1.484578 -1.469932 -1.928204 2.720448 0.904083 1.216078 -0.816185 0.709614 -1.605829 0.566062 -2.021631 0.355824 -2.166829 3.029042 -2.301569 0.415694 0.702057 0.473589 1.793558 1.254446 -1.980399 -0.133738 0.097603 -2.817045 1.040524 0.77409 -1.656922 -0.962727 -1.249147 2.006623 0.012176 -3.381335 -0.069744 0.954615 0.225858 -0.484962 -1.683162 0.863504 -1.100897 1.708983 1.244478 0.156202 -1.026935 -1.305658 -1.709801 1.875947 2.528396 3.063685 0.473108 0.670172 -3.687986 -0.389789 -2.603462 0.753612 2.616005 -2.086362 -0.816441 2.673313 -0.362121 0.515312 -0.989395 -2.162109 -0.327764 1.935025 1.636756 -1.477173 3.101061 1.299164 0.126819 1.126187 0.05201 -0.238259 3.146192 -1.196041 0.011235 2.36221 -1.205048 -0.198683 -2.785242 -1.427097 -0.438346 -2.416678 -0.473577 -2.254653 -1.127775 1.215808 -3.092812 -0.834794 0.55983 -1.969138 -2.018379 2.440702 -3.424475 -0.655418 0.773063 1.935042 2.934684 -1.159901 -1.564856 2.142138 0.009933 -0.041687 -0.313977 -4.580259 1.122573 -3.564956 -0.874387 -0.642478 0.244521 -0.224055 -2.508051 2.183326 -1.485521 2.256631 -1.014599 -2.379022 -1.60006 3.484638 -3.644866 -0.412092 2.979985 -1.113563 1.881485 -2.469526 -2.291972 0.718718 -2.887897 -0.691688 -1.140252 -2.632291 -0.052035 -0.794355 2.447365 0.704451 -1.070855 0.501419 -1.044493 -2.564314 -1.311734 -2.643547 0.140796 0.877547 -0.470183 -0.958663 -0.741247 -1.341043 3.165817 1.943606 2.40259 -0.125279 -1.010373 -1.620603 -0.763764 0.087162 1.93451 -0.718791 1.317662 -0.036976 1.867379 0.207329 -0.922453 -0.986167 0.53126 -1.257067 1.740942 -1.950047 -0.858754 1.100339 2.379239 -1.01918 1.970383 -0.384264 -1.007398 0.698243 -0.688588 0.226791 -1.016277 0.042075 -0.671462 -2.341357 0.656325 2.185013 1.392433 0.451599 -2.236076 2.423336 -0.971253 -2.682042 1.19738 0.498291 2.117375 -1.013059 0.819408 3.106313
canyon -0.063036 1.880824 1.49734 -2.157021 -0.005359 -1.225567 -1.654019 1.170837 -5.8E-4 0.182167 0.540042 -0.251126 1.949531 3.767107 -0.221534 -0.830993 0.563906 0.371848 0.762376 0.174803 -2.099307 0.076117 1.160191 -0.028507 0.827144 1.282305 -3.353919 1.29101 -0.433266 -2.210848 -2.721877 1.948026 -1.270573 0.48054 0.155267 0.242292 0.763519 -1.121873 -2.845325 -3.333259 1.239967 -0.036214 1.059907 4.240967 2.260306 -0.264285 2.726769 -0.088657 1.596693 1.007498 -1.162383 -0.414674 3.168095 -0.090053 -1.764755 1.414773 -3.02589 2.750836 0.461842 0.233537 0.759901 -0.329897 -0.986226 0.104965 1.476844 -0.661237 0.525082 0.340426 -1.380861 -1.288518 -5.096645 1.493281 -0.525825 0.347161 1.985342 0.440379 0.374472 -1.493098 0.644177 3.148347 -0.453038 -1.041951 0.310076 0.3469 -1.082563 0.257021 -1.697628 0.671317 0.168952 -3.705639 -1.782083 1.417078 -1.694775 -0.153477 -1.331186 0.288661 1.603913 -2.470309 0.924514 0.406746 0.186869 0.073246 -1.708664 -1.507337 0.305158 -0.535743 -0.343721 3.347044 -0.907824 0.807525 1.133566 0.929078 -0.994426 -0.2349 -2.368714 -2.92756 2.987494 1.018848 -0.51955 -0.523224 2.28653 -0.405552 -0.243419 1.246781 1.793085 -1.859499 -0.243225 -2.811663 -0.903244 1.763948 -0.144036 1.12169 2.48221 -0.341578 -1.852447 -2.161142 1.504211 2.12446 -0.683041 1.117269 2.122686 -0.553084 2.489147 1.632316 0.775201 0.154953 0.424792 -0.083996 -1.267822 -0.056557 0.295187 0.06799 2.174921 0.134248 -0.171628 -0.31167 0.051635 -0.329822 -0.978302 2.029233 1.884702 -0.173445 1.156318 1.855259 -2.860391 -1.508274 -1.55163 0.220974 0.425493 -1.047252 0.26975 -1.24764 -0.538241 -0.373637 1.263008 -0.409311 -2.118186 -1.273775 -0.707299 -0.12456 -0.967239 -0.529903 1.753583 0.587079 0.564324 -2.79595 0.897156 -5.86E-4 -0.365462 -0.307487 2.109768 2.308763 -0.319476 -1.327603 0.741803 1.643877 -0.131342 -2.021488 -1.145616 -0.521055 1.497299 0.350253 -2.122726 -0.497191 0.77027 0.359094 0.329494 2.368013 0.205594 -0.204399 -0.654523 0.639014 0.094663 -1.813448 -1.500008 -0.699196 1.287911 1.916126 -1.987599 2.766537 -3.444064 -0.96427 -2.548843 -1.190358 0.130717 0.531373 -0.319684 -1.292446 0.404252 -0.016718 -0.270579 -0.142172 0.693184 2.022681 -2.297206 -2.062427 -0.737168 1.475007 0.227736 -0.447792 0.77823 -0.3488 0.747925 0.522118 0.614494 -0.559381 1.404039 -0.490775 -0.369174 -0.380948
delay 2.497365 -1.822206 -1.794983 -0.295714 0.27482 0.531268 0.40317 -0.594418 -3.137712 0.532361 1.551973 3.496707 0.472868 -2.469377 -0.878685 -0.161197 -0.873947 -0.990576 2.102716 1.493788 0.148602 -1.211006 -2.024825 1.762143 1.506837 1.339035 -0.368743 0.51726 1.225608 -1.445203 -1.259155 -2.134086 -0.862814 1.480896 -2.586151 -2.557477 -2.047144 1.578839 2.170239 -1.64768 6.12785 0.012608 -0.751286 0.14087 -2.239778 -0.186768 -1.970892 4.320466 -1.880708 -0.321675 1.079268 1.124215 0.456769 0.577606 -0.254584 -2.762158 1.428567 0.539981 0.217407 1.521849 1.158865 0.642878 0.999931 -1.985325 0.81933 -1.838806 -1.298831 1.903231 -0.705923 -0.340607 0.961007 0.402752 -0.399059 0.361689 4.072568 0.902605 0.585272 -1.481317 1.12467 -0.572217 -1.028 -0.21244 4.009148 -2.706254 0.552939 -1.382761 -4.581443 1.253599 1.035382 -2.451454 -0.147212 -2.901124 -3.749175 1.541614 2.364196 1.285879 -0.812588 0.960452 -0.550096 2.295214 -0.105979 0.996991 -0.260083 -1.15732 -1.447023 3.381025 -0.727944 1.894024 1.575131 0.279504 0.536446 -1.527896 2.342004 -2.106441 1.051704 1.184635 1.435021 2.971466 -2.309888 -1.270432 0.427242 -2.201882 -0.845112 -4.820131 -0.263876 2.809985 -1.334398 -1.778764 -2.72539 -3.240979 -1.405683 1.420789 -0.064575 0.959031 0.779949 -1.611055 -0.379355 -0.071006 3.05853 -0.44426 -1.94464 -2.116683 -0.871006 1.557928 1.811469 3.630754 -2.374123 -0.139395 1.255746 1.377471 -1.34663 -0.735383 -2.52618 0.089905 1.485949 3.093112 0.14162 -0.204454 1.77034 -0.760604 0.54058 -2.439624 -0.084523 1.861581 0.563077 -1.652948 -0.880228 -2.134815 -0.999592 3.030415 0.868648 0.468052 1.142818 1.102504 0.417819 0.136903 -1.600338 0.683973 1.151594 0.080779 -0.786305 -2.098374 0.781761 1.856632 -2.988284 -2.129238 -0.954124 0.733091 -3.259959 -3.390123 0.1421 -1.750055 -0.679781 -1.777702 -1.32541 -2.349159 2.40306 1.708191 0.714504 -3.14301 -0.635496 -0.421971 1.869783 0.053697 2.668615 0.133004 3.577863 -0.699327 0.824237 -0.681199 -1.420961 -2.201007 0.557752 1.953248 4.347594 -2.035958 1.343506 -0.456616 0.35187 0.182 2.245189 -0.568206 -0.047075 1.098958 3.445614 -0.369933 0.688694 3.750165 -1.594712 -3.960025 0.915739 0.338767 0.108125 1.566113 0.821668 -3.66281 0.326599 0.242839 -2.816 2.770275 0.086615 4.076576 -0.719368 1.303289 0.259795 -3.174352 0.621697 -0.069937 1.038669 -1.127059
size -0.603971 1.47306 -1.606903 -2.490284 -3.968534 -2.081915 -0.567548 0.465671 1.289099 -0.880493 -1.709677 0.939319 1.025904 1.57387 0.710383 1.178811 1.32688 3.158545 -1.27545 0.774507 -0.024379 0.506657 -0.315772 -4.918637 -1.670112 -0.412427 2.666589 0.565948 -0.557364 -1.44114 -0.072762 0.632106 0.238404 0.283414 -0.49801 -1.164933 0.314648 -3.77988 -1.995428 -0.220934 -0.187821 2.466559 1.896884 -2.678285 1.822569 0.415074 -1.110136 -2.766113 0.340179 2.116951 2.523152 -0.954019 0.387314 -0.303323 0.67126 -0.095181 -1.789078 1.297462 1.08709 -1.41396 -0.485166 -0.43319 1.066882 2.466272 -0.803997 2.804548 -0.36761 0.394769 1.086861 -1.206636 -2.439322 0.935369 2.198238 0.709576 -0.032711 -0.696911 -2.096414 -1.596065 1.996847 0.030763 0.887633 -1.81635 2.747475 -0.17353 0.528314 -1.549058 -2.436154 4.47201 2.803527 -1.170033 0.478945 2.140129 -1.691468 -2.805008 0.512578 -0.732431 -0.805881 3.110594 -7.215892 2.694444 -2.003402 -2.449607 -0.8433 2.283228 -1.058738 1.301066 1.374886 3.505183 1.411005 -1.192079 -1.443224 0.990923 0.105113 0.707283 -1.838683 1.589719 -0.397582 -1.935877 1.463278 -2.673999 -1.742841 -2.269605 -0.774821 -0.25253 2.060511 1.284183 0.750289 1.046929 0.497634 0.364115 1.547244 2.607926 -0.779328 -0.277936 -1.832752 2.951757 -0.244243 -0.247556 0.402994 -0.407349 -0.831948 -3.447162 -0.700758 4.35673 1.528767 -1.921725 1.939694 -2.041216 1.493166 0.566097 1.493407 -1.14582 0.806023 2.278006 -0.018387 1.684495 -1.771645 -0.434534 -3.56298 -2.171224 0.879611 0.171947 2.247104 1.626245 2.029882 0.29721 -1.234634 1.26776 1.635384 0.084639 -2.356335 2.846369 -0.225636 2.245747 -1.844671 -4.397814 0.210802 0.757022 -4.194573 0.847844 -1.10146 1.826945 0.470384 -1.252597 1.921355 -2.638543 1.105131 0.498083 -1.276254 -0.908821 -1.449202 2.034537 -2.550769 1.41915 0.159241 -2.944925 3.242474 -2.007565 -2.039167 -1.327024 -2.069642 -3.181103 -1.231928 -0.534903 1.486402 -1.647102 -1.295104 -1.231717 4.102123 -0.968775 1.719586 1.373839 -0.401187 1.183451 0.644513 3.797511 1.53074 -0.601488 -5.444406 -1.168431 -1.85434 -2.786177 -1.896182 0.045361 -1.434271 2.011321 2.292558 1.008626 3.821014 1.408386 2.36052 -2.171753 0.325357 0.094527 -4.717709 1.24889 2.480618 2.171801 2.065713 2.462503 -0.711967 0.084635 -1.504426 0.34773 1.301622 0.507148 3.588394 0.544668 1.591892 1.995351
peace -1.46204 3.602882 3.741252 7.0091 -2.257436 4.963173 1.031418 -0.556453 2.26909 -3.605571 4.178995 -2.065001 1.363012 0.107793 0.014459 -1.274587 -0.514647 -0.016239 1.184397 -3.062913 2.914794 -0.057109 1.0202 2.186154 -2.535381 1.5411 -3.104864 -0.876589 0.953562 0.620845 3.429327 -2.917665 2.536929 2.081545 1.763319 2.413582 -3.333812 1.207661 3.274148 -2.722583 5.094187 0.280157 0.654905 -0.141465 2.187916 2.054127 0.792437 0.374373 -0.802529 2.099316 1.261019 2.758082 2.089718 -0.421254 -0.905204 3.585726 -1.561696 -3.118917 2.405401 -1.600742 -3.971448 2.302311 1.185434 1.926728 0.684208 1.338707 -0.737879 -3.748339 1.975393 1.041864 -1.882707 1.692073 -1.382794 -4.719164 3.25729 -2.294567 -2.698925 -4.258886 -1.720037 1.42259 0.156656 -1.244846 0.193002 4.698481 -1.184861 -1.723594 0.0748 3.117075 3.409471 0.480616 -0.323618 -0.233152 1.44394 4.188245 2.346639 3.375066 0.261747 -0.768381 1.85078 -2.689087 -4.179882 -2.096308 3.177361 -3.241719 0.89009 1.694434 -0.805956 2.002074 1.19249 -3.260209 -1.660346 -1.24291 0.849472 -3.545596 -3.278294 -2.712149 -2.549058 -2.229466 -2.306673 2.422398 3.396881 0.667377 0.324468 -5.085547 -2.001382 -0.952068 -3.509338 -0.555375 -2.284817 2.011266 2.520489 2.774696 -0.094059 1.883704 4.91444 -4.640435 1.530788 0.417309 1.044578 0.660861 0.443814 1.139537 -0.066226 0.207896 0.568499 -2.0343 -0.125645 0.71134 0.523245 -1.071072 -0.838653 1.415001 -1.910931 1.584901 0.234356 -1.580922 2.856431 -1.846366 -2.102931 -2.963191 -0.94701 2.136882 -3.11305 2.836658 -3.462518 1.428012 -0.444831 -1.268569 -4.565358 -0.382894 -1.988932 -2.001857 -2.623756 0.577617 -1.065179 1.813154 -1.328582 1.253978 2.455132 -3.08854 2.940181 2.470427 -1.103472 0.659139 -2.059119 0.024612 -2.681574 -0.720941 -1.006963 0.035501 -4.980606 -2.347366 1.608906 -1.453917 1.308254 1.792759 1.495654 -1.198356 0.15302 -1.676649 -2.642264 -0.144153 1.49421 -5.896342 1.852042 0.593459 2.991655 -0.596055 -0.832598 -1.294831 -1.109885 -3.519335 0.774275 -2.219645 -3.78622 -1.101329 1.049201 -0.946589 0.858669 4.340323 0.767015 -1.083664 1.446866 1.433455 6.264728 -2.652162 1.459659 -3.169213 1.598193 0.923864 2.12373 0.513986 0.08834 0.351864 4.779554 -3.338196 1.561783 -2.897293 -3.676684 2.239239 -3.626567 -1.061889 0.221888 -1.340659 3.638317 -2.132788 -0.342649 -1.812647 0.142707 -2.958494
science -1.473655 2.841732 1.810728 0.517393 0.81328 -1.141571 1.163574 -0.130589 -3.746604 -1.204284 -0.593146 0.70603 0.199415 2.806774 -1.076438 -3.828926 2.638254 0.566634 -1.050322 -4.146629 0.338388 -0.371532 -2.149945 1.994664 0.952549 1.891456 -0.244618 2.837444 -1.23451 -3.056681 3.972569 -2.813609 -0.954028 -1.078807 -0.358118 -0.36872 -1.308128 0.958714 1.504293 -1.574026 2.786118 -2.056455 -0.245405 -2.809983 2.714311 -1.286208 -1.118493 -1.505412 -1.466543 2.596855 -1.50706 2.227667 -0.416378 -1.172149 0.432987 2.965268 -0.556463 0.654217 2.435395 1.500713 -0.240167 0.027981 0.598317 0.464487 0.269596 1.278107 -0.615558 -0.227539 -0.41343 5.781572 -0.213552 -0.164606 3.189504 -0.48357 0.61216 1.443449 0.956928 -2.142415 -0.475448 -0.984781 0.308335 1.368816 -1.517942 -0.304669 0.771092 -0.133869 3.378253 0.650509 1.945155 -0.777264 -3.436037 -2.409066 1.584277 -2.326267 -2.492574 0.563833 0.637837 0.839813 -2.277526 -0.791855 -0.470188 -0.704429 -1.585865 0.04229 -1.331259 1.604957 0.549526 -0.029419 -0.372925 -1.858579 -1.930531 2.165163 1.595991 2.426727 -0.080383 -0.787487 0.229832 -2.960723 -1.110793 0.439482 -2.237073 -0.007739 -1.617055 1.850092 -0.162665 -1.76776 -3.651486 0.568051 0.920318 2.442705 1.360693 -0.931866 -0.018857 -1.040639 0.637669 -0.25793 2.095321 0.934276 2.382818 -0.785971 1.60689 1.330286 -0.596849 -1.755157 -1.541407 -1.551487 -2.175215 -0.697205 -1.857475 -0.206936 0.211198 -1.496565 0.051482 -0.041115 1.723647 1.087769 0.208904 -0.432597 -1.205721 -1.296097 -3.192696 -2.339236 0.52253 0.923572 -2.418474 -1.594219 -1.663206 1.586952 0.578867 4.403955 2.108984 -0.844201 -0.45079 -1.777482 -1.766747 1.245577 -1.618183 2.913037 -1.644652 -0.588337 2.756514 0.791827 0.695466 2.328122 2.247448 -2.690551 -0.88916 1.637702 0.649723 -0.926487 0.369127 0.527458 -2.226022 1.33972 2.895846 0.047548 -0.952383 -0.136918 -0.287577 2.080634 1.464015 -0.528811 -1.998166 1.944355 -0.900527 0.230688 -1.321289 2.561505 -1.898347 2.75797 -1.854736 -1.325772 1.228397 -0.347728 0.085302 0.215244 1.506254 0.397452 -0.80826 -2.210244 0.32914 -0.886257 -0.655657 -1.891513 -0.806633 -2.537733 2.141482 1.985404 3.224554 0.673976 -0.094054 -0.542819 0.228534 1.822744 -0.592789 1.199211 1.681584 2.903308 3.37317 -0.116311 2.588035 -0.23898 -2.654312 1.410805 -1.909302 -4.042493 -0.380715 1.293287 -0.988306 -1.829726
dawn 1.940008 3.664829 0.638727 0.571221 1.742282 -1.736816 0.175844 1.435269 2.405746 0.638769 1.941553 -0.101348 2.137645 -0.176535 -0.872852 -0.405338 -0.937411 2.575694 -2.802774 1.452528 3.547612 -1.402779 2.955588 1.263183 -0.83931 -2.153939 1.60333 2.27281 0.002559 0.233065 1.424714 -0.75206 1.334472 -0.730645 1.631243 2.064586 1.770905 -3.400903 0.56618 0.942732 1.082269 -1.382147 -0.466073 0.794994 0.041723 -1.071366 -1.092439 -2.135451 1.393802 -2.414423 -0.092725 -0.936724 4.211054 -0.811032 -1.526135 1.273753 -3.569185 1.59635 -0.196228 0.397437 -1.922781 3.250796 0.291086 -0.587533 0.370917 0.503479 -2.877611 -0.987632 1.534509 -1.615585 -3.436618 0.123408 2.563969 0.067334 0.802508 1.943727 1.312203 -2.541967 1.608685 1.83774 -2.32648 0.201783 -0.007885 2.042413 1.890044 0.581758 -0.658271 2.610433 -1.715523 -2.599514 0.576984 1.895361 -0.293841 0.911919 -2.11228 3.881767 0.763372 -4.116291 -0.049675 -2.186868 -1.200948 0.482009 -1.618984 -1.829789 -1.538178 -0.805949 -2.53554 1.416408 -2.467805 -1.060712 -0.348989 1.470296 -2.383138 0.377881 -0.239776 0.250085 0.472207 1.540467 -2.29294 2.511784 3.991956 0.053313 0.790765 -1.216343 -3.549704 -1.482163 0.725925 -0.812943 -2.866988 1.307594 -1.386359 -0.368071 -0.397815 -0.134609 -1.02928 0.954875 -1.369859 -0.796336 0.302725 1.751789 1.664044 -0.230921 1.567265 0.825838 2.920417 2.256498 0.443563 -0.65137 -0.613425 -0.666007 -1.197545 2.289816 -2.300573 2.958571 -3.070304 2.033509 1.29423 1.987411 2.854257 -0.629463 4.015522 0.486178 2.864981 -0.230457 -2.179067 1.776694 -1.664942 1.120054 -2.373652 -2.524806 -2.395976 -2.441994 1.528672 -1.552965 0.800396 -3.129086 -0.094146 0.278996 0.799986 -1.586958 -0.983984 -1.861747 1.750084 -2.582276 0.143164 -1.269463 -0.114085 -0.640715 1.631695 -0.312532 -1.329774 -0.250185 -1.032608 -1.521321 0.652708 4.408425 1.051254 -0.332073 1.480482 -2.155424 0.61633 -1.933768 -0.61888 2.141555 -1.287106 1.961451 1.323705 3.344195 0.100421 0.746959 -2.044304 -4.024744 0.702041 -2.609004 -1.777111 -1.723704 -2.079138 0.459075 -1.180142 0.794743 -0.045534 0.222175 2.037368 -2.903743 -0.737504 1.215337 -0.394942 2.215354 -0.659121 -0.690345 -0.630897 -0.632393 1.041648 1.354979 -0.094188 -3.819912 -2.652541 -1.022882 0.471828 -1.558967 -1.181533 -3.690594 -0.088178 2.571308 -1.121359 -1.497462 -1.367537 0.933847 -3.098016 0.277073
brother 2.765576 -1.212646 1.237132 -1.798442 -1.715866 -3.089931 -1.352935 0.556841 3.556551 -3.04248 1.048263 2.046091 -0.762472 1.422594 2.073204 1.32498 -1.070829 -4.793715 2.386436 4.841473 0.780886 0.190056 4.447452 -1.232509 -0.897293 -2.644771 -3.113597 -2.211414 0.186417 3.157386 -0.955569 0.138167 4.463818 0.999505 -3.230841 -1.21164 -1.528592 -2.861924 0.616998 3.185233 -2.88061 1.062481 -1.979143 1.554978 0.086923 -2.856034 1.372061 0.079312 1.775209 1.58291 2.876026 2.799496 0.609056 -2.316983 1.282696 1.106843 1.605905 1.335146 0.864979 1.166059 1.121759 0.745709 -3.936928 -0.161701 -4.912985 -0.099688 2.733727 -3.659571 1.816349 0.328478 -0.399915 1.488387 -0.009338 -2.149852 -1.32298 -0.98462 0.049467 2.118709 -1.677728 -0.458591 -1.467956 -0.220966 -1.809594 -1.704111 0.490069 1.359122 2.527363 -4.123799 -3.486693 2.707119 -2.11768 -2.940215 0.416387 -1.242173 2.725141 -0.959869 -3.566786 -0.28012 0.193282 0.243975 -2.046215 4.110382 -2.716911 -2.096107 3.044108 -1.381716 0.119702 -2.325018 0.379077 -2.555286 -1.755126 0.076548 -0.558217 -2.128539 -0.266979 -1.486346 1.763103 -2.385896 -2.726482 -1.060879 3.099199 3.180358 -0.922623 -1.619298 -2.05798 -4.174841 -2.073542 1.034739 -1.677573 3.329886 1.9195 0.984567 2.778654 3.463639 1.148143 3.319059 -1.750983 -0.810339 0.097099 0.53941 -3.496607 -3.585319 -1.273086 -1.01026 0.888051 -0.302626 0.989526 -1.00489 -3.399187 0.227079 1.702155 -1.191412 -0.562936 0.478445 0.194526 1.774658 1.269251 -0.322776 0.247361 1.57501 -0.03433 3.071645 -0.200354 -3.686903 -3.231955 -3.183323 -0.299583 -2.964724 -1.016285 -3.228973 1.598429 0.537904 1.119114 -4.330971 -1.416653 1.917434 -0.785802 -1.676426 3.087386 2.704203 0.323085 -2.703806 -5.279825 4.094952 1.241263 3.205304 1.385458 -2.789891 -1.555668 -0.326015 0.38536 -1.064515 3.213043 -1.875976 -1.237837 -4.149377 0.971819 -2.757379 -1.631472 -2.41317 -0.257467 -3.733984 -1.78962 4.920157 -0.789619 -0.755814 0.486932 0.52837 0.095002 1.636767 1.755195 0.212975 2.040848 -1.411067 1.333846 0.530395 -2.566613 1.880603 -1.575754 2.723961 -0.738557 4.313574 -0.805919 1.527354 -2.884765 0.642994 3.469927 -0.641027 1.530672 -2.414962 -1.774311 2.551836 -2.152444 -0.001443 -1.092993 -2.347376 0.334071 2.949317 0.220714 2.291008 2.828387 -1.243292 1.786683 0.128638 1.138013 2.967883 -1.235733 -1.297393 0.84549 1.759703
wine -3.442287 1.402479 2.520556 -0.783773 -1.102328 -0.528353 -1.247976 1.314301 0.826817 -1.879938 2.923694 -1.377561 1.779856 2.631517 -1.797373 -0.290364 1.348 2.150681 -3.753591 -1.140029 0.403812 -0.317939 1.397549 -0.679284 -4.024158 0.36721 0.277154 1.175241 -1.887052 -0.98656 -1.311459 1.653461 -2.845651 1.230119 -3.825043 1.356649 1.905118 -0.392962 -0.965046 -1.628175 -1.240769 -0.703261 -0.00537 2.497861 3.711178 3.056963 1.04293 0.428173 -1.106664 3.443947 4.45977 0.361323 -0.439823 -1.450971 0.958991 1.668731 -0.838644 -0.656995 -0.787193 0.275601 -2.267043 0.436103 0.376442 3.406295 0.032026 0.090843 -2.02687 -0.669415 4.438634 1.996749 0.355529 -0.874545 2.377462 -0.85783 -0.610878 -1.2936 1.716703 -1.108425 -1.815532 1.613707 -1.512838 2.275133 2.677668 -0.577931 2.949786 1.425361 -0.385307 2.121071 -2.182846 -1.651901 1.668725 -1.956897 -0.468867 -1.150102 -1.188356 -1.128008 3.040538 -1.081166 -2.304143 -0.228677 3.156711 -0.703757 1.02447 0.536475 1.077451 -1.331654 0.157523 -2.272357 3.221703 -2.920949 1.052223 -1.250769 0.329822 1.014729 -4.488404 2.443659 -0.397103 1.368577 -0.699711 -4.875223 1.447726 -1.336098 -0.005071 2.517772 0.851554 -1.595533 -3.004652 -1.335883 -0.039041 0.37513 -1.011861 -2.611649 -0.880302 1.207867 -1.210446 0.440582 -0.589542 1.628085 0.729277 -0.332643 3.445975 1.139488 -0.752851 1.101416 -0.184669 -2.158957 -1.016015 -3.681508 -2.660286 1.582626 0.059908 0.902511 0.011085 1.003305 5.307798 -0.617067 2.840517 -2.179076 -2.202812 0.46673 -0.210694 0.769078 0.202337 0.390227 -4.202459 1.52404 -2.953334 -0.580808 -0.033024 -0.061802 -1.487332 1.935695 -0.093834 2.26707 0.728451 -4.915255 -0.312397 -0.73235 0.728434 -1.568879 -0.035083 0.557948 0.495022 -3.513911 0.503955 0.833804 -2.590485 0.477959 1.972942 -2.411599 -1.238888 1.197258 0.592626 2.989738 0.330356 -1.699061 -3.127217 -0.873654 -3.221154 0.748116 -0.861873 -1.100878 1.361752 3.09661 -2.133013 0.139739 -1.880304 1.707604 4.491114 -0.595559 -0.454432 -1.186415 -4.046669 0.321259 1.3154 2.417024 -0.814383 4.939259 -2.565062 -0.971082 0.727373 0.370737 1.891654 0.826844 -2.263365 1.623606 -0.459908 -0.311345 -1.423915 -0.99189 -0.952268 -1.675054 1.474828 -1.53428 -2.174024 0.402653 -1.40421 -0.400263 -2.102954 -1.41599 2.593208 2.067275 1.88224 -0.8932 0.770998 1.953527 -2.244127 1.154101 -2.964842 -0.561013
object 0.832693 0.77336 -0.183666 1.47263 -2.66379 -1.645715 -2.481694 0.464032 0.986447 -0.556873 2.253208 0.768616 -0.240257 -1.453261 0.327403 -0.769635 0.661362 -0.436584 1.761559 1.638772 -0.928034 -1.809157 -0.96844 0.944315 0.67705 -0.907862 -0.276318 1.386485 -0.995793 -0.664887 -2.884251 -1.751752 -0.708238 -0.160186 1.608798 -1.526787 0.603852 -1.360286 0.168744 -0.719622 4.125384 2.403481 -1.644023 -1.299122 0.930349 0.431705 2.309172 0.716824 -0.2025 0.939982 0.727964 0.65465 1.871985 0.511279 0.607144 0.28619 0.993789 2.246026 1.302335 1.310937 0.46174 1.391363 2.231848 -0.704364 0.022002 0.413847 -0.923341 -0.015084 -1.327238 0.197426 0.495421 -1.222036 0.86568 -0.110166 2.46799 -2.091625 0.671928 0.169188 2.077545 0.99302 -0.684462 -0.001926 0.931599 0.042456 1.54982 0.978437 -2.161679 1.772915 2.174579 -2.748278 -1.466444 -1.497835 -0.944336 -6.156644 -4.340612 1.233223 -0.73002 -0.365463 -1.201293 -1.177967 -0.982881 -0.870716 -0.072254 -2.010157 1.264275 0.770322 0.452289 2.897788 -1.219406 -2.740748 0.181769 -2.095544 0.458304 0.54534 -0.896862 0.257965 0.359995 -1.958051 -1.390815 -1.659142 1.774457 -0.158491 -1.373371 0.917197 2.810071 -2.506135 -0.837103 -1.734607 -0.8193 1.889699 1.267061 0.515012 1.486343 1.753773 1.638006 0.59019 1.364808 2.50576 1.328736 0.229788 2.680772 1.173066 -1.323948 -0.233967 -0.416869 2.641868 -0.82351 0.651799 0.515567 -0.707897 1.5697 1.223297 0.98067 -1.483839 0.040887 0.996872 -0.228764 -0.176391 -1.056844 0.800162 -0.377323 0.53685 0.110044 1.550062 -0.354698 1.517913 -2.216638 0.989319 2.406159 0.16199 -3.143915 2.894481 2.005115 -1.495649 1.046279 -1.759717 0.605758 -1.009789 -0.745186 1.117068 -2.593622 0.81768 1.902787 -1.720198 1.137691 -0.662822 -0.836642 0.166884 -2.864527 -2.106211 -1.630811 0.864731 -1.368481 -0.277937 -1.780864 -0.214594 2.475254 -0.970476 -0.200782 2.110262 -0.835581 -2.306665 -1.423346 -0.230679 2.64222 2.341973 1.23725 1.198256 -0.387036 0.298675 0.808504 0.112604 0.581615 -1.731583 0.473636 -1.735691 -3.306316 -0.529757 -0.43647 -0.306076 -0.626875 0.233212 -1.447052 -2.421798 -0.127059 0.279025 -1.51655 -1.746651 3.387113 0.852663 1.333709 -1.484786 -0.166975 0.022107 -0.701587 -0.663852 2.254883 -0.088407 3.935072 -0.587988 2.284445 0.351313 -1.699834 1.495785 -1.167584 0.533739 -1.248854 0.956423 0.425889 1.382247
attitude -3.860857 -1.098346 0.801198 -0.928306 -1.80903 -4.008544 1.46027 1.272331 3.99168 -0.325741 1.686004 -0.150971 0.877333 -0.127377 -1.188184 -2.130353 0.097373 1.931053 -0.129906 -1.739875 0.823003 0.112412 -1.570125 -3.297319 1.280917 -0.011007 -1.847842 0.891652 1.044081 -3.724287 0.184765 -2.935143 0.543273 -0.993102 1.986559 -0.780986 1.776415 -1.974808 1.007248 -2.168551 -0.607871 -1.448698 1.785233 -0.14915 -1.379369 -2.819352 -1.431718 2.209558 -1.70739 1.731424 0.322284 1.289614 -1.399986 -2.438281 0.933349 0.531435 2.307411 0.770521 0.696208 1.359264 1.48928 2.687588 -1.893445 -0.281514 -1.248099 -2.826537 -1.435017 -0.728257 0.058389 0.141875 0.63138 -0.796885 -0.139099 -1.975942 -1.388605 0.304914 0.98333 2.656893 -1.281621 0.237702 -0.973638 3.486804 -1.693892 1.374481 1.967577 -1.407071 0.621638 0.009308 4.443841 -1.554392 -1.76692 -1.108481 0.215465 -2.586101 -1.135986 -1.15716 -1.573684 -1.575994 2.55263 -0.543263 -0.789532 -2.42285 1.077535 -1.591724 -0.920156 -1.156801 0.73314 -0.666275 -2.462569 -2.243347 2.796656 -1.815401 0.561586 -4.573113 1.188494 -0.953018 -0.951886 -2.846746 -1.828629 1.286721 -0.743571 4.388946 -1.197094 -0.460426 1.288034 -1.076466 -0.456702 -3.068258 -3.080831 2.728063 1.943053 -1.030164 3.206056 1.358502 -0.138924 1.552434 0.475233 1.960123 3.573448 0.287456 -0.896255 -1.350805 -0.881354 0.695048 -0.076962 -1.422248 -1.004629 0.89084 -0.84109 -0.29024 1.013379 0.704887 0.028581 0.751732 0.434329 1.221878 0.518407 -1.372652 -2.537358 -2.43251 -0.555819 1.801188 0.722276 -0.986748 1.059775 0.435573 0.94063 2.560848 -1.704611 2.653288 1.698943 1.068628 0.471747 -1.396592 0.018997 -2.196187 0.68516 -0.165551 -0.242847 -0.798065 -2.304047 2.442691 -0.419072 -0.854242 -1.123583 -0.244728 0.925372 3.640011 -0.466326 2.563479 0.913315 -1.466263 0.118752 0.837344 1.065633 0.216824 1.859131 -3.585037 -0.83341 0.880079 1.279173 -5.622255 0.139072 0.09637 2.459937 -1.342625 2.218837 0.861064 -0.920898 -4.226015 -0.979519 -0.64316 1.588054 -2.111275 1.229415 -2.139783 -1.581839 -0.479202 -5.242204 0.683295 -0.409218 0.718214 0.339277 -0.974467 -1.069391 2.918929 -0.728982 -2.416411 5.515113 0.620202 3.296208 0.430647 3.375652 -1.626045 0.343342 -0.606575 2.805196 0.552867 0.3433 -1.163041 -0.302076 -2.763335 0.301158 0.791058 1.807308 -0.107607 -3.878093 -0.218982 4.097716 -1.874931
treatment -0.193778 1.482081 0.203 -3.912522 -0.095306 0.170925 -0.159725 -3.231341 -0.660239 1.95085 0.709442 0.751373 -3.402087 -0.430496 2.492982 -1.473386 0.42405 0.520733 2.103032 -2.56626 1.181286 1.885439 -2.439211 -2.475477 -0.419514 -1.35118 -0.826802 0.773759 -1.762875 1.751324 -0.785927 -0.1242 -3.148289 -0.866212 -0.032652 -0.321376 -3.192127 -0.526347 2.855318 -0.869498 1.139549 1.556569 3.571078 0.08804 0.83544 3.805807 0.389789 -1.580845 -2.941315 3.857453 -0.64714 -0.459318 0.32858 0.145929 -1.472044 1.308875 -0.162195 1.548361 -0.631394 -4.860863 0.770902 1.229438 -1.145135 0.690889 4.68602 0.874883 -3.131887 -0.514834 1.391209 2.286329 0.292253 -1.269703 2.402506 3.858045 -5.091883 0.406652 0.37992 1.35657 -0.05598 -2.730171 -3.720102 0.5719 1.860191 -1.826872 -1.266147 -0.385257 -1.01659 0.645245 1.185569 -3.921518 -0.990196 -1.229722 2.500515 -0.360431 2.460451 1.793746 0.117875 -2.762362 -2.672203 0.541989 -0.794242 0.716066 -1.853314 -2.406756 -2.114144 2.844795 1.17836 0.621666 0.787205 -2.261032 0.816952 -0.641599 1.115897 -3.688683 -0.489417 2.317949 1.642278 -0.025094 -0.968486 1.719735 -2.929596 -0.485963 -0.171807 -0.573149 -1.034615 -1.587367 -1.289967 -0.398891 -1.252974 -1.673406 0.508506 -2.190327 4.379661 -1.766507 4.250374 -3.897536 -0.389692 3.631861 3.638107 -2.345714 -2.355014 -2.971654 -3.018801 -2.324017 0.98417 -0.047784 -2.294357 -0.885538 -1.004739 -0.558528 -0.602372 -3.392822 -1.89773 1.363935 1.650479 -0.078453 -3.172586 2.109656 2.642336 -1.663274 3.066305 0.796937 -2.464568 -2.212145 1.146081 -3.982748 -2.195183 -3.401574 -2.163527 0.122057 1.550876 -3.150481 -0.968812 0.101663 0.668631 -0.37979 3.584544 2.47005 -0.364313 0.159097 0.354545 0.932119 -4.316751 0.751751 1.55053 2.302418 -2.228393 2.179811 -0.554109 -0.424927 1.39551 -0.277874 -0.566456 -3.10112 3.298596 0.585626 3.660023 0.231029 2.073292 -0.938259 -0.170603 -1.405164 3.311813 1.100294 2.333189 -1.640988 0.547979 1.775985 -1.860546 0.710726 -1.382051 1.449942 3.776583 0.482425 6.535659 1.799273 -1.872057 0.750146 -7.168229 -3.836297 0.918796 -1.055077 0.539534 3.77947 -0.59807 -0.589131 -0.845252 -0.673613 -0.038985 -1.643277 1.170713 3.397037 0.055673 0.525081 -1.663453 -1.157486 -1.383263 -1.969861 0.510826 -1.139736 -0.7679 -0.302565 2.137002 -1.352908 1.438574 0.450741 1.065867 5.253858 -0.143616 -0.222914
flight -2.425567 -3.272759 -1.795743 -0.934118 0.725197 -2.786502 -1.478189 -4.371744 0.052658 0.891669 4.630049 -0.503093 -0.256342 -1.219738 0.121094 1.443872 -0.019869 -2.697676 0.017397 1.900768 -1.572335 -2.242233 1.566689 -1.24446 1.761977 0.905941 -4.946542 3.006256 -0.811728 2.76077 -2.168846 1.222199 -1.382961 3.255661 -0.719827 0.328197 1.592098 -2.522521 -0.536281 0.438433 2.509501 6.653696 -0.80678 1.840594 -1.350574 3.044877 -0.474916 0.142897 -1.965676 1.245293 2.517478 3.292273 2.626204 0.381032 -1.529183 -1.576742 -1.21151 0.087718 1.416313 0.264323 0.725745 1.017675 0.568386 -4.300168 1.814976 -3.919226 -1.466065 -2.789789 2.712001 -0.157901 -1.012596 1.38834 0.797116 2.06991 -1.214432 0.668677 -0.383262 -1.572066 -1.174586 2.524428 2.335259 0.289378 0.918113 4.300071 6.607349 -3.204471 1.625466 0.776893 -1.746003 -2.73362 -2.15362 -1.855288 0.270883 -2.819757 -1.193806 -0.623111 -0.560445 0.371937 -0.75544 2.196056 -3.289116 -0.356722 -0.757008 -1.476773 1.055801 2.361471 1.658895 -3.150011 -1.153475 1.285098 2.18715 1.386822 3.061589 -1.487295 -2.643512 3.093974 -0.148404 0.922992 -3.343103 1.361182 2.555812 -0.898569 1.923753 -1.323381 1.469499 -1.786037 0.378434 -3.565578 0.996204 -2.119051 -0.040769 5.321451 1.505658 -2.821704 1.830605 1.423708 0.028197 2.86E-4 -1.356824 -0.275414 2.399331 -1.750555 0.711462 -0.360743 -3.464478 1.785803 -2.134549 -2.431273 1.661478 -5.867051 -3.594749 0.203434 -1.035165 2.54626 -0.404261 1.102606 0.828898 2.852564 1.646823 -2.358374 3.835481 -0.441515 2.643375 0.947194 1.142145 -2.339482 -1.084882 -3.942584 -2.351789 0.211828 -1.053719 -2.279304 4.053961 0.894369 1.010068 0.300705 0.939538 -1.227774 -0.555888 -0.269359 -3.359796 -1.392276 0.684116 -2.962435 2.645217 -4.43196 -2.455314 -0.582956 2.282766 -4.000822 1.572981 0.909168 0.281326 0.802695 0.66835 -0.208798 0.721488 -3.357885 0.452975 -0.256175 -4.201095 1.938531 1.211215 2.844536 -1.077203 1.256899 -2.8475 2.615985 -2.421286 1.654516 -0.471757 0.681556 2.827684 -1.286387 2.687118 1.462701 1.405133 2.021594 -0.290198 4.5683 0.748504 -1.463836 -1.227758 1.343973 -2.650464 -0.279707 0.439358 -0.984913 0.404378 -2.022031 0.209355 1.425971 4.384463 -4.167587 -0.626955 -3.907758 0.673004 1.549979 -1.299865 2.980643 -1.759465 1.299595 -2.247102 2.91644 -2.131855 -0.982483 -0.384183 -1.642965 0.403699 -1.323086
forest -0.527555 1.744942 2.020965 -3.716959 1.426355 1.262604 -2.987233 1.281425 1.050357 0.296649 -0.446024 -0.227121 4.78151 2.038234 0.541772 0.624296 -0.309171 0.776461 0.96437 -1.235819 0.047711 -2.505458 1.364109 0.443076 0.350735 -0.279744 -5.400935 1.436906 1.187931 -3.151447 -0.637072 1.088969 1.679852 1.673122 0.179846 -0.367452 1.628896 -1.367516 -2.128538 -3.783437 -0.167633 2.853242 0.103284 0.385673 0.976169 -0.710196 4.283705 0.903047 2.970463 0.298537 0.711159 -1.283872 4.249337 -0.454209 -0.365581 0.336761 -2.569798 -1.40655 0.79882 -2.577864 -0.854193 0.353968 -2.330699 0.258298 4.665617 1.341382 0.782356 -0.955124 -2.783707 1.960129 -4.844474 1.048477 2.568445 2.08059 2.448649 -0.699649 0.557696 -0.193356 -0.907287 1.009111 0.065742 1.065356 1.395099 0.489279 -1.361423 0.176456 -1.287616 4.241481 -2.353114 -0.899723 1.254209 3.540407 0.257865 -0.526665 -1.052362 -0.4485 -0.676885 -1.158721 -0.892067 1.209981 0.346647 0.377904 1.010165 -2.971593 0.290967 0.421527 0.443628 2.032982 -0.81295 -0.064144 -1.106698 0.126128 -0.65957 0.776295 -0.175511 -3.543665 0.878869 -0.477896 1.863966 0.241417 2.203284 -3.092248 1.018207 -0.685107 0.892485 -2.251822 0.067485 -3.35993 -1.304182 3.014451 -0.5503 0.973265 1.67931 -0.244773 -2.0756 -2.528538 2.847271 1.276066 -0.078722 0.055827 2.424685 2.070386 0.730771 2.175468 0.495711 -2.101735 -0.159975 1.283727 -1.000844 0.793956 0.478367 -1.097809 0.190959 0.244678 -0.763361 3.24482 1.185152 -1.241751 -2.309559 -1.31299 1.174189 0.337794 -0.349571 2.018219 -2.906465 -2.774572 -5.371812 2.370552 0.992308 -0.099554 1.401827 -1.552567 -3.638543 3.831807 0.146809 -0.910463 -1.643113 -1.345431 0.478933 -0.352362 1.158569 -0.314416 -1.637471 -1.215115 0.67258 -0.675974 -2.525048 0.810465 0.033346 -3.493716 -1.715971 1.225102 -2.239227 -0.973542 -0.22421 1.039264 0.242766 -1.548246 -1.790329 0.884192 -0.68049 -0.399458 0.070421 0.458775 3.395263 -0.290123 -0.206741 2.153018 0.854192 1.120734 -2.302891 0.351533 0.209067 0.586124 -1.384576 2.408899 2.213412 2.008878 -3.140644 1.023596 -2.43022 -1.453941 -3.228325 -1.129621 1.991122 -0.579356 -0.733853 -1.176273 2.232944 -1.742039 0.413109 -0.210528 1.769956 1.081324 1.37354 -0.263502 -1.233344 0.627951 1.629884 0.227013 0.921685 -1.008352 -0.955701 0.400615 -0.497821 -1.083814 2.453942 -0.799978 -1.460893 -1.718797
abuse 1.758967 0.224511 0.398264 3.901805 -0.283914 -0.79721 -1.226344 0.520231 -0.051784 -3.909813 0.339193 -0.253286 -1.534651 0.649712 1.877476 3.268809 1.252818 -1.402889 1.091359 -3.867067 2.302655 -0.547999 -1.948791 -0.774428 0.710622 0.761601 0.54904 2.069645 1.44054 1.721812 2.850109 2.215756 -1.100898 1.187015 1.04206 -4.600833 -3.568353 -2.496269 -2.335307 -4.276717 1.19362 -1.43297 -0.389968 -1.106145 -0.532569 0.768771 -0.826908 -1.086115 -1.219228 -2.10917 -2.738155 0.266801 -3.221201 -2.131784 -3.290694 0.926126 -1.542584 0.255323 -4.608744 -2.363369 -0.684943 0.987423 4.179739 -6.25E-4 0.641405 0.75778 -2.942693 -4.86931 -0.383827 0.06686 2.346891 0.537391 1.410767 1.577591 -1.846556 -1.773562 2.918953 3.511604 0.892683 -0.598219 -3.214743 2.416979 -1.184399 -0.525651 2.997251 1.390817 -1.041856 -0.747944 1.915825 -0.884068 -1.981182 3.622336 -0.670702 -1.674063 3.497321 1.985612 -2.115799 0.399085 1.611246 -0.836918 -0.326822 -0.561712 1.084988 -6.410666 -3.147853 -0.206248 -0.219529 0.416735 -4.235792 -0.225238 0.045793 -4.231878 1.81959 -0.633622 -0.44177 4.035045 1.615917 -0.234054 0.341011 1.378544 -0.946762 1.69506 -2.462324 0.727687 2.912055 -2.087521 -3.603812 1.026714 -2.424511 2.777322 -0.404945 -0.922934 3.88233 -0.05215 4.331467 0.542297 -2.354406 -0.729257 -1.922692 -1.161579 -2.499048 -2.936766 -0.360518 -3.924347 0.325046 -1.928966 -0.235983 0.579108 3.084597 0.856804 0.714793 1.735976 1.191667 0.777045 1.388363 -0.013332 -5.551423 1.406994 2.678079 1.878422 -0.950823 0.259576 2.167911 -0.783301 0.779296 -3.602238 0.75545 -1.455986 0.863048 -2.935972 -0.736031 -0.706967 -3.156075 1.068842 -3.768325 1.038601 -2.799202 1.993127 0.069512 -5.625823 -0.797929 0.157112 -0.083253 3.431814 -1.447747 5.940347 -0.146178 -0.945473 -1.423088 -3.096184 3.597573 1.244065 -2.000958 -1.064311 -1.038832 0.753905 2.35544 0.40246 -2.835184 0.355006 -3.242328 -3.192546 2.666009 2.663765 3.115333 -3.062065 0.588638 3.154524 0.405358 0.641522 -3.081071 0.029138 1.519049 -2.682008 0.459908 -0.967043 -4.161805 -2.268054 -1.903156 -4.896654 0.44585 1.312967 -1.411096 1.225878 -1.010602 2.60206 -1.388467 0.591883 -0.593473 1.91663 0.328992 -0.906459 2.717637 1.028023 1.565845 2.799657 1.327599 1.439316 -1.674101 1.266428 -0.377943 4.327782 -0.994088 -4.59311 -0.6824 -0.730927 -0.705505 3.037721 0.171118 0.936403
criterion -3.197407 -0.446603 0.385155 0.504203 0.888099 -0.545042 0.008211 -1.415945 -0.371757 -1.520279 -0.216685 1.342364 -0.259911 0.453178 -0.229044 -2.42248 -0.079934 2.29683 2.034781 -1.329042 -1.156691 0.73256 -0.38839 0.459771 -1.049301 -0.254986 1.285614 -0.994357 0.114873 -0.879319 -1.196287 1.733144 -0.240183 -1.188587 0.52727 1.598008 -0.108704 3.078912 0.755423 0.343794 1.816786 -0.317253 2.263414 -1.990452 -0.610639 2.716976 1.158185 0.34471 -0.190651 0.898053 -0.616556 1.554256 0.575903 1.395196 1.492732 -1.801724 0.987257 0.092825 1.107597 -1.171108 -2.041629 -0.227677 -0.906985 0.595949 0.291705 -0.255312 -0.934801 0.867152 -0.266448 1.810554 0.827664 -1.60854 1.477986 0.182754 1.852826 0.111081 -1.60847 -0.326226 -0.824218 -0.996856 -1.293427 1.195887 -0.657826 -0.098624 2.206688 0.550643 -0.514986 0.263254 1.210044 -0.005981 -1.161628 -1.095958 0.76397 -1.266702 0.183953 -1.913503 0.460485 -1.318677 0.265724 0.625277 0.806439 -0.2363 0.496912 -0.287292 0.060912 -0.933464 -0.201437 -1.301126 1.242097 -0.549423 0.319715 -0.533379 -0.299191 0.167464 1.53494 0.623108 2.410073 0.195726 0.104154 -0.108113 0.35553 0.939091 0.229038 1.347929 -0.580421 -0.373984 0.108186 -0.158519 1.009753 0.104307 1.181681 1.189399 -0.80752 1.144509 0.588633 0.082043 1.781747 0.154772 0.85401 -1.950745 0.813139 2.476515 -0.964887 1.958453 1.47838 -0.385667 -0.400726 -0.600886 -0.531511 0.027247 1.913402 0.123509 -0.471687 -1.625275 1.857438 0.475597 -0.357722 0.318007 -0.684139 0.986708 -1.015756 1.393493 0.062854 -0.600976 1.063097 0.754081 0.879762 0.777597 1.973625 -0.849939 0.531824 -0.444063 -0.198873 0.490416 0.242061 1.388785 2.297345 0.004713 0.041409 1.857687 1.386716 -1.679188 -0.60447 1.221517 -0.017592 -2.39059 2.057643 -0.2284 -1.431334 1.088289 -0.183359 2.035456 1.066677 -1.196199 0.060448 -1.853375 -0.883214 0.677335 1.358526 0.506066 1.134737 0.276858 0.159215 -1.624416 0.040466 -0.581438 0.628899 -1.409427 0.537705 1.171217 -1.462872 0.380566 0.756279 0.854074 0.97653 1.035889 -0.654762 -0.713515 -1.486948 -1.032516 0.112982 -1.923193 0.791801 -0.528672 -1.143687 1.216433 -0.041056 -1.544049 1.913842 1.14957 2.550468 1.502602 -1.259067 0.309193 0.13806 -1.025441 1.18634 1.914498 -0.318358 0.839527 -0.509017 1.369697 -2.239864 1.029929 -0.315033 0.304487 0.474215 0.793626 1.032965 2.244385
sea -0.417443 1.71558 -0.385468 -1.830998 0.150787 -1.352428 -2.468715 0.45753 0.2672 1.207953 0.358734 -0.832227 3.619059 2.386397 -2.415594 -2.217687 -1.158618 1.436563 -1.182754 -1.286946 -3.258706 -0.162494 1.312627 -1.261429 -0.774786 -0.689478 -0.379561 4.185654 -0.028895 -0.416383 -1.778033 5.030416 0.152781 0.256797 2.245979 0.744272 -0.6883 -2.664107 -1.74569 -3.027506 -1.192881 4.030253 0.125732 3.405407 -0.084837 -0.161266 3.130148 -3.017135 -2.132838 -0.933689 -0.070295 0.471228 1.052668 -3.19866 2.295534 2.69266 -4.173195 -1.088721 -0.822818 -3.656685 -1.05197 -0.472124 -1.108485 0.724982 3.444654 -0.021465 -2.79509 -0.679404 1.943291 1.528796 -5.999737 1.606287 2.179849 -0.037687 3.852311 3.151295 1.906379 0.18746 0.558783 2.968693 1.291116 0.660287 0.423157 0.173012 0.465216 1.537042 -3.028197 4.037839 -0.170747 0.677207 -0.320491 1.446974 -0.963187 -2.142055 0.384933 -0.069237 1.139329 -2.016383 -2.242978 -0.174238 -1.716782 -0.631361 -2.028526 -1.403369 -0.844712 1.323478 0.695316 3.750842 -2.967801 1.213526 1.380669 -2.633142 -2.39373 -0.242838 1.761377 -1.644922 -1.617579 -0.443263 0.515069 -1.18741 2.477917 -1.454366 0.487994 -0.598631 0.545067 -0.819239 -3.031116 -1.229 -2.305276 0.628532 -3.151505 1.532192 -1.689526 -2.535351 0.007793 -1.446758 -1.131504 -1.51126 0.444732 0.66427 4.335086 -1.050981 2.246501 0.500528 -0.236074 -0.402123 0.065911 2.357513 -1.342209 -0.894331 1.520682 1.114162 -0.199413 -0.534364 -1.320924 2.364951 1.088836 -1.541744 -1.963909 2.07675 1.387972 -2.24174 2.649202 2.645201 -1.469996 -0.356301 -3.406796 0.783181 -0.26143 -0.45304 -4.781719 0.223849 -2.027171 -2.372507 3.662998 0.684112 -1.029866 -1.868317 -1.719248 -0.111129 0.48685 1.191796 -0.966202 0.750407 2.914752 -3.588481 -0.872863 0.194675 2.652567 0.136266 0.220736 1.414814 0.259269 2.123957 -0.305051 1.918812 -0.345976 -2.058786 -3.898536 0.160475 0.035819 -2.263245 -1.568419 1.640765 0.560535 -0.068027 0.612532 3.676932 -1.580105 -0.457671 -0.812651 -0.036275 1.439062 -2.520523 1.04392 -0.112474 1.470803 1.818006 -2.325541 1.9107 -2.051131 0.066691 -2.8626 -1.654794 2.620089 1.506086 3.331965 0.284177 -1.251524 -0.883618 4.709537 -2.437867 2.268118 1.317724 1.919799 0.619607 -1.338498 0.675723 -1.351164 2.141265 1.427195 -1.72462 1.210238 1.815299 -1.349261 -3.352431 2.280214 1.596399 -3.338103 -3.145791
dollar 1.597058 0.194063 1.182305 -0.850356 0.989952 -1.167043 1.858567 -0.582329 -1.011296 1.090604 2.97462 -0.166013 1.595042 -3.416337 -1.312682 -2.052993 0.341146 0.274574 2.84967 -4.258677 -3.038053 -0.808685 1.987026 -2.681851 -1.064313 -3.090564 4.200997 3.591797 5.072299 -0.385637 -7.781715 -1.165278 -1.58347 -1.905674 0.239491 -2.020041 3.093159 -4.889595 -1.886962 1.808278 4.226086 -1.631443 -1.848542 -4.657771 -3.125896 -0.547716 -2.603423 2.352555 -0.263697 -3.825058 2.150973 -1.103728 -2.597773 1.976106 -1.18077 1.278336 -5.569457 0.358289 2.442245 0.802626 0.689614 -2.999045 3.561595 2.501151 1.468439 -1.592958 -0.785818 0.878284 -0.400254 1.647336 -0.458199 2.867146 4.98434 0.640756 -0.681905 -1.972103 3.707896 -1.124541 2.002006 0.942391 -1.330681 -0.847255 1.716201 -3.434824 -0.519164 -0.710565 0.246547 0.390296 -1.235694 -0.381633 5.453238 4.582043 -0.350905 0.302344 0.367414 -2.167169 0.192165 -3.448923 -5.837554 -0.049049 1.630859 -0.496452 1.456233 -1.052263 2.37521 -1.387893 4.464076 3.242335 2.622936 -3.008805 4.900842 -1.756439 4.053514 0.966056 -0.253563 0.582013 -3.180188 -0.075035 -1.925637 2.014254 3.779506 -0.884464 -1.090745 -0.417823 -1.23479 1.464342 0.627937 -4.5728 -1.249788 -5.237232 -0.328983 -0.823984 -0.734648 -1.368043 2.050061 2.073803 0.395593 -0.40021 1.972647 3.82035 0.831083 -3.190123 2.603611 0.755872 -2.477115 -3.675534 3.123815 -0.757848 -1.775531 4.210526 0.404342 2.29493 -2.068092 -4.031826 2.366588 0.781704 0.596424 1.501534 0.476936 -0.995003 -1.331578 3.485845 0.936686 1.01351 4.384202 4.00772 0.690087 -0.579565 -0.380134 -3.740061 -1.70358 -0.625846 -5.032318 -2.402297 -1.966722 -2.938359 -0.81129 -0.03626 -0.159827 -0.723042 2.193134 1.974567 -5.831235 -1.561447 4.046314 -0.440233 -0.851827 -1.941691 1.493657 0.616592 -0.951568 1.535516 1.79 8.244718 0.975116 -1.745147 -0.404925 -3.029039 -2.644812 1.124731 0.535505 -0.854288 -2.759154 -3.560619 4.797493 3.098343 3.008996 -0.768033 0.479321 -0.021628 -1.657418 -1.82352 -2.042519 -1.685329 -0.423762 3.879316 3.590375 1.743727 -0.753131 0.999954 1.65168 1.012947 0.209104 -0.2222 -1.992341 -0.480682 0.093735 -0.149924 0.006959 -2.720065 0.637143 3.547128 2.867921 1.413391 -0.938536 -1.948357 2.556751 -6.607528 1.680654 -2.255637 -1.527476 2.890336 -1.368172 1.549169 1.003989 -2.001071 4.113372 -3.057762 2.273925 -3.816092
example -3.53976 -0.175862 0.684542 0.356293 0.909658 -0.243779 -1.876463 -1.136285 3.469184 -2.452419 3.887451 0.22571 1.741442 0.446778 -1.311464 -1.051544 0.737125 1.775559 1.213686 0.648793 0.457359 1.68662 -1.31962 -2.554349 -2.383533 1.220469 2.249311 3.87055 -0.364335 -0.851496 -1.346293 -0.476947 2.139078 -0.935835 4.095582 -0.510738 1.352195 1.050447 -0.835382 0.986597 0.11265 0.182222 2.933003 -0.984838 1.921981 0.722719 -0.754485 -1.597969 1.45177 1.693293 0.287566 0.573616 1.573624 1.328389 1.868658 2.909877 2.485014 2.470407 -1.554678 -1.238894 -1.288049 0.728971 -2.420313 -1.623693 1.196121 -1.056857 -0.591029 2.117895 -0.957728 1.260585 -2.021549 -2.304948 3.776836 1.192135 0.830741 -1.701762 -2.198243 -0.54914 -0.673099 0.480481 -2.06423 0.985255 -0.505882 -1.326553 1.074274 -0.668792 -2.036863 0.133181 -2.444698 -1.033563 -2.387721 0.002751 -1.313645 -4.002942 1.285332 -0.605129 -1.308867 -1.112587 2.220271 -1.423437 -0.442548 -0.973566 -2.492418 0.815561 0.146627 1.086716 0.712802 -0.453968 -1.47516 -2.446437 0.444919 -0.434994 0.833721 3.49889 -4.706753 1.402342 0.034743 1.026282 -0.919145 1.977447 0.780891 -2.962148 0.020857 2.205383 -3.494158 3.610815 -0.449194 -0.210563 3.751214 -4.245268 0.866495 -2.039947 3.681614 1.00682 0.949584 0.688891 5.268212 3.895473 1.69387 -1.897087 0.250543 2.836965 -0.106133 1.610351 -0.769268 -0.331845 -2.441907 -1.11429 -1.68086 1.797096 1.142783 2.369862 -1.986713 1.647506 1.391726 -1.274169 1.161938 -1.697477 -0.410607 -0.387037 1.001575 1.513014 -1.488413 -1.152697 1.865346 -1.299592 -6.208962 -1.158164 2.210455 2.44945 -0.242056 -0.614231 1.705337 -0.315508 -3.374571 -0.774616 1.249449 -0.901845 0.555022 -0.880458 -1.765405 -0.5879 -1.549251 2.168263 0.306887 0.758433 0.299856 0.238831 -1.423574 -2.910337 -1.082123 0.655027 -2.271115 -1.163081 1.923119 -0.456121 -0.489421 -0.957307 1.41201 -0.297226 0.004755 -3.046868 -1.702875 -2.726211 3.280476 1.00602 -1.757337 -1.545419 2.357875 -1.576144 0.34762 0.791235 2.672717 -0.488466 0.235009 -0.731859 0.818445 1.781949 -3.505899 -2.860715 2.327663 0.799978 1.227993 -0.168674 -1.491874 3.629986 0.704698 -2.865349 4.922949 1.482646 -0.061359 -0.070745 1.050833 -1.795924 0.894429 -1.556901 0.908188 -0.059847 0.89701 -2.51792 3.11351 0.981844 -1.761823 -0.553589 -0.790785 0.832562 1.268203 4.09088 1.444113 -1.051412
journal -1.027701 1.075361 0.417374 -3.127508 0.955444 0.269861 0.878735 2.069663 -2.023993 -1.280745 -2.550928 -4.822897 -0.674362 1.082203 0.772563 -1.202744 -1.801513 -0.439199 -3.004564 -0.546473 0.037167 -4.792672 -2.495452 3.636028 2.004565 -0.756479 -0.718043 4.292958 -3.146889 0.013601 -2.404241 2.551465 0.863126 0.448273 -3.603595 -1.101358 -0.192105 -1.140762 1.25498 -0.37493 2.835339 -0.960062 0.311927 2.60837 3.441148 -3.614084 -1.252345 -3.055238 -2.641823 -0.898985 -3.683395 -0.992923 0.624086 -0.03704 1.232291 -0.504462 1.242711 2.261692 1.910899 0.254827 -1.734906 0.211613 -2.391997 -0.954093 0.427967 2.164487 -1.104634 2.477833 1.950924 1.42659 -4.796592 -2.039216 -3.038548 0.175274 1.337268 -1.090986 3.309528 -4.485605 0.413818 -2.540739 -1.285924 2.85959 0.341652 -3.477008 -0.431659 -0.47792 1.443056 -0.095729 0.2606 -0.14359 -0.834684 1.233255 0.252867 -2.375781 0.409532 2.53954 -3.869013 -2.424919 -2.118095 -3.072575 -0.125044 -0.660378 0.714945 0.885188 2.489446 -0.52241 4.837542 0.705211 2.647574 1.973731 2.134622 -0.962689 -0.364296 -3.596267 1.812289 -1.880159 -2.068695 -4.005972 -4.560375 -0.175512 -3.948461 -2.031941 -4.541399 -0.516408 0.769079 1.55566 3.347468 1.872996 -5.82825 -3.335422 -0.015885 0.152699 2.132794 -2.106084 0.809607 2.067693 -0.846729 -0.236361 6.195478 -5.234115 -0.462208 0.729246 1.552946 -3.427406 -1.549855 1.512982 -3.885672 -2.484202 -3.468806 3.147568 -2.804342 -1.101614 1.012778 -0.638968 -1.685721 0.025255 -1.247646 1.802395 1.712633 -0.064713 -3.888506 -0.072302 1.933091 -0.909354 -0.903301 -4.191157 -1.899662 0.759004 -0.442957 1.406644 5.22886 1.868522 0.39637 -0.975212 -0.541541 0.542724 1.086931 4.207479 -1.472145 -3.202806 -2.190168 -0.103106 -0.741417 3.57721 0.416582 3.569011 -6.407475 0.896966 2.265948 0.496521 -1.229562 2.85944 -0.675241 -0.178849 -0.995759 -3.54571 3.879996 0.213988 -1.382515 2.815928 -1.405716 1.257211 -4.785305 -1.044735 0.134087 -5.672575 0.713495 0.318422 -1.742152 -0.811626 1.119514 -2.017181 0.754441 3.274975 -2.794325 -0.516355 -0.046475 -0.67419 1.448869 -3.071962 3.110743 1.102737 -2.355962 -2.559717 -2.436659 0.498795 4.491742 -0.580864 3.24344 0.944567 -1.315882 1.044151 1.481802 1.959193 -0.465313 1.593218 -2.067863 4.798416 1.564744 -0.251235 0.375562 -0.077306 -0.568957 3.021483 -5.47941 0.187194 -3.192162 -0.443015 1.506518 0.697743
laundering -0.863715 -0.094697 0.810493 3.741488 -1.183688 1.795822 -3.104437 -0.32363 2.415318 -1.897353 -0.680966 0.852735 -1.716966 -0.582934 3.167748 -0.930911 -0.367438 -1.659837 -1.058747 -3.092948 3.895241 -2.406621 0.442621 -1.236053 -1.496715 3.029047 -4.015972 4.082014 2.809747 2.658339 3.588066 2.230484 0.056654 0.697843 -2.188075 -3.100975 2.383629 -2.282003 -0.140325 4.517497 5.491187 -0.805603 -1.049126 -1.87604 -1.694964 -2.515097 0.760862 -0.586101 2.523344 -7.964279 -2.809502 -4.539802 -1.733785 -1.237873 2.709602 0.264533 3.764706 0.460945 -5.420669 0.734489 -3.515231 0.48876 1.280982 0.051383 -2.569924 -0.876199 -1.140409 -3.832573 1.627197 -1.483943 3.791625 1.551528 4.037991 1.101489 -2.732382 0.768888 1.213009 -1.678554 0.055405 0.60889 0.368545 -1.167618 -1.659288 1.695592 -2.662175 -0.855893 0.511676 0.209587 4.724098 1.668828 -1.355268 1.078281 -2.957564 -1.203355 0.826706 -1.255568 -0.364376 -0.668587 -1.787222 1.382645 2.230426 -0.930787 0.514665 -0.242671 -0.621362 -3.450682 0.022546 -3.356116 -2.712178 1.700473 -2.161097 1.334708 4.391951 3.149425 0.301791 2.258414 1.108836 -2.098032 1.44022 -2.260766 1.670988 0.239817 -0.468125 -1.385751 1.86362 -1.405311 0.504948 0.712372 -0.157069 0.402957 4.520607 2.060387 -2.983241 -0.679154 3.36445 -0.460971 -7.160692 -2.318735 -2.176844 -0.214946 -2.538933 -1.744732 -1.033813 1.28734 1.503154 -0.340084 -3.275969 0.462976 -3.773996 -0.263539 -1.193976 2.467285 1.402167 -3.764958 0.4836 -0.91837 -1.637102 0.574719 -0.595677 0.608022 -2.812075 2.374069 -2.077189 0.613449 -1.705031 0.896884 -0.605499 -1.842 1.730989 0.142933 -1.485115 -0.152559 -0.795767 0.500094 1.19232 -2.184618 -0.419683 2.741701 -0.450592 -0.382392 -3.98717 -3.563356 -1.67054 -0.013805 0.00987 5.385818 -2.079662 0.765425 3.100548 -5.79E-4 5.107873 -3.311982 -3.448542 -1.350615 1.573352 0.971178 -2.720661 1.781564 2.944646 -4.209245 -0.349461 0.761479 -2.554262 3.037142 1.993517 -4.649674 -2.788649 -4.886742 -4.79953 1.320997 -2.393316 0.876417 -1.402416 -0.769359 3.590153 4.433729 1.043251 2.900115 1.192833 -0.029203 1.200234 2.534103 2.480668 0.574423 -0.951651 -0.695142 -1.553192 4.408102 0.085738 0.419493 1.356535 1.453498 0.393849 0.826156 1.247679 -0.972938 5.791946 1.003542 -2.536708 4.211386 2.366176 1.767076 -1.311161 0.397222 -0.059026 0.830861 3.550633 -0.323827 -0.055258 1.809114
hotel -1.166013 2.04457 2.084818 -3.555717 1.604171 -1.176658 -0.009199 -2.08957 1.99532 1.09579 2.989362 1.030493 -0.704744 2.031792 2.896861 0.061648 -1.521504 1.681726 -1.809101 1.565072 -0.718857 -3.912861 3.101638 1.031446 -2.927637 -1.187623 -2.832467 3.306142 -1.936156 4.030731 -0.513524 3.586478 -2.097733 1.290092 -0.611941 2.219787 2.555739 -2.908528 0.59852 -1.552227 -1.378565 2.089738 1.710637 2.281771 0.082207 -3.439539 -0.369368 -1.169956 -2.472356 0.313251 2.600861 0.092625 3.044088 -0.415887 -1.015582 0.880082 2.621513 0.386153 -0.96446 0.51658 -0.308191 -1.503662 -0.244314 0.512642 -0.747876 -2.557824 -1.007781 -0.560316 3.219808 -1.344211 -0.564666 -0.539258 -0.208102 0.366546 -2.553153 3.15667 2.214074 1.288126 -1.623764 1.188488 0.510766 -1.140325 1.583009 1.721074 2.426786 1.029869 -0.662939 -0.145692 -0.714161 -1.808498 -0.403003 -2.349811 -0.118005 -1.644985 -1.188689 0.307536 0.671394 -0.160991 -0.123662 -0.21296 -2.678076 2.528517 1.901809 -3.608577 3.348721 -0.192158 -0.511348 3.563323 0.532289 -1.654357 1.885181 -0.714341 -2.664929 -2.67627 -3.505871 -1.677504 2.404475 -0.270986 -1.31039 0.493668 4.153141 -4.822602 2.157451 -0.274514 -0.186722 -0.959083 3.115214 -2.798098 -0.754284 -0.095652 -3.53089 1.038758 0.735224 0.915399 -3.021087 -1.294972 -0.153918 -0.730769 0.691644 2.879611 0.399552 -1.16005 1.678685 1.866517 1.237073 -0.212961 1.093569 1.525416 -1.723067 -2.904081 0.588563 3.092561 3.572658 -0.393308 3.007105 0.993242 0.33344 0.606157 -1.560762 -0.708286 6.301385 0.383501 0.769576 -0.728743 -3.746946 -1.880376 -4.460992 -0.984763 -2.391176 -0.759701 1.106793 0.525098 -0.509254 -2.152707 -2.616833 -4.305342 1.601821 1.553542 -0.053678 0.152246 -1.417492 0.589934 -2.316731 -0.077919 2.370423 0.28208 0.77913 -2.177863 3.970303 -2.119619 3.076141 -1.474515 1.825096 0.274968 0.238151 -1.479049 -0.821917 1.345129 1.039427 0.237037 0.466923 2.998235 -1.98563 1.314757 -0.86917 1.625297 -2.241059 -0.224088 0.721384 0.440419 0.757294 1.383593 -2.65736 -5.077935 -0.741675 0.07079 0.763685 1.297754 -0.03423 2.255476 0.342679 -2.563464 2.138962 0.126845 -0.454713 2.298415 -2.638663 -0.213627 -1.656967 1.303947 1.005451 -1.408524 -0.041821 -4.735626 -1.309536 -2.413436 -0.282246 -2.157586 -0.976857 2.040063 -0.465218 -0.11787 0.7947 0.53784 -3.002626 -0.225427 -2.490519 -1.783799 0.851668 -0.305628
term 2.009404 0.900103 -1.733358 0.092531 2.593366 -4.669987 0.27027 -0.44892 4.552971 0.165857 -0.003959 2.551155 3.325684 0.489926 -0.12733 -1.757469 -1.456611 -1.243748 4.894913 -0.713664 0.686328 2.849428 -3.502554 1.171407 0.089081 0.360259 -2.662812 -0.56257 4.298181 -3.520206 -3.274702 -0.992608 2.070046 1.387598 -0.987509 -4.206269 0.128951 0.586847 4.93197 0.601121 2.193271 1.239277 3.620566 -3.121078 -0.819179 2.203815 -1.274958 -0.545355 -1.748119 -0.73681 0.264946 3.34034 -1.304364 -0.457311 4.152479 -1.180506 -1.063708 0.653008 -2.398193 -0.203796 -1.758896 1.875409 0.667136 1.249692 3.063751 -1.678993 -5.463873 4.343472 -3.653968 3.610138 -2.974829 -1.031439 -1.006773 -3.356482 0.602439 2.513108 -1.248429 -4.010874 -2.604523 3.288501 0.320267 -1.287748 2.72607 -4.342516 -0.181475 2.972141 1.913023 -0.382617 3.418862 2.434561 -0.192816 -2.70178 0.293273 -3.491884 -0.089952 -1.233426 -1.55588 -1.582216 -1.358938 0.988811 1.601757 0.128717 -4.771814 -1.574206 0.975164 5.692802 -0.759625 1.628188 0.338802 0.050836 3.3717 -3.548881 5.955493 -1.409036 -1.790325 -1.717119 2.085535 -1.688379 -0.075353 2.32561 0.402814 4.72626 -0.701546 -3.2317 -0.098792 1.300936 -0.399042 -1.964994 0.629376 -0.501213 0.832397 -0.785888 -1.813605 -1.955699 2.120282 -2.253401 -0.147788 5.174156 5.211649 -0.325811 -4.215932 0.734873 -1.434533 6.609021 4.470547 -0.526234 -0.682195 -1.234744 2.139487 0.618244 -5.531154 -0.161283 -2.916192 2.216334 1.593843 1.665065 -2.204918 -4.247024 2.503431 2.36593 -1.349843 1.14937 -2.516723 -0.318541 0.383061 4.553346 0.789417 -4.768018 -0.552338 -1.296616 2.281298 -2.023463 0.458353 -1.206919 0.377859 -1.843242 3.90991 1.283557 -0.541039 -1.635998 4.42895 -0.869294 -0.781818 -1.05366 -1.50601 -3.4033 -3.751638 1.141837 -3.816613 0.630594 1.150104 2.935686 1.032636 -4.95385 1.127646 -4.232102 1.316195 -4.386495 0.321744 -4.377646 -2.40131 1.482204 -3.653237 -0.911765 2.185698 -0.538975 -3.082937 -0.573122 1.252925 2.008991 -0.182409 3.060384 -2.33219 1.90954 1.332167 -0.998244 -3.826869 -0.660856 -1.940886 3.531041 -0.223659 -1.8558 2.770078 7.177678 -3.876837 -0.24322 -0.207201 0.697049 -0.576236 -2.271319 -2.070832 4.455506 -0.938717 2.437316 -0.740712 -1.316872 -0.3538 -0.680522 -2.575584 2.574842 -2.436754 3.349397 -1.419635 -0.31935 -0.548446 -2.104392 -1.248369 -1.112109 3.019142 -2.781228
listing -0.871936 -2.02355 1.399455 0.883714 -0.466203 -2.330634 -1.176264 -2.91607 0.038772 -1.253749 2.681627 -0.975984 -0.569454 1.400384 2.330314 -0.334284 -0.448586 -0.4301 -0.346534 -3.004972 1.442734 -1.137667 2.962844 -1.120129 -1.88838 -1.789878 -3.093176 0.814974 -2.32467 -2.589969 0.906209 2.085659 -1.245248 -0.258228 2.009738 0.29448 0.357171 -2.986309 -0.050959 -1.113523 2.65309 -0.854732 2.070718 0.824326 -1.347231 -0.64672 -1.009343 1.114061 0.617104 -0.059593 1.267941 -0.201035 1.544066 1.238703 -0.374095 -3.27651 0.420968 1.063296 1.021715 0.074554 0.453452 0.201025 -1.589284 1.278956 0.652761 1.213525 -2.758979 1.219442 2.406002 -0.051045 1.180862 -1.048702 0.143097 2.064679 -0.285425 -0.550055 -2.088985 0.595411 0.916206 -2.676155 -1.853317 0.253478 3.030152 -1.343393 -0.606103 1.770381 -1.258118 -0.937478 -0.019166 -0.651188 -1.431884 -1.843398 0.134148 -1.986786 1.087379 -0.036238 -0.556109 -2.116863 0.055052 -0.352213 -0.62846 -1.397934 0.967202 4.274629 2.854959 1.024225 2.13681 1.019074 0.55322 2.863338 0.587997 1.480976 3.152309 1.681264 0.016369 1.645842 1.497298 -1.609981 -1.403401 0.458563 0.590786 -3.174897 2.947266 2.163869 -0.01806 2.762959 -0.687651 -0.29961 0.013792 -0.635994 0.202 -0.134786 -1.731265 -1.8388 1.425657 -0.692608 -0.047226 0.457547 0.768919 1.040035 -0.843734 -0.178248 1.893865 1.025518 2.076205 0.448032 -1.154739 -2.254871 2.865111 -0.361279 0.707045 -1.657468 -1.72685 1.523806 1.385384 -2.199609 -0.125003 1.115713 0.918489 -0.033655 -1.957374 2.015736 0.918313 -0.384296 1.837769 -0.823928 -1.161551 -1.892375 -2.376299 -0.049894 -1.524208 1.721728 -0.592506 0.902094 -0.612751 -0.271956 -0.119978 0.937022 1.140566 0.37044 -1.036308 -2.595751 -2.974344 -0.218939 -1.474985 -1.478133 1.994436 0.367342 -0.196152 -1.010419 -1.167466 1.8628 0.436464 -0.758879 -0.436557 0.190171 1.284778 0.616349 -0.455421 -0.451511 -0.532588 1.904359 0.317283 -1.101643 0.961032 1.422389 -0.887365 -1.163138 0.873858 -1.388438 -1.685076 3.127466 -0.171376 1.300864 -1.43865 0.421641 1.61828 0.019328 0.466489 -0.153672 -0.266483 -3.199695 2.749713 1.777807 -0.199535 0.508542 -1.096421 0.794058 0.966841 0.097788 -0.708188 -0.128655 1.026038 -0.194545 -1.253136 -2.975841 0.451437 -0.004138 -0.495505 1.16074 -1.384685 0.315076 -2.200535 -0.913094 -0.678445 0.71716 1.847558 -0.544614 1.567437 -0.865292
chemistry -1.975537 2.423422 1.740023 -0.713377 -1.816097 -2.233452 -0.043583 -0.609092 -0.540982 -1.932075 -0.711735 1.102763 0.813672 1.691176 -0.269353 -2.900391 1.70088 0.589585 1.606101 -2.025542 -2.019068 0.287289 -0.991699 0.189418 0.735014 1.123533 0.066884 0.358387 -0.811752 0.368255 3.666907 -3.695771 -0.029618 -0.996597 -1.49677 1.972317 0.199705 1.696443 0.75144 0.529796 1.129999 -0.049105 -0.438432 0.596962 1.323916 -2.064174 0.472977 -1.962318 -0.810945 2.682231 -0.424331 1.391177 1.068361 -2.548199 0.006716 1.441973 -0.026156 1.698719 1.646689 -0.158436 -1.336714 0.292727 -0.741171 0.939586 1.444785 3.274399 -1.378441 -2.604067 0.511839 1.563556 -0.047765 -1.119482 1.661084 -3.883405 1.621355 0.920271 1.077157 -0.680696 -1.097383 -0.330072 -0.868491 0.48022 -0.837799 -0.952265 2.557557 -0.701457 1.609974 -0.102161 3.127027 0.824506 -1.211387 -0.793485 1.341258 -1.540935 -0.400478 -1.370244 -0.411118 1.311768 -2.554276 1.241364 0.188469 -1.330969 -0.184211 1.049213 -0.89403 1.99394 1.907843 0.215621 0.950225 -1.31444 -1.609479 0.589295 1.715334 -1.504969 -3.031889 1.761037 -0.154826 -0.475912 0.093437 -1.292311 -1.967771 2.053897 -2.245157 0.632975 0.883325 -1.406203 -2.585794 -1.09618 -0.260677 1.874285 -0.168997 -1.102327 1.946762 -1.830056 -2.571518 0.579195 1.408431 0.978803 2.200373 0.903907 0.846481 0.780327 1.727271 -1.183462 -1.360026 0.915223 -2.347401 0.026938 -1.534232 -0.632741 -1.017445 -1.852846 0.356833 1.073014 1.452019 1.524283 0.859124 1.490068 0.729122 -2.766166 -0.313459 -0.840274 0.025767 0.338081 -1.77145 -0.363867 -1.78539 -1.405383 0.981577 1.474361 0.639619 -0.568147 0.834846 -2.302459 0.204397 0.230825 -1.672167 0.835585 1.765313 0.48065 1.837135 -0.023181 0.292733 -0.412471 2.46582 -0.175861 -2.824994 2.60291 2.951468 0.861748 0.308404 0.099907 1.086354 1.358267 0.884201 -0.396996 1.463843 -0.774856 -0.131741 2.219542 1.724001 -3.084875 -0.989457 1.257516 0.008562 -1.042964 -1.186191 2.449992 0.098882 -0.426345 -1.674711 -2.746918 2.094569 -0.521378 -1.359083 -0.038837 1.501683 1.718393 -0.123184 -1.315808 -0.352609 -1.417021 -0.689882 -0.272209 -2.193161 0.085107 1.22276 -0.793089 2.372631 0.352385 1.02477 1.502949 1.068475 0.156031 -0.439033 0.860344 1.040832 1.285027 1.276687 0.295625 0.731825 -0.204827 -1.228241 0.366705 -0.844304 -1.545723 -1.435274 1.267257 -0.426138 1.701967
seafood -3.124241 0.450136 0.064864 -2.509461 -0.651761 -2.568859 -1.921051 1.147429 0.522121 -0.833523 1.983194 -0.603097 0.720044 1.412454 -2.947393 -1.076817 0.320075 2.858951 -1.777093 1.029696 -0.283424 -1.014357 1.376754 -2.167123 -2.729432 -1.266401 0.451324 2.626486 -1.903739 1.501466 -0.84871 1.811127 -1.752279 -0.858498 -0.914498 0.419696 2.730412 0.613337 -1.426399 -1.238478 -0.71838 1.888453 -0.309206 1.663622 0.556918 0.373676 1.162271 1.032938 -3.094942 1.718938 2.530964 0.784055 0.448709 -2.307848 2.204427 -0.476462 -0.168289 -0.716098 -0.257039 0.008328 -1.313961 -0.136451 0.521809 1.563817 2.484444 -1.09889 -2.55008 -0.42143 5.077666 0.737269 0.09655 -1.642805 1.230958 -0.92935 0.402881 0.406068 1.336337 -0.322312 -1.095704 1.30948 -0.071867 2.53638 1.427969 -1.28214 -0.024935 1.095152 -1.107106 1.654055 -1.126499 -0.407634 0.595772 0.564163 2.150122 -0.687249 -0.327082 -0.798584 0.607017 -0.793464 0.570545 0.762228 1.834237 -1.480011 0.044693 2.031521 -1.019367 -2.588639 0.080616 0.701239 -0.396531 -0.419126 -0.086409 -0.312169 -1.604912 -0.447048 -0.938595 0.817346 -0.505172 0.54027 -0.939626 -3.168909 2.131713 -0.555079 0.459715 1.390031 0.644425 -0.413823 -3.075833 0.22793 1.111909 0.129364 -1.026604 -2.432141 -0.498035 1.635028 0.476162 -2.071663 0.739202 0.00675 2.343258 0.459664 0.609828 -0.407553 2.99624 2.171096 -2.348213 -1.413634 -1.652308 -0.72438 -0.588013 -0.096011 2.061185 0.232544 0.126332 1.801273 0.971424 1.483115 1.168801 -0.868848 -0.319073 0.142332 -0.002355 -0.826566 0.793459 -2.500692 -2.393979 2.205861 1.115138 0.388852 -0.444965 1.156307 -1.90904 1.153304 -0.317551 2.728406 0.623293 -0.11786 0.444979 0.088698 -0.810779 -1.619779 0.655882 0.568194 -1.314423 -1.038564 0.059362 0.520354 -2.381552 0.879362 1.502726 -1.749693 -1.020596 -0.545303 0.255225 1.611681 1.29936 -1.68505 -4.243196 -1.016734 -2.238123 1.091577 -0.502908 -1.538929 -0.013192 3.637035 1.626481 -0.722903 -0.745956 -0.863538 1.112688 0.472714 -1.610147 1.30898 -2.476247 -0.318142 -0.345618 1.098015 3.545938 2.447852 -4.380015 -2.444046 1.131555 1.010838 1.630257 3.531008 -1.118077 2.100096 -0.428558 -0.789751 0.553945 -2.029051 0.837287 -2.208675 0.890505 0.023065 -0.819132 -0.273171 -2.074418 -2.616887 -1.04992 -0.013759 0.836659 0.368128 -0.394248 -0.945021 0.058194 0.273999 0.211392 -1.297109 -0.935113 -0.372953
CD 1.53635 0.937639 -1.715611 -1.213631 -0.824445 -1.491153 -1.218271 -0.418196 -0.044657 -2.267462 3.930739 -1.364332 -0.023505 -1.155662 0.074708 0.168596 -1.561424 -1.723557 -1.183566 -0.604297 -2.493038 0.892636 1.064169 -0.970941 -1.373261 -0.434753 -0.613743 2.938364 -0.594178 -0.684901 0.037357 -0.115951 -0.093362 3.686325 1.218372 1.866498 0.290905 0.334505 -0.952396 4.913088 2.124097 0.357771 1.52505 0.594987 0.095392 1.836177 -0.458007 -0.716551 3.390069 -2.774379 3.328033 0.617953 -0.104358 0.26698 0.887144 1.344831 0.548922 0.994595 3.003462 1.598117 2.305628 1.235267 -3.301909 1.457348 -1.072453 2.831627 0.423918 -0.121818 -0.153337 -0.050589 -1.519616 -2.677893 2.680243 1.867158 0.187361 -2.708742 -0.369515 1.762808 -1.115317 -3.337292 0.652152 1.43812 -0.324086 -1.869705 2.462501 -0.899939 0.580405 -0.696184 -1.643947 -0.727677 3.192659 -1.65714 0.767919 -2.731529 -0.846869 -0.638574 -0.316534 -1.400432 -0.296737 -1.076314 0.565664 -0.8033 -1.027686 1.81057 0.325791 1.614462 2.14842 -0.353826 3.08513 -1.446475 -1.812008 -1.11185 -1.866011 -0.070926 -1.680948 -0.244692 1.570578 -0.552131 0.243082 1.344682 2.473628 -1.998983 -0.772144 0.611355 2.525582 1.834686 -2.661727 -2.739769 -1.567466 -0.030797 1.637274 -0.728576 0.58844 -0.86353 -1.009493 -0.750125 -2.541194 -0.089075 2.047363 0.896092 -2.227159 0.276246 1.613213 0.75377 -3.261672 1.953235 -1.923993 -0.038304 -2.449315 -0.250222 -0.308928 0.166466 -2.036301 -3.7427 0.847938 0.077325 3.987096 -0.753458 -1.108162 0.723984 -2.855589 -1.572771 -0.923165 -2.554785 -1.371266 -0.703437 -2.031417 -0.11172 -4.510171 -2.667008 2.398016 1.71914 -1.077349 1.9183 -1.921705 -2.310788 0.01751 -0.416323 0.904235 1.386937 0.437626 -1.921783 0.52519 -0.889407 -2.701933 1.252011 -2.227356 -2.375605 -2.3372 -3.201131 2.358184 0.758838 -1.813197 -0.028344 -0.483528 -1.285903 -0.43128 -1.426148 -1.763026 1.433129 -2.055986 0.493638 -0.610647 -0.805306 -2.355484 -0.480758 0.190086 1.729478 1.151137 -3.824905 -1.44941 -1.35532 -1.479799 1.192834 -2.47508 -0.565336 -0.29207 1.937758 -0.79293 -1.059398 -0.810178 -0.035038 1.131128 -2.564238 -0.916801 0.227104 0.350346 -5.219088 -0.18114 -1.760308 0.227104 -0.037832 2.249147 0.099099 -4.399798 0.525626 0.587685 -2.134745 0.119231 -1.806613 -2.880237 1.535059 0.551147 1.001745 -0.164121 1.424658 0.063535 0.878276 0.787459 -2.83583
mind -1.817841 -0.340949 2.309676 0.882609 -2.659811 -1.474224 -1.182475 -0.158891 3.469091 0.47647 0.100535 0.40612 3.434112 -1.071952 -1.212685 -2.811813 0.765555 0.998157 0.524127 0.163059 0.323032 1.044248 2.205144 -2.916457 -0.962012 0.519368 -1.141105 -0.211041 -1.764295 -2.016979 -0.555352 -5.629928 1.504276 1.524145 0.050491 -1.098564 -1.873815 -1.773982 -0.10381 -0.095198 0.679022 1.536037 -1.537627 -0.170841 1.076769 -1.841158 0.881859 3.70136 -1.332801 1.678385 1.909059 5.188422 2.441238 -1.587983 3.706005 0.815107 0.991736 1.707502 2.172948 -1.448684 -0.085322 1.177724 -0.359965 1.63532 -5.0087 -1.813771 0.29608 -1.986447 -0.929403 0.324783 -2.515154 -1.650116 -1.715963 1.109311 0.804441 -0.548274 0.346509 -0.734248 -0.28085 -0.239849 -0.581495 1.671691 -1.971959 3.049918 1.895424 0.032341 -0.480964 1.199045 1.129864 -2.037618 2.141575 -0.90838 -1.342168 -3.050879 -1.57109 0.761913 -0.712774 0.139813 0.223922 0.23236 2.961813 -2.825593 2.450794 0.539214 1.381507 1.052251 -1.443458 1.8999 -2.377284 -2.43477 0.071543 0.577451 0.272197 -2.800737 -2.858465 -2.278481 -0.269321 -1.772344 -2.264566 3.454997 0.247039 0.613739 -0.357025 -0.735457 -2.429167 -1.977465 -1.05109 -3.619787 -3.229403 4.972504 2.703238 -3.285027 1.802786 -2.05649 -1.813579 -2.791517 0.200366 -0.004361 4.519491 1.956882 -2.069757 0.495708 -0.521774 -0.612137 1.346233 1.934395 -0.255387 0.375348 -0.229522 -0.099295 -0.696953 -2.722386 0.595157 -3.016862 1.868424 2.170572 1.093042 -0.511378 -2.500272 -1.180771 -1.398684 0.556554 2.696614 -1.147089 -0.362623 1.008267 0.1867 -1.832088 0.606711 1.938478 1.279259 0.338012 0.012451 -1.977367 0.181276 -1.699985 -0.633402 -0.310187 -0.604229 -0.766485 -3.355329 -1.11579 -1.973124 -1.261917 -2.360899 -1.350002 0.366805 1.499806 -0.838157 3.262627 -2.879436 1.528796 1.857299 -0.306631 2.971986 -2.200029 2.85888 -2.04652 1.160784 1.962431 -0.909069 -1.291151 -3.416585 -0.935149 -1.297499 -3.245941 2.170782 0.235618 -0.699253 -1.563785 -0.529179 -0.873482 2.385377 0.011402 0.200851 -0.78012 -1.279382 -0.476069 -1.689494 2.093893 -1.420258 0.152358 -1.177086 0.415021 -1.005603 0.231239 0.278972 -2.992631 3.98134 0.338446 1.430265 -3.673131 1.972054 0.534631 -1.973854 0.372962 0.373319 1.359773 1.082634 1.58996 1.452245 -2.700315 0.941294 1.005706 -1.23837 2.932972 -3.239242 -0.972249 2.200221 -1.802205
