437 833
plane 0.0018081875 0.0 0.0014567802 0.0013636363 0.0014825797 0.0 6.5606035E-4 0.0 0.0 0.00138913 0.0 0.0013708019 0.0 0.0 0.0 0.0 0.0 0.0 0.0 0.0 0.0012112648 0.0 0.0 0.0 0.0 0.0 0.0025367835 0.0 0.0012262416 0.0 0.0013689254 0.0 0.002542219 0.0 0.0013712719 0.0 0.0 0.0 0.0 0.0013679891 0.0 0.0 0.0 0.0019633507 0.0 5.2465894E-4 0.0 0.0 0.0 0.0 0.0 0.0 0.0 0.0014044944 0.0 0.0014005603 0.0 0.0 0.0 0.0 0.0 0.0020682523 0.0 0.0 0.0 0.0 0.0 0.01754386 0.0063897762 0.0 0.0 0.0 0.0 0.0 0.0 0.0 0.0013888889 0.0 0.0 0.0 0.0 0.0 0.0 0.0 0.003921569 0.0011792453 0.0 0.0 0.0 0.007792208 0.015151516 0.0 0.0 0.0013489209 0.0054347827 0.0 0.0 0.0 0.0034904014 0.001545595 0.0 0.0 0.0 0.0 0.0 0.0 0.0 0.0 0.0 6.385696E-4 0.005882353 0.0020408162 0.0 0.0 0.0 0.0 0.0 0.0 0.0049751243 0.032786883 0.0 0.0 0.0 0.0 0.0 0.0 0.0 0.018018018 0.0 0.0 0.0 0.0 0.0 0.0 0.0 0.0 0.0042735045 0.0 0.0 0.0 0.014084507 0.0029498525 0.0029985008 0.0 0.0 0.0 0.0 0.0 0.0 0.0 0.0044444446 0.0 0.0 0.01754386 0.0 0.0 0.0033557047 0.0 0.0 0.0 0.0 0.0 0.0 0.0 0.0 0.0 0.0 0.0 0.0 0.0060728746 0.0 0.0 0.0 0.0 0.0 0.0 0.0010060362 0.0 0.0 0.0 0.0 0.0 0.0 0.0 0.0029069767 0.0 0.0 0.0 0.0 0.0 0.0 0.0 9.0171327E-4 0.0 0.0 0.0 0.0 0.0 0.0 0.0 0.0 0.008230452 0.0021413276 0.0 0.0 0.0 0.0 0.0 0.0014044944 0.0 0.0 0.0 0.0 0.009615385 0.0 0.0 0.0 0.0 0.0 0.006756757 0.0 0.0 0.0 0.05882353 0.0 0.014925373 0.0 0.015151516 0.0 0.0 0.0 0.0 0.0 0.002 0.0 0.0 0.0 0.006024096 0.0 0.0 0.0 0.0 0.0 0.0 0.0 0.0 0.0 0.0 0.0 0.0 0.0 0.0 0.0 0.0 0.0 0.0 0.0 0.0 0.0 0.016393442 0.011764706 0.0 0.0 0.0 0.0 0.0 0.0 0.0 0.0 0.0 0.0 0.0 0.0 0.0 0.0 0.0 0.0 0.0 0.0 0.0 0.0 0.0 0.0 0.0 0.0 0.0 0.0 0.0 0.0 0.0 0.018181818 0.0 0.0 0.0 0.015151516 0.0 0.011235955 0.0 0.0 0.0 0.0 0.0 0.0 0.0 0.018518519 0.0 0.0 0.0 0.0 0.0 0.0 0.0 0.0 0.0 0.0 0.0057142857 0.0 0.0047393367 0.0 0.0 0.0 0.019417476 0.0 0.0 0.013157895 0.0 0.0 0.0 0.0 0.007633588 0.0 0.0 0.0 0.0 0.0 0.0 0.0 0.0 0.0 0.0 0.0 0.0 0.0 0.0 0.0 0.0 0.0 0.0 0.0 0.0 0.0 0.0 0.0 0.0 0.0 0.01754386 0.0 0.0 0.0 0.0 0.0 0.0 0.007194245 0.0 0.0 0.0 0.0 0.0 0.0 0.0 0.0 0.02 0.017857144 0.0 0.0 0.0 0.0 0.0 0.0 0.010416667 0.0 0.0 0.0 0.0 0.0 0.0 0.0 0.0 0.0 0.0 0.0 0.0 0.0 0.0 0.0 0.0 0.0 0.0 0.0 0.0 0.0 0.0 0.0 0.0 0.0 0.0 0.0 0.0 0.0 0.015625 0.0 0.0 0.0 0.013513514 0.0 0.0 0.0 0.011904762 0.0 0.0 0.0 0.0 0.0 0.0 0.0 0.0 0.0 0.0 0.0 0.0 0.0 0.0 0.0 0.0 0.0 0.0 0.0 0.011363637 0.0 0.0 0.0 0.0 0.0 0.0 0.0 0.0 0.0 0.0 0.0 0.020408163 0.0 0.0 0.0 0.0 0.0 0.0 0.0 0.0 0.0 0.0 0.012820513 0.0 0.0 0.0 0.0 0.0 0.0 0.0 0.0 0.0 0.0 0.0 0.0 0.0 0.0 0.0 0.0 0.01754386 0.0 0.0 0.0 0.0 0.0 0.0 0.0 0.0 0.0 0.0 0.0 0.0 0.0 0.0 0.0 0.0 0.0 0.0 0.0 0.0 0.0 0.0 0.0 0.0 0.0 0.0 0.015151516 0.0 0.0 0.0 0.0 0.0 0.04255319 0.0 0.0 0.0 0.0 0.0 0.0 0.0 0.0 0.0 0.0 0.0 0.007874016 0.0 0.0 1.1428572 0.0 0.0 0.0 0.05 0.0 0.0 0.0 0.0 0.0 0.0 0.0 0.0 0.0 0.0 0.0 0.0 0.0 0.0 0.0 0.0 0.0 0.0 0.0 0.0 0.0 0.0 0.0 0.0 0.0 0.0 0.0 0.0 0.0 0.0 0.0 0.0 0.0 0.0 0.0 0.0 0.0 0.03448276 0.0 0.0 0.0 0.02 0.0 0.0 0.0 0.0 0.0 0.0 0.0 0.0 0.0 0.0 0.0 0.0 0.0 0.0 0.0 0.0 0.0 0.0 0.011764706 0.0 0.0 0.0 0.0 0.0 0.0 0.0 0.0 0.0 0.0 0.0 0.0 0.0 0.0 0.0 0.0 0.0 0.0 0.0 0.0 0.0 0.0 0.0 0.0 0.11764706 0.0 0.0 0.0 0.0 0.016393442 0.0 0.0 0.0 0.0 0.0 0.0 0.0 0.0 0.0 0.0 0.0 0.0 0.0 0.02631579 0.0 0.14285715 0.0 0.0 0.0 0.0 0.0 0.0 0.019607844 0.0 0.039215688 0.0 0.0 0.0 0.0 0.0 0.0 0.0 0.0 0.0 0.0 0.0 0.0 0.0 0.0 0.071428575 0.0 0.0 0.0 0.0 0.0 0.0 0.0 0.0 0.0 0.0 0.0 0.0 0.0 0.0 0.0 0.0 0.0 0.0 0.0 0.0 0.0 0.0 0.0 0.0 0.0 0.0 0.0 0.0 0.0 0.0 0.0 0.0 0.0 0.0 0.0 0.0 0.0 0.0 0.0 0.0 0.083333336 0.0 0.0 0.0 0.0 0.0 0.0 0.0 0.0 0.0 0.0 0.0 0.0 0.0 0.0 0.0 0.0 0.0 0.0 0.0 0.0 0.0 0.0 0.0 0.0 0.0 0.0 0.0 0.0 0.0 0.0 0.0 0.0 0.0 0.0 0.0 0.0 0.0 0.0 0.0 0.0 0.0 0.0 0.0 0.0 0.0 0.0 0.0 0.0 0.0 0.0 0.0 0.0 0.0 0.0 0.0 0.0 0.0 0.0 0.0 0.0 0.0 0.0 0.0 0.0 0.0 0.0 0.0 0.0 0.0 0.0 0.0 0.0 0.0 0.0 0.0 0.0 0.0 0.0 0.0 0.0 0.0 0.0 0.0 0.0 0.0 0.0 0.0 0.0 0.0 0.0 0.0 0.0 0.0 0.0 0.0 0.0 0.0 0.0 0.0 0.0 0.0 0.0 0.0 0.0 0.0 0.0 0.0 0.0 0.0 0.0 0.0 0.0 0.0 0.0 0.0 0.0 0.0 0.0 0.0 0.0 0.0 0.0 0.0 0.0 0.0 0.0 0.0 0.0 0.0 0.0 0.0
stupid 2.169825E-4 0.0 6.145792E-4 9.090909E-4 0.0011119348 0.013157895 6.5606035E-4 0.0 0.0 6.94565E-4 0.0 5.140507E-4 0.0 0.0 0.0 0.0 0.0 0.0 0.0013888889 0.0 4.037549E-4 0.0 0.0 0.0 0.0 0.0 5.0735666E-4 0.0 8.174944E-4 0.0 6.844627E-4 0.0 5.447612E-4 0.0 0.0020569079 0.0 0.0 0.0 0.003267974 0.0013679891 0.0 0.0 0.0 6.5445027E-4 0.0 0.0010493179 0.0 0.0 0.0 0.009259259 0.002617801 0.0 0.0 0.0014044944 0.0 0.0014005603 0.0 0.0 0.0 0.0 0.0 0.0 0.0 0.0 0.0 0.0 0.0 0.0 0.0 0.0 0.0 0.0 0.0 0.0 0.0 0.008333334 6.9444446E-4 0.0 0.0 0.0 0.0 9.6618355E-4 0.0 0.0 0.0 0.0023584906 0.0026041667 0.0 0.0 0.0 0.0 0.0 0.0 0.0 0.0054347827 0.0 0.0 0.0 0.0 0.00309119 0.0 0.0 0.0 0.0 0.0 9.1911765E-4 0.0 0.0 0.0 6.385696E-4 0.0 0.0 0.0 0.0 0.0 0.0 0.0 0.0 0.0 0.0 0.0 0.0 0.0038022813 0.0 0.0 0.0 0.0 0.009009009 0.0 0.0 0.0 0.0 0.0 0.0 0.0 0.0088495575 0.0042735045 0.0 0.0 0.0 0.0 0.0029498525 0.0 0.004608295 0.0 0.0 0.0 0.0 0.0 0.018072288 0.0 0.0 0.0 0.0 0.0 0.0 0.0033557047 0.0 0.0 0.0 0.0 0.0 0.0 0.0 0.0 0.0 0.0 0.0 0.0 0.0 0.0 0.0 0.0 0.0 0.0 0.0 0.0010060362 0.0 0.0 0.014492754 0.0 0.0 0.0 0.0 0.0 0.0 0.0 0.0 0.0 0.008658009 0.0029325513 0.0 0.0 0.0 0.0 0.0 0.0 0.0 0.0 0.0 0.0 0.0 0.0021413276 0.0 0.0 0.0 0.0 0.0 0.0014044944 0.0 0.0 0.0 7.770008E-4 0.0 0.0 0.0 0.0 0.0 0.0 0.0 0.0 0.0 0.0 0.0 0.0015037594 0.0 0.0 0.0 0.0 0.0 0.0 0.0 0.0 0.0 0.0 0.0 0.0 0.006024096 0.0 0.0 0.0 0.0 0.0 0.0 0.02 0.0033783785 0.0 0.0 0.0 0.0 0.0 0.0 0.0 0.009345794 0.0 0.0 0.0 0.0 0.0 0.0 0.0 0.0 0.0 0.0 0.0 0.0 0.0 0.0 0.0 0.0 0.0 0.0 0.0 0.0 0.0 0.0 0.0 0.0 0.0 0.0 0.0 0.0 0.0 0.0 0.0 0.0 0.0 0.0 0.0 0.0 0.0 0.0 0.0 0.0 0.0 0.0 0.0 0.0 0.0 0.0 0.0 0.0 0.0 0.0 0.0 0.0 0.0 0.0 0.0 0.0 0.01754386 1.0 0.0 0.0 0.0 0.0 0.0 0.0 0.0 0.0 0.0 0.0 0.0 0.0 0.0 0.0 0.0 0.0 0.0 0.007633588 0.0 0.0 0.0 0.0 0.0 0.0 0.0 0.0 0.0 0.0 0.0 0.0 0.0 0.0 0.0 0.0 0.0 0.0 0.0 0.0 0.0 0.0 0.0 0.0 0.0 0.0 0.0 0.0 0.0 0.0 0.0 0.0 0.007194245 0.0 0.0 0.0 0.0 0.0 0.0 0.0 0.0 0.0 0.0 0.0 0.0 0.0 0.0 0.0 0.0 0.0 0.0 0.0 0.0 0.0 0.0 0.0 0.0 0.0 0.0 0.0 0.0 0.0 0.0 0.0 0.0 0.0 0.0 0.0 0.0 0.0 0.019607844 0.0 0.0 0.0 0.0 0.0 0.0 0.016393442 0.0 0.0 0.0 0.0 0.0 0.013513514 0.0 0.0 0.0 0.0 0.0 0.0 0.0 0.0 0.0 0.0 0.0 0.0 0.0 0.0 0.0 0.0 0.0 0.0 0.0 0.0 0.0 0.0 0.0 0.0 0.0 0.0 0.0 0.0 0.0 0.0 0.0 0.0 0.0 0.0 0.01754386 0.0 0.0 0.0 0.0 0.0 0.0 0.0 0.0 0.0 0.0 0.0 0.0 0.0 0.0 0.0 0.0 0.0 0.0 0.0 0.0 0.0 0.0 0.0 0.0074074073 0.0 0.0 0.0 0.0 0.0 0.0 0.0 0.0 0.0 0.0 0.0 0.0 0.0 0.0 0.0 0.0 0.0 0.0 0.0 0.0 0.024390243 0.0 0.0 0.0 0.0 0.0 0.0 0.0 0.0 0.0 0.0 0.0 0.0 0.0 0.0 0.0 0.0 0.0 0.0 0.0 0.0 0.0 0.0 0.0 0.0 0.0 0.0 0.0 0.0 0.0 0.0 0.0 0.0 0.0 0.0 0.0 0.0 0.0 0.0 0.0 0.0 0.0 0.0 0.0 0.0 0.0 0.0 0.0 0.0 0.0 0.0 0.0 0.0 0.0 0.0 0.0 0.0 0.0 0.0 0.0 0.0 0.0 0.0 0.0 0.0 0.0 0.0 0.0 0.0 0.0 0.0 0.0 0.0 0.0 0.0 0.0 0.0 0.0 0.0 0.0 0.0 0.0 0.0 0.0 0.0 0.0 0.0 0.0 0.0 0.0 0.0 0.0 0.0 0.0 0.0 0.0 0.0 0.011764706 0.0 0.0 0.0 0.0 0.0 0.0 0.0 0.0 0.0 0.0 0.0 0.0 0.0 0.0 0.0 0.0 0.0 0.0 0.0 0.0 0.0 0.0 0.0 0.0 0.0 0.0 0.0 0.0 0.0 0.0 0.0 0.0 0.0 0.0 0.0 0.014285714 0.0 0.0 0.0 0.0 0.0 0.0 0.0 0.0 0.018518519 0.0 0.0 0.0 0.0 0.0 0.0 0.0 0.0 0.0 0.0 0.0 0.0 0.0 0.0 0.0 0.0 0.0 0.0 0.0 0.0 0.0 0.0 0.0 0.0 0.0 0.0 0.0 0.0 0.0 0.0 0.0 0.0 0.0 0.0 0.0 0.0 0.0 0.0 0.0 0.0 0.0 0.0 0.0 0.0 0.0 0.0 0.0 0.0 0.0 0.0 0.0 0.0 0.0 0.0 0.0 0.0 0.0 0.0 0.0 0.0 0.0 0.0 0.0 0.0 0.0 0.0 0.0 0.0 0.0 0.0 0.0 0.0 0.0 0.0 0.0 0.0 0.0 0.0 0.0 0.0 0.0 0.0 0.0 0.0 0.0 0.0 0.0 0.0 0.0 0.0 0.0 0.0 0.0 0.0 0.0 0.0 0.0 0.0 0.0 0.0 0.0 0.0 0.0 0.0 0.0 0.0 0.0 0.0 0.0 0.0 0.0 0.0 0.0 0.0 0.0 0.0 0.0 0.0 0.0 0.0 0.0 0.0 0.0 0.0 0.0 0.0 0.0 0.0 0.0 0.0 0.0 0.0 0.0 0.0 0.0 0.0 0.0 0.0 0.0 0.0 0.0 0.0 0.0 0.0 0.0 0.0 0.0 0.0 0.0 0.0 0.0 0.0 0.0 0.0 0.0 0.0 0.0 0.0 0.0 0.0 0.0 0.0 0.0 0.0 0.0 0.0 0.0 0.0 0.0 0.0 0.0 0.0 0.0 0.0 0.0 0.0 0.0 0.0 0.0 0.0 0.0 0.0 0.0 0.0 0.0 0.0 0.0 0.0 0.0 0.0 0.0 0.0 0.0 0.0 0.0 0.0 0.0
egg 4.33965E-4 0.0 6.259603E-4 9.090909E-4 7.4128987E-4 0.0 1.6401509E-4 0.0 0.0 0.0012154888 0.0 0.0 0.0 0.0 0.0 0.0 0.0 0.0 0.0 0.0 4.037549E-4 0.0 0.0 0.0 0.0 0.0 0.0 0.0 4.087472E-4 0.0 0.0 0.0 5.447612E-4 0.0 0.0 0.0 0.0 0.0 0.0 4.5599634E-4 0.0 0.0 0.0 6.5445027E-4 0.0 0.0010493179 0.0 0.0 0.0 0.0 0.0 0.0 0.0 0.0 0.0 0.0 0.0 0.0 0.0 0.0 0.0 0.0 0.0 0.0 0.0 0.0 0.0 0.0 0.0 0.0 0.0 0.0 0.0 0.0 0.0 0.0 0.0 0.0 0.0 0.0 0.0 0.0 0.0 0.0 0.0 0.0011792453 0.0052083335 0.0 0.0 0.0 0.0 0.0 0.0 0.0 0.0 0.0 0.0 0.0 0.0 0.0 0.0 0.0 0.0 0.0 0.0 9.1911765E-4 0.0 0.0 0.0 0.0 0.0 0.0 0.0 0.0 0.0 0.0 0.0 0.0 0.0 0.0 0.0 0.0 0.0 0.0 0.0 0.0 0.0 0.0 0.0 0.0 0.0 0.0 0.0 0.0 0.0 0.0 0.0 0.0 0.0 0.0 0.0 0.0 0.0 0.0015360983 0.0 0.0 0.0 0.0 0.0 0.0 0.0 0.0032786885 0.0 0.0 0.0 0.0 0.0 0.0 0.0 0.0 0.0 0.0 0.0 0.0 0.0 0.0 0.0 0.0 0.0 0.0 0.0 0.0 0.0 0.0 0.0 0.0 0.0 0.0 0.0 0.0 0.0 0.0 0.0 0.0 0.0 0.0 0.0 0.0 0.0 0.0 0.0 0.0 9.0171327E-4 0.0 0.0 0.0 0.0 0.0 0.0 0.0 0.0 0.0 0.0021413276 0.0 0.0 0.0 0.0 0.0 0.0 0.0 0.0 0.0 0.0 0.0032051282 0.0 0.0 0.0 0.0 0.0 0.0 0.0 0.0 0.0 0.0 0.0 0.0 0.0 0.0 0.01904762 0.0 0.0 0.0 0.0 0.0 0.0 0.0 0.0 0.006024096 0.0 0.0 0.0 0.0 0.0 0.0 0.0 0.0 0.0 0.0 0.0 0.0 0.0 0.0 0.0 0.0 0.0 0.0 0.0 0.0 0.0 0.0 0.0 0.0 0.005882353 0.0 0.0 0.0 0.0 0.0 0.0 0.0 0.0 0.0 0.0 0.0 0.0 0.0 0.0 0.0 0.0 0.0 0.0 0.0 0.0 0.0 0.0 0.0 0.0 0.0 0.0 0.0 0.0 0.0 0.0 0.0 0.0 0.0 0.0 0.0 0.0 0.0 0.0 0.0 0.0 0.0 0.0 0.0 0.0 0.0 0.0 0.0 0.0 0.0 0.0 0.0 0.0 0.0 0.0 0.0 0.0 0.0 0.0 0.0 0.0 0.0 0.0 0.0 0.0 0.0 0.0 0.0 0.0 0.0 0.0 0.0 0.0 0.0 0.0 0.0 0.0 0.0 0.0 0.0 0.0 0.0 0.0 0.0 0.0 0.0 0.0 0.0 0.0 0.0 0.0 0.0 0.0 0.0 0.0 0.0 0.0 0.0 0.0 0.0 0.0 0.0 0.0 0.0 0.0 0.0 0.0 0.0 0.0 0.0 0.0 0.0 0.0 0.0 0.0 0.0 0.0 0.0 0.0 0.0 0.0 0.0 0.0 0.0 0.0 0.0 0.0 0.0 0.0 0.0 0.0 0.0 0.0 0.0 0.0 0.0 0.0018115942 0.0 0.0 0.0 0.0 0.0 0.0 0.0 0.0 0.0 0.0 0.0 0.0 0.0 0.0 0.0 0.0 0.0 0.0 0.0 0.0 0.0 0.0 0.0 0.0 0.0 0.0 0.0 0.0 0.0 0.0 0.0 0.0 0.0 0.0 0.0 0.0 0.0 0.0 0.0 0.0 0.0 0.0 0.0 0.0 0.0 0.0 0.0 0.0 0.0 0.0 0.0 0.0 0.0 0.0 0.0 0.0 0.0 0.0 0.0 0.0 0.0 0.0 0.0 0.0 0.0 0.0 0.0 0.0 0.0 0.0 0.0 0.0 0.0 0.0 0.0 0.0 0.0 0.0 0.0 0.0 0.0 0.0 0.0 0.0 0.0 0.0 0.0 0.0 0.0 0.0 0.0 0.0 0.011627907 0.0 0.0 0.0 0.0 0.0 0.0 0.0 0.0 0.0 0.0 0.0 0.0 0.0 0.0 0.0 0.0 0.0 0.0 0.021276595 0.0 0.0 0.0 0.0 0.0 0.0 0.0 0.0 0.0 0.0 0.0 0.0 0.0 0.0 0.0 0.0 0.0 0.0 0.0 0.0 0.0 0.0 0.0 0.0 0.0 0.0 0.0 0.0 0.0 0.0 0.0 0.0 0.0 0.0 0.0 0.0 0.0 0.0 0.0 0.0 0.0 0.007142857 0.0 0.0 0.0 0.0 0.0 0.0 0.0 0.0 0.0 0.0 0.0 0.0 0.0 0.0 0.0 0.0 0.0 0.0 0.0 0.0 0.0 0.0 0.0 0.0 0.0 0.0 0.0 0.0 0.0 0.0 0.0 0.0 0.0 0.0 0.0 0.0 0.0 0.0 0.0 0.0 0.0 0.0 0.0 0.0 0.0 0.0 0.0 0.0 0.0 0.0 0.0 0.0 0.0 0.0 0.0 0.0 0.0 0.0 0.0 0.0 0.0 0.0 0.0 0.0 0.0 0.0 0.0 0.0 0.0 0.0 0.0 0.0 0.0 0.0 0.0 0.0 0.0 0.0 0.0 0.0 0.0 0.0 0.0 0.0 0.0 0.0 0.0 0.0 0.0 0.0 0.0 0.0 0.0 0.0 0.0 0.0 0.0 0.0 0.0 0.0 0.0 0.0 0.0 0.0 0.0 0.0 0.0 0.0 0.0 0.0 0.0 0.0 0.0 0.0 0.0 0.0 0.0 0.0 0.0 0.0 0.0 0.0 0.0 0.0 0.0 0.0 0.0 0.0 0.0 0.0 0.0 0.0 0.0 0.0 0.0 0.0 0.0 0.0 0.0 0.0 0.0 0.0 0.0 0.0 0.0 0.0 0.0 0.0 0.0 0.0 0.0 0.0 0.0 0.0 0.0 0.0 0.0 0.0 0.0 0.0 0.0 0.0 0.0 0.0 0.0 0.0 0.0 0.0 0.0 0.0 0.0 0.0 0.0 0.0 0.0 0.0 0.0 0.0 0.0 0.0 0.0 0.0 0.0 0.0 0.0 0.0 0.0 0.0 0.0 0.0 0.0 0.0 0.0 0.0 0.0 0.0 0.0 0.0 0.0 0.0 0.0 1.0 0.0 0.0 0.0 0.0 0.0 0.0 0.0 0.0 0.0 0.0 0.0 0.0 0.0 0.0 0.0 0.0 0.0 0.0 0.0 0.5 0.0 0.0 0.0 0.0 0.0 0.0 0.0 0.0 0.0 0.0 0.0 0.0 0.0 0.0 0.0 0.0 0.0 0.0 0.0 0.0 0.0 0.0 0.0 0.0 0.0 0.0 0.0 0.0 0.0 0.0 0.0 0.0 0.0 0.0 0.0 0.0 0.0 0.0 0.0 0.0 0.0 0.0 0.0 0.0 0.0 0.0 0.0 0.0 0.0 0.0 0.0 0.0 0.0 0.0 0.0 0.0 0.0 0.0
year 0.04158831 0.032786883 0.03778524 0.05 0.0363232 0.078947365 0.03641135 0.05882353 0.017123288 0.04297621 0.012987013 0.045407813 0.043290045 0.0397351 0.0 0.0 0.06666667 0.035928145 0.031944446 0.03508772 0.03330978 0.03448276 0.22950819 0.020044543 0.034412954 0.030303031 0.037544392 0.08791209 0.045370936 0.07058824 0.02258727 0.07954545 0.047212638 0.033333335 0.019540625 0.024390243 0.072463766 0.012531328 0.04901961 0.030551756 0.0 0.2125 0.031746034 0.04253927 0.0 0.023609653 0.031390134 0.06286837 0.0 0.009259259 0.018324608 0.010638298 0.046153847 0.042134833 0.036082473 0.043417368 0.09259259 0.0625 0.05654762 0.018867925 0.014705882 0.022750776 0.030303031 0.018072288 0.015151516 0.044444446 0.007633588 0.0 0.07348243 0.0 0.049723756 0.027906977 0.019607844 0.028846154 0.030534351 0.025 0.034722224 0.023809524 0.03539823 0.0 0.05263158 0.042512078 0.0875 0.056338027 0.02745098 0.036556605 0.015625 0.062111802 0.06315789 0.036363635 0.030303031 0.0 0.04016064 0.043165468 0.027173912 0.02310536 0.011494253 0.0 0.055846423 0.038639877 0.045454547 0.046728972 0.02259887 0.04477612 0.04825291 0.04779412 0.047945205 0.3022599 1.1382979 0.026819924 0.047058824 0.026530612 0.03125 0.012285012 0.050632913 0.03846154 0.03448276 0.069518715 0.029850746 0.032786883 0.024856597 0.038709678 0.041825093 0.0 0.04255319 0.026536312 0.015873017 0.027027028 0.15 0.036900368 0.05263158 0.0990099 0.050847456 0.0088495575 0.036303632 0.07079646 0.025641026 0.13636364 0.03263403 0.05263158 0.028169014 0.041297935 0.03598201 0.033794165 0.009803922 0.05 0.059880238 0.036585364 0.0 0.042168673 0.044444446 0.016393442 0.0 0.05263158 0.08737864 0.17621145 0.013422819 0.0 0.028947368 0.025 0.02631579 0.08235294 0.0053475937 0.030567685 0.06741573 0.011235955 0.016597511 0.0952381 0.18055555 0.046558704 0.15 0.045801528 0.027027028 0.046153847 0.04519774 0.016949153 0.05533199 0.032608695 0.25 0.072463766 0.1007371 0.06944445 0.022727273 0.04347826 0.023255814 0.014285714 0.028985508 0.04054054 0.0 0.04761905 0.011730205 0.053475935 0.054102797 0.09090909 0.0 0.10920771 0.035714287 0.031111112 0.011235955 0.03125 0.047058824 0.016460905 0.046038546 0.016393442 0.0 0.0 0.0 0.027777778 0.15870787 0.0 0.06 0.0 0.024864025 0.022435898 0.02366864 0.008064516 0.029411765 0.025 0.042857144 0.033783782 0.03125 0.012987013 0.0 0.0 0.010526316 0.04477612 0.0 0.060606062 0.01904762 0.020833334 0.014705882 0.06481481 0.056737587 0.048 0.027777778 0.024390243 0.04605263 0.024096385 0.13688213 0.13157895 0.06306306 0.04255319 0.01923077 0.028571429 0.0 0.027027028 0.0 0.015384615 0.09195402 0.08064516 0.06349207 0.029126214 0.02020202 0.028037382 0.06716418 0.06593407 0.05357143 0.08695652 0.024590164 0.09836066 0.011764706 0.049382716 0.052941177 0.022727273 0.01724138 0.016666668 0.031746034 0.013157895 0.024096385 0.017094018 0.0 0.1 0.04347826 0.048780486 0.033898305 0.041666668 0.06382979 0.040201005 0.18181819 0.056074765 0.10752688 0.054545455 0.0 0.044247787 0.015873017 0.032258064 0.014705882 0.10891089 0.025316456 0.026455026 0.027272727 0.15686275 0.07017544 0.017857144 0.121212125 0.0 0.04494382 0.1986755 0.17708333 0.0 0.0 0.0 0.032786883 0.01183432 0.055555556 0.09375 0.030303031 0.109375 0.011494253 0.09259259 0.03508772 0.0 0.016666668 0.0952381 0.025974026 0.04 0.014492754 0.04265403 0.073529415 0.018181818 0.06451613 0.048543688 0.015625 0.0 0.013157895 0.0 0.030927835 0.017857144 0.026041666 0.06870229 0.0 0.05263158 0.038961038 0.020547945 0.0 0.17567568 0.036082473 0.0 0.035714287 0.01754386 0.07692308 0.0 0.097087376 0.0 0.104166664 0.016666668 0.0 0.04379562 0.011111111 0.009708738 0.018181818 0.016853932 0.014285714 0.057142857 0.044444446 0.01754386 0.035714287 0.07865169 0.06481481 0.026229508 0.071428575 0.05102041 0.05035971 0.03448276 0.023255814 0.015306123 0.125 0.010989011 0.046875 0.07692308 0.034146342 0.02 0.071428575 0.16666667 0.09090909 0.1125 0.0 0.037037037 0.036363635 0.041666668 0.0 0.0 0.08 0.01923077 0.07746479 0.16568047 0.0 0.020833334 0.0 0.029850746 0.05172414 0.029411765 0.01369863 0.0952381 0.040935673 0.0 0.0625 0.019607844 0.06884058 0.0 0.019607844 0.03773585 0.0 0.04347826 0.03448276 0.0 0.08955224 0.04918033 0.020833334 0.078125 0.036144577 0.05882353 0.036697246 0.013513514 0.08235294 0.04918033 0.025 0.011904762 0.125 0.09677419 0.07692308 0.057971016 0.13461539 0.069767445 0.051948052 0.009259259 0.0 0.16666667 0.0 0.0 0.006802721 0.026666667 0.036363635 0.08235294 0.03773585 0.010309278 0.051136363 0.03409091 0.0 0.032786883 0.09090909 0.11764706 0.039215688 0.1 0.011235955 0.018867925 0.08571429 0.1 0.03508772 0.08163265 0.04 0.024390243 0.0 0.050847456 0.013333334 0.04761905 0.0 0.0 0.08510638 0.06542056 0.025641026 0.016666668 0.016393442 0.06 0.037037037 0.05263158 0.06741573 0.035714287 0.06 0.071428575 0.010989011 0.05970149 0.05185185 0.027777778 0.03773585 0.035714287 0.15 0.03508772 0.04379562 0.03448276 0.028169014 0.06451613 0.069767445 0.0952381 0.047058824 0.0 0.024390243 0.09090909 0.0 0.06593407 0.06 0.046511628 0.0 0.07317073 0.05263158 0.011235955 0.0 0.020833334 0.0 0.014705882 0.0 0.037037037 0.0 0.0 0.030303031 0.0 0.025641026 0.02 0.01724138 0.015625 0.0 0.13333334 0.09090909 0.028169014 0.22058824 0.03125 0.0 0.029850746 0.037383176 0.045454547 0.028571429 0.102564104 0.05511811 0.05479452 0.018604651 0.0 0.031746034 0.0054945056 0.0 0.0 0.07692308 0.04 0.0375 0.048387095 0.0 0.0 0.056603774 0.0 0.022346368 0.03773585 0.09090909 0.06382979 0.016949153 0.04347826 0.0 0.0 0.032786883 0.0 0.0 0.0 0.023076924 0.0 0.042857144 0.05882353 0.09090909 0.04054054 0.0 0.084745765 0.03125 0.06521739 0.042857144 0.09756097 0.0 0.03773585 0.05263158 0.0 0.03448276 0.03448276 0.08928572 0.03076923 0.0 0.14 0.0 0.0 0.015625 0.0 0.0 0.055555556 0.0 0.033707865 0.060606062 0.03448276 0.0 0.013513514 0.0 0.0 0.04411765 0.1 0.25 0.03773585 0.24705882 0.017857144 0.0 0.05479452 0.03846154 0.0 0.032258064 0.0 0.0 0.0 0.2 0.03448276 0.03846154 0.0 0.016129032 0.0 0.0 0.083333336 0.11111111 0.032258064 0.028571429 0.030303031 0.03125 0.16666667 0.0 0.0 0.0 0.032258064 0.0 0.0 0.06557377 0.04411765 0.048387095 0.071428575 0.0 0.0 0.014285714 0.0 0.0 0.024096385 0.039215688 0.01724138 0.03125 0.0 0.0 0.074074075 0.0 0.0625 0.18181819 0.0 0.0 0.09090909 0.037037037 0.039215688 0.0 0.039215688 0.0 0.0 0.0 0.08695652 0.09375 0.16666667 0.0 0.0952381 0.0 0.04761905 0.0 0.018867925 0.032258064 0.027777778 0.0 0.025 0.030303031 0.125 0.0 0.0 0.017857144 0.0 0.0 0.0 0.0 0.0862069 0.10526316 0.04 0.0 0.0 0.018867925 0.12 0.0 0.0 0.06666667 0.0 0.0 0.0 0.02173913 0.1 0.027027028 0.03846154 0.0 0.0 0.0 0.0 0.0 0.0 0.0 0.0 0.08 0.25 0.039215688 0.0 0.0 0.0 0.0 0.0 0.041666668 0.0 0.0 0.0 0.0 0.33333334 0.0 0.0 0.08 0.0 0.0 0.09259259 0.0 0.0 0.0 0.0 0.0 0.0 0.09090909 0.0 0.0 0.0 0.0 0.0 0.0 0.0 0.0 0.055555556 0.027027028 0.0 0.0 0.2 0.0 0.0 0.0 0.09090909 0.0 0.0 0.05 0.0 0.0 0.14285715 0.0 0.0 0.0 0.0 0.0 0.0 0.1 0.25 0.0 0.0 0.0 0.0 0.0 0.0 0.0 0.0 0.0 0.0625 0.0 0.0 0.125 0.0 0.0 0.0 0.0 0.0 0.0 0.16666667 0.0 0.0 0.0 0.0 0.0 0.0 0.0 0.0 0.0 0.0 0.0 0.0 0.0 0.0 0.0 0.0 0.0 0.0 0.0 0.0 0.0 0.0 0.0 0.0 0.0 0.0 0.0 0.0 0.0 0.0 0.0 0.0 0.0 0.0 0.0 0.0 0.0 0.0 0.0 0.0 0.0 0.0 0.0 0.0 0.0 0.0 0.0 0.0 0.0 0.0 0.0 0.0 0.0 0.0 0.0 0.0 0.0 0.0 0.0
psychiatry 1.44655E-4 0.0 1.0242986E-4 4.5454546E-4 1.8532247E-4 0.0 0.0 0.0 0.0 8.6820626E-5 0.0 1.7135024E-4 0.0043290043 0.0 0.0 0.0 0.0 0.0 0.0 0.0 1.0093873E-4 0.0 0.0 0.0 0.0 0.0 0.0 0.0 0.0 0.0 0.0 0.0 0.0 0.0 0.0 0.0 0.0 0.0 0.0 0.0 0.0 0.0 0.0 0.0 0.0 0.0 0.0 0.0 0.0 0.0 0.0 0.0 0.0 0.0 0.0 0.0 0.0 0.0 0.0 0.0 0.0 0.0 0.0 0.0 0.0 0.0 0.0 0.0 0.0 0.0 0.0 0.0 0.0 0.0 0.0 0.0 0.0 0.0 0.0 0.0 0.0 0.0 0.0 0.0 0.0 0.0011792453 0.0 0.0 0.0 0.0 0.0 0.0 0.0 0.0 0.0 0.0 0.0 0.0 0.0 0.0 0.0 0.0 0.0 0.0 0.0 0.0 0.0 0.0 0.0 0.0 0.0 0.0 0.0 0.0 0.0 0.0 0.0 0.0 0.0 0.0 0.0 0.0 0.0 0.0 0.0 0.0 0.0 0.0 0.0 0.0 0.0 0.0 0.0 0.0 0.00110011 0.0 0.0 0.0 0.0 0.0 0.0 0.0 0.0 0.0 0.0 0.0 0.0 0.0 0.0 0.0 0.0 0.0 0.0 0.0 0.0 0.0 0.0 0.0 0.0 0.0 0.0 0.0 0.0 0.0 0.0 0.0 0.0 0.0 0.0 0.0 0.0 0.0 0.0 0.0 0.0 0.0 0.0 0.0 0.0 0.0 0.0 0.0 0.0 0.0 0.0 0.0 0.0 0.0 0.0 0.0 0.0029325513 0.0 0.0 0.0 0.0 0.0 0.0 0.0 0.0 0.0 0.0 0.0 0.0 0.0 0.0 0.0 0.0 0.0 0.0 0.0 0.0 0.0 0.0 0.0 0.0 0.0 0.0 0.0 0.0 0.0 0.0 0.0 0.0 0.0 0.0 0.0 0.0 0.0 0.0 0.0 0.0 0.0 0.0 0.0 0.0 0.0 0.0 0.0 0.0 0.0 0.0 0.0 0.0 0.0 0.0 0.0 0.0 0.0 0.0 0.0 0.0 0.009708738 0.0 0.0 0.0 0.0 0.0 0.0 0.0 0.0 0.0 0.0 0.0 0.0 0.0 0.0 0.0 0.0 0.0 0.0 0.0 0.0 0.0 0.0 0.0 0.0 0.0 0.0 0.0 0.0 0.0 0.0 0.0 0.0 0.0 0.0 0.0 0.0 0.0 0.0 0.0 0.0 0.0 0.0 0.0 0.0 0.0 0.0 0.0 0.0 0.0 0.0 0.0 0.0 0.0 0.0 0.0 0.0 0.0 0.0 0.0 0.0 0.0 0.0 0.0 0.0 0.0 0.0 0.0 0.0 0.0 0.0 0.0 0.0 0.0 0.0 0.0 0.0 0.0 0.0 0.0 0.0 0.0 0.0034246575 0.0 0.0 0.0 0.0 0.0 0.0 0.0 0.0 0.0 0.0 0.0 0.0 0.0 0.0 0.0 0.0 0.0 0.0 0.0 0.0 0.0 0.0 0.0 0.0 0.0 0.0 0.0 0.0 0.0 0.0 0.0 0.0 0.0 0.0 0.0 0.0 0.0 0.0 0.0 0.0 0.0 0.0 0.0 0.0 0.0 0.0 0.0 0.0 0.0 0.0 0.0 0.0 0.0 0.0 0.0 0.0 0.0 0.0 0.0 0.0 0.0 0.0 0.0 0.0 0.0 0.0 0.0 0.0 0.0 0.0 0.0 0.0 0.0 0.0 0.0 0.0 0.0 0.0 0.0 0.0 0.0 0.0 0.0 0.0 0.0 0.0 0.0 0.0 0.0 0.0 0.0 0.0 0.0 0.0 0.0 0.0 0.0 0.0 0.0 0.0 0.0 0.0 0.0 0.0 0.0 0.0 0.0 0.0 0.0 0.0 0.0 0.0 0.0 0.0 0.0 0.0 0.0 0.0 0.0 0.0 0.0 0.0 0.0 0.0 0.0 0.0 0.0 0.0 0.0 0.0 0.0 0.0 0.0 0.0 0.0 0.0 0.0 0.0 0.0 0.0 0.0 0.0 0.0 0.0 0.0 0.0 0.0 0.0 0.0 0.0 0.0 0.0 0.0 0.0 0.0 0.0 0.0 0.0 0.0 0.0 0.0 0.0 0.0 0.0 0.0 0.0 0.0 0.0 0.0 0.0 0.0 0.0 0.0 0.0 0.0 0.0 0.0 0.0 0.0 0.0 0.0 0.0 0.0 0.0 0.0 0.0 0.0 0.0 0.0 0.0 0.0 0.0 0.0 0.0 0.0 0.0 0.0 0.0 0.0 0.0 0.0 0.0 0.0 0.0 0.0 0.0 0.0 0.0 0.0 0.0 0.0 0.0 0.0 0.0 0.0 0.0 0.0 0.0 0.0 0.0 0.0 0.0 0.0 0.0 0.0 0.0 0.0 0.0 0.0 0.0 0.0 0.0 0.0 0.0 0.0 0.0 0.0 0.0 0.0 0.0 0.0 0.0 0.0 0.0 0.0 0.0 0.0 0.0 0.0 0.0 0.0 0.0 0.0 0.0 0.0 0.0 0.0 0.0 0.0 0.0 0.0 0.0 0.0 0.0 0.0 0.0 0.0 0.0 0.0 0.0 0.0 0.0 0.0 0.0 0.0 0.0 0.0 0.0 0.0 0.0 0.0 0.0 0.0 0.0 0.0 0.0 0.0 0.0 0.0 0.0 0.0 0.0 0.0 0.0 0.0 0.0 0.0 0.0 0.0 0.0 0.0 0.0 0.0 0.0 0.0 0.0 0.0 0.0 0.0 0.0 0.0 0.0 0.0 0.0 0.0 0.0 0.0 0.0 0.0 0.0 0.0 0.0 0.0 0.0 0.0 0.0 0.0 0.0 0.0 0.0 0.0 0.0 0.0 0.0 0.0 0.0 0.0 0.0 0.0 0.0 0.0 0.0 0.0 0.0 0.0 0.0 0.0 0.0 0.0 0.0 0.0 0.0 0.0 0.0 0.0 0.0 0.0 0.0 0.0 0.0 0.0 0.0 0.0 0.0 0.0 0.0 0.0 0.0 0.0 0.0 0.0 0.0 0.0 0.0 0.0 0.0 0.0 0.0 0.0 0.0 0.0 0.0 0.0 0.0 0.0 0.0 0.0 0.0 0.0 0.0 0.0 0.0 0.0 0.0 0.0 0.0 0.0 0.0 0.0 0.0 0.0 0.0 0.0 0.0 0.0 0.0 0.0 0.0 0.0 0.0 0.0 0.0 0.0 0.0 0.0 0.0 0.0 0.0 0.0 0.0 0.0 0.0 0.0 0.0 0.0 0.0 0.0 0.0 0.0 0.0 0.0 0.0 0.0 0.33333334 1.0 0.0 0.0 0.0 0.0 0.0 0.0 0.0 0.0 0.0 0.0 0.0 0.0 0.0 0.0 0.0 0.0 0.0 0.0 0.0 0.0 0.0 0.0 0.0 0.0 0.0 0.0 0.0 0.0 0.0 0.0 0.0 0.0 0.0 0.0 0.0 0.0 0.0 0.0 0.0 0.0 0.0 0.0 0.0 0.0 0.0 0.0 0.0 0.0 0.0 0.0 0.0 0.0 0.0 0.0 0.0 0.0 0.0 0.0 0.0 0.0 0.0 0.0 0.0 0.0
asylum 1.44655E-4 0.0 1.8209753E-4 4.5454546E-4 5.559674E-4 0.0 0.0 0.0 0.0 8.6820626E-5 0.0 0.0 0.0 0.0 0.0 0.0 0.0 0.0 0.0 0.0 2.0187745E-4 0.0 0.0 0.004454343 0.0 0.0 0.0 0.0 2.043736E-4 0.0 0.0 0.0 0.0 0.0 0.0 0.0 0.0 0.0 0.0 0.0 0.0 0.0 0.0 0.0 0.0 0.0 0.0 0.0 0.0 0.0 0.0 0.0 0.0 0.0 0.0 0.0 0.0 0.0 0.0 0.0 0.0 0.0010341262 0.0 0.0 0.0 0.0 0.0 0.0 0.0 0.0 0.0013812155 0.0 0.0 0.0 0.0 0.0 0.0 0.0 0.0 0.0 0.0 9.6618355E-4 0.0 0.0 0.0 0.0011792453 0.0 0.0 0.0 0.0 0.0 0.0 8.0321287E-4 8.992806E-4 0.0 0.0 0.0 0.0 0.0017452007 0.0 0.0 0.0 0.0 0.0 0.0 0.0 0.0 0.0 0.0 0.0 0.0 0.0 0.0 0.0 0.0 0.0 0.0 0.0 0.0 0.0 0.0 0.0 0.0 0.0 0.0 0.001396648 0.0 0.0 0.0 0.0 0.0 0.0 0.0 0.0 0.00110011 0.0 0.0 0.0 0.0 0.0 0.0 0.0 0.0 0.0 0.0 0.0 0.0 0.0 0.0 0.0 0.0 0.0 0.0 0.0 0.0 0.0 0.0 0.0 0.0 0.0 0.0 0.0 0.0 0.0 0.0 0.0 0.0 0.0 0.0 0.0 0.0 0.007633588 0.0 0.0 0.0 0.0 0.0 0.0 0.0 0.0 0.0 0.0 0.0 0.0 0.0 0.0 0.0 0.0 0.0 0.0 0.0 0.0053475937 9.0171327E-4 0.0 0.0 0.0 0.0 0.0 0.0 0.0 0.0 0.0 0.0 0.0 0.0 0.0 0.0 0.0 0.0 0.0 0.0 0.0 0.0 0.0 0.0 0.0 0.0 0.0 0.0 0.0 0.0 0.0 0.0 0.0 0.0 0.0 0.0 0.0 0.0 0.0 0.0 0.0 0.0 0.0 0.0 0.0 0.0 0.0 0.0 0.0 0.0 0.0 0.0 0.0 0.0 0.0 0.0 0.0 0.0 0.0 0.0 0.0 0.0 0.0 0.0 0.0 0.0 0.0 0.0 0.0 0.0 0.0 0.0 0.0 0.0 0.0 0.0 0.0 0.0 0.0 0.0 0.0 0.0 0.0 0.0 0.0 0.0 0.0 0.0 0.0 0.0 0.0 0.0 0.0 0.0 0.0 0.0 0.0 0.0 0.0 0.0 0.0 0.0 0.0 0.0 0.0 0.0 0.0 0.0 0.0 0.0 0.0 0.0 0.0 0.0 0.0 0.0 0.0 0.0 0.0 0.0 0.0 0.0 0.0 0.0 0.0 0.0 0.0 0.0 0.0 0.0 0.0 0.0 0.0 0.0 0.0 0.0 0.0 0.0 0.0 0.0 0.0 0.0 0.0 0.0 0.0 0.0 0.0 0.0 0.0 0.0 0.0 0.0 0.0 0.0 0.0 0.0 0.0 0.0 0.0 0.0 0.0 0.0 0.0 0.0 0.0 0.0 0.0 0.0 0.0 0.0 0.0 0.0 0.0 0.0 0.0 0.0 0.0 0.0 0.0 0.0 0.0 0.0 0.0 0.0 0.0 0.0 0.0 0.0 0.0 0.0 0.0 0.0 0.0 0.0 0.0 0.0 0.0 0.0 0.0 0.0 0.0 0.0 0.0 0.0 0.0 0.0 0.0 0.0 0.0 0.0 0.0 0.0 0.0 0.0 0.0 0.0 0.0 0.0 0.0 0.0 0.0 0.0 0.0 0.0 0.0 0.0 0.0 0.0 0.0 0.0 0.0 0.01923077 0.0 0.0 0.0 0.0 0.0 0.0 0.0 0.0 0.0 0.0 0.0 0.0 0.0 0.0 0.0 0.0 0.0 0.0 0.0 0.0 0.0 0.0 0.0 0.0 0.0 0.0 0.0 0.0 0.0 0.0 0.0 0.0 0.0 0.0 0.0 0.0 0.0 0.0 0.0 0.0 0.0 0.0 0.0 0.0 0.0 0.0 0.0 0.0 0.0 0.0 0.0 0.0 0.0 0.0 0.0 0.0 0.0 0.0 0.0 0.0 0.0 0.0 0.0 0.0 0.0 0.0 0.0 0.0 0.0 0.0 0.0 0.0 0.0 0.0 0.0 0.0 0.0 0.0 0.0 0.0 0.0 0.0 0.0 0.0 0.0 0.0 0.0 0.0 0.0 0.0 0.0 0.0 0.0 0.0 0.0 0.0 0.0 0.0 0.0 0.0 0.0 0.0 0.0 0.0 0.0 0.0 0.0 0.0 0.0 0.0 0.0 0.0 0.0 0.0 0.0 0.0 0.0 0.0 0.0 0.0 0.0 0.0 0.0 0.0 0.0 0.0 0.0 0.0 0.0 0.0 0.0 0.0 0.0 0.0 0.0 0.0 0.0 0.0 0.0 0.045454547 0.0 0.0 0.0 0.0 0.0 0.0 0.0 0.0 0.0 0.0 0.0 0.0 0.0 0.0 0.0 0.0 0.0 0.0 0.0 0.01923077 0.0 0.0 0.0 0.0 0.0 0.0 0.0 0.0 0.0 0.0 0.0 0.0 0.0 0.0 0.0 0.0 0.0 0.0 0.0 0.0 0.0 0.0 0.0 0.0 0.0 0.0 0.0 0.0 0.0 0.0 0.0 0.0 0.0 0.0 0.0 0.0 0.0 0.0 0.0 0.0 0.0 0.0 0.0 0.0 0.0 0.0 0.0 0.0 0.0 0.0 0.0 0.0 0.0 0.0 0.0 0.0 0.0 0.0 0.0 0.0 0.0 0.0 0.0 0.0 0.0 0.0 0.0 0.0 0.0 0.0 0.0 0.0 0.0 0.0 0.0 0.0 0.0 0.0 0.0 0.0 0.0 0.0 0.0 0.0 0.0 0.0 1.0 0.0 0.0 0.0 0.0 0.0 0.0 0.0 0.0 0.0 0.0 0.0 0.0 0.0 0.0 0.0 0.0 0.0 0.0 0.0 0.0 0.0 0.0 0.0 0.0 0.0 0.0 0.0 0.0 0.0 0.0 0.0 0.0 0.0 0.0 0.0 0.0 0.0 0.0 0.0 0.0 0.0 0.0 0.0 0.0 0.0 0.0 0.0 0.0 0.0 0.0 0.0 0.0 0.0 0.0 0.0 0.0 0.0 0.0 0.0 0.0 0.0 0.0 0.0 0.0 0.0 0.0 0.0 0.0 0.0 0.0 0.0 0.0 0.0 0.0 0.0 0.0 0.0 0.0 0.0 0.0 0.0 0.0 0.0 0.0 0.0 0.0 0.0 0.0 0.0 0.0 0.0 0.0 0.0 0.0 0.0 0.0 0.0 0.0 0.0 0.0 0.0 0.0 0.0 0.0 0.0 0.0 0.0 0.0 0.0 0.0 0.0 0.0 0.0 0.0 0.0 0.0 0.0 0.0 0.0 0.0 0.0 0.0 0.0 0.0 0.0 0.0 0.0 0.0 0.0 0.0 0.0 0.0 0.0 0.0 0.0 0.0 0.0 0.0 0.0 0.0 0.0 0.0 0.0 0.0 0.0 0.0 0.0 0.0 0.0 0.0 0.0 0.0 0.0 0.0 0.0 0.0 0.0 0.0 0.0 0.0 0.0 0.0 0.0
manslaughter 2.169825E-4 0.0 2.3900301E-4 0.0 5.559674E-4 0.0 1.6401509E-4 0.0 0.0 8.6820626E-4 0.0 5.140507E-4 0.0 0.0 0.0 0.0 0.0 0.0 0.0 0.0 1.0093873E-4 0.0 0.0 0.0 0.0 0.0 0.0 0.0 2.043736E-4 0.0 0.0 0.0 1.8158708E-4 0.0 0.0 0.0024390244 0.0 0.0 0.0 0.0 0.0 0.0 0.0 6.5445027E-4 0.0 0.0 0.0 0.0 0.0 0.0 0.0 0.0 0.0 0.0 0.0 0.0 0.0 0.0 0.0 0.0 0.0 0.0010341262 0.0 0.0 0.0 0.0 0.0 0.0 0.0063897762 0.0 0.0 0.0 0.0 0.0 0.0 0.0 0.0 0.0 0.0 0.0 0.0 0.0 0.0 0.0 0.0 0.0 0.0 0.0 0.0 0.0 0.0 0.0 0.0 0.0 0.0 9.2421443E-4 0.0 0.0 0.0 0.0 0.0 0.0 0.0 0.0 0.0016638935 0.0 0.0 0.0 0.0 6.385696E-4 0.0 0.0 0.0 0.0 0.0 0.0 0.0 0.0 0.0 0.0 0.0 0.0 0.0 0.0 0.0 0.001396648 0.015873017 0.0 0.0 0.0 0.0 0.0 0.0 0.0 0.0 0.0 0.0 0.0 0.0 0.0 0.0 0.0 0.0 0.0015360983 0.0 0.0 0.0 0.0 0.0 0.0 0.0 0.0 0.0 0.0 0.0 0.0 0.0 0.0 0.0 0.0 0.0 0.0 0.0 0.0 0.0 0.0 0.0 0.0 0.0 0.0020242915 0.0 0.0 0.0 0.0 0.0 0.0 0.0 0.0 0.0 0.0 0.0 0.013888889 0.0 0.0 0.0 0.0 0.0 0.0 0.0 0.0 0.0 0.0 9.0171327E-4 0.0 0.0 0.0 0.0 0.0 0.0 0.0 0.0 0.0 0.0 0.0 0.0 0.0 0.0 0.0 0.0 0.0 0.0 0.0 0.0 0.0 0.00591716 0.0 0.0 0.0 0.0 0.0 0.0 0.0 0.0 0.0 0.0 0.0 0.0 0.0 0.0 0.0 0.0 0.0 0.0 0.0 0.0 0.0 0.0 0.0 0.0 0.0 0.009009009 0.0 0.0 0.0 0.0 0.0 0.0 0.0 0.0 0.0 0.0 0.0 0.0 0.0 0.0 0.0 0.0 0.0 0.0 0.0 0.0 0.0 0.0 0.0 0.0 0.0 0.0 0.0 0.0 0.0 0.0 0.0 0.0 0.0 0.0 0.0 0.0 0.0 0.0 0.0 0.0 0.0 0.0 0.0 0.0 0.0 0.0 0.0 0.0 0.0 0.0 0.0 0.0 0.0 0.0 0.0 0.0 0.0 0.0 0.0 0.0 0.0 0.0 0.0 0.0 0.0 0.0 0.0 0.0 0.0 0.0 0.0 0.0 0.0 0.0 0.0 0.0 0.0 0.0 0.0 0.0 0.0 0.0 0.0 0.0 0.0 0.0 0.0 0.0 0.0 0.0 0.0 0.0 0.0 0.0 0.0 0.0 0.0 0.0 0.0 0.0 0.0 0.0 0.0 0.0 0.0 0.0 0.0 0.0 0.0 0.0 0.0 0.0 0.0 0.0 0.0 0.0 0.0 0.0 0.0 0.0 0.0 0.007194245 0.0 0.0 0.0 0.0 0.0 0.0078125 0.0 0.0 0.0 0.0 0.0 0.0 0.0 0.0 0.0 0.0 0.0 0.0 0.0 0.0 0.0 0.0 0.0 0.0 0.0 0.0 0.0 0.0 0.0 0.0 0.0 0.0 0.0 0.0 0.0 0.0 0.0 0.0 0.0 0.0 0.0 0.0 0.0 0.0 0.0 0.0 0.0 0.0 0.0 0.0 0.0 0.0 0.0 0.0 0.0 0.0 0.0 0.0 0.0 0.0 0.0 0.0 0.0 0.0 0.0 0.0 0.0 0.0 0.0 0.0 0.0 0.0 0.0 0.0 0.0 0.0 0.0 0.0 0.0 0.0 0.0 0.0 0.0 0.0 0.0 0.0 0.0 0.0 0.0 0.0 0.0 0.0 0.0 0.0 0.0 0.0 0.0 0.0 0.0 0.0054644807 0.0 0.0 0.007518797 0.0 0.0 0.0 0.0 0.0 0.0 0.0 0.0 0.0 0.0 0.0 0.0 0.0 0.0 0.0 0.0 0.011627907 0.0 0.0 0.0 0.0 0.0 0.0 0.0 0.0 0.0 0.0 0.0 0.0 0.0 0.0 0.0 0.0 0.0 0.0 0.0 0.0 0.0 0.0 0.0 0.0 0.0 0.0 0.0 0.0 0.0 0.0 0.0 0.0 0.0 0.0 0.0 0.0 0.0 0.0 0.0 0.0 0.0 0.0 0.0 0.0 0.0 0.0 0.0 0.0 0.0 0.0 0.0 0.0 0.0 0.0 0.0 0.0 0.0 0.0 0.0 0.0 0.0 0.0 0.0 0.0 0.0 0.0 0.0 0.0 0.0 0.0 0.0 0.0 0.0 0.0 0.0 0.0 0.010869565 0.0 0.0 0.0 0.0 0.0 0.0 0.0 0.0 0.0 0.0 0.0 0.0 0.0 0.0 0.0 0.0 0.0 0.0 0.0 0.0 0.0 0.0 0.0 0.0 0.0 0.0 0.0 0.0 0.0 0.0 0.0 0.0 0.0 0.0 0.0 0.0 0.0 0.0 0.0 0.0 0.0 0.0 0.0 0.0 0.0 0.0 0.0 0.0 0.0 0.0 0.0 0.0 0.0 0.0 0.0 0.0 0.0 0.0 0.0 0.0 0.0 0.0 0.0 0.0 0.0 0.0 0.0 0.0 0.0 0.0 0.0 0.0 0.0 0.0 0.0 0.0 0.0 0.0 0.0 0.0 0.0 0.0 0.0 0.0 0.0 0.0 0.0 0.0 0.0 0.0 0.0 0.0 0.0 0.0 0.0 0.0 0.0 0.0 0.0 0.0 0.0 0.0 0.030303031 0.0 0.0 0.0 0.0 0.0 0.0 0.0 0.0 0.0 0.0 0.0 0.0 0.0 0.018867925 0.0 0.0 0.0 0.0 0.0 0.0 0.0 0.0 0.0 0.0 0.0 0.0 0.0 0.0 0.0 0.0 0.0 0.0 0.0 0.0 0.0 0.019607844 0.0 0.0 0.0 0.0 0.0 0.0 0.0 0.0 0.0 0.0 0.0 0.0 0.0 0.0 0.0 0.0 0.0 0.0 0.0 0.0 0.0 0.0 0.0 0.0 0.0 0.0 0.0 0.0 0.0 0.0 0.0 0.0 0.0 0.0 0.0 0.0 0.0 0.0 0.0 0.0 0.0 0.0 0.0 0.0 0.0 0.0 0.0 0.0 0.0 0.0 0.0 0.0 0.0 0.0 0.0 0.0 0.0 0.0 0.0 0.0 0.0 0.0 0.0 0.0 0.0 0.0 0.0 0.0 0.0 0.0 0.0 0.0 0.0 0.0 0.0 0.0 0.0 0.0 0.0 0.0 0.0 0.0 0.0 0.0 0.0 0.0 0.0 0.0 0.0 0.0 0.0 0.0 0.0 0.0 1.0 0.0 0.0 0.0 0.0 0.0 0.0 0.0 0.0 0.0 0.0 0.0 0.0 0.0 0.0 0.0 0.0 0.0 0.0 0.0 0.0 0.0 0.0 0.0 0.0 0.0 0.0 0.0 0.0 0.0 0.0 0.0 0.0 0.0 0.0 0.0 0.0 0.0 0.0 0.0
music 0.003327065 0.0 0.00332328 0.0013636363 0.004447739 0.0 0.0032803018 0.0 0.0034246575 0.004861955 0.0 0.0039410554 0.0 0.0 0.0 0.01459854 0.0 0.0 0.0013888889 0.0 0.002624407 0.0022988506 0.016393442 0.004454343 0.004048583 0.0 0.005073567 0.010989011 0.0038830983 0.0 0.0027378509 0.0 0.0036317415 0.0 0.0037709975 0.004878049 0.0 0.0 0.0 0.0013679891 0.0 0.0 0.015873017 0.007198953 0.0 0.0047219307 0.00896861 0.0 0.0 0.0 0.002617801 0.010638298 0.0076923077 0.0028089888 0.010309278 0.0014005603 0.0 0.015625 0.005952381 0.03773585 0.0 0.0 0.0 0.0 0.030303031 0.0 0.0 0.01754386 0.009584664 0.0 0.002762431 0.0 0.0 0.0 0.0 0.0 0.0013888889 0.011904762 0.0 0.018867925 0.05263158 0.0028985508 0.0 0.014084507 0.003921569 0.0011792453 0.0026041667 0.0062111802 0.0 0.0 0.0 0.0 0.0032128515 0.0035971224 0.0054347827 9.2421443E-4 0.0 0.0 0.0017452007 0.00618238 0.009569378 0.0 0.0 0.0 0.0 0.002757353 0.020547945 0.0056497175 0.0 6.385696E-4 0.0 0.0 0.0 0.0 0.0 0.0 0.0 0.0017825312 0.0 0.0 0.0038240917 0.0032258064 0.0 0.0 0.0 0.002793296 0.0 0.018018018 0.0 0.003690037 0.0 0.0 0.0 0.0088495575 0.00440044 0.0 0.0 0.0 0.0023310024 0.0 0.014084507 0.005899705 0.008995502 0.0015360983 0.029411765 0.016666668 0.0 0.0121951215 0.0 0.0 0.0 0.006557377 0.0 0.0 0.0 0.0 0.0 0.0 0.005263158 0.0 0.0 0.0 0.0053475937 0.01746725 0.0 0.0 0.0 0.023809524 0.0 0.0020242915 0.016666668 0.0 0.0 0.0 0.0 0.0 0.0060362173 0.010869565 0.0 0.0 0.0 0.0 0.0 0.0 0.017441861 0.0 0.0 0.02027027 0.0 0.0043290043 0.0058651026 0.026737968 0.004508566 0.0 0.0 0.0 0.0 0.0 0.0 0.03125 0.0 0.004115226 0.005353319 0.0 0.0 0.0 0.0 0.0 0.0056179776 0.0 0.0 0.0 0.0023310024 0.0 0.0 0.0 0.0 0.0 0.0 0.0 0.0 0.0 0.0 0.0 0.0 0.0 0.0 0.0 0.0 0.0 0.0 0.0 0.0 0.002 0.027777778 0.0121951215 0.0 0.006024096 0.0076045627 0.013157895 0.0 0.0 0.0 0.0 0.02 0.0033783785 0.0 0.015384615 0.0 0.0 0.0 0.0 0.0 0.0 0.0074626864 0.0 0.0 0.0 0.0 0.0 0.0 0.024691358 0.0 0.03787879 0.0 0.016666668 0.0 0.0 0.0 0.008547009 0.0 0.0 0.0 0.0060975607 0.016949153 0.0 0.0 0.0 0.0 0.0 0.0 0.0 0.0 0.0 0.0 0.0 0.0 0.0 0.0 0.0 0.0 0.0 0.0 0.0 0.0 0.0 0.0 0.0 0.0 0.0 0.0 0.0 0.0 0.0 0.018518519 0.0 0.0 0.0 0.0 0.018518519 0.0 0.0 0.0 0.0 0.0 0.0057142857 0.0 0.0 0.0 0.0 0.0 0.009708738 0.0 0.0 0.0 0.0 0.010309278 0.0 0.0 0.0 0.0 0.0 0.0 0.0034246575 0.0 0.0 0.0 0.0 0.017857144 0.0 0.0 0.0 0.0 0.0 0.0 0.033333335 0.0 0.00729927 0.0 0.0 0.018181818 0.0 0.0 0.0 0.0074074073 0.0 0.0 0.0 0.0030864198 0.0 0.0 0.0 0.0 0.011494253 0.007751938 0.0 0.017857144 0.0 0.0 0.0 0.004878049 0.0 0.0 0.0 0.018181818 0.0 0.0 0.0 0.0 0.0 0.0 0.0 0.0 0.0 0.0 0.0 0.0 0.0 0.0 0.0 0.0 0.0 0.0 0.0 0.0058479533 0.0 0.0 0.0 0.0 0.00862069 0.0 0.0 0.0 0.014492754 0.0 0.0 0.0 0.0 0.0 0.0 0.0 0.0 0.0091743115 0.0 0.0 0.0 0.025 0.011904762 0.0 0.016129032 0.0 0.0 0.0 0.0 0.012987013 0.009259259 0.0 0.0 0.0 0.0 0.0 0.013333334 0.0 0.0 0.0 0.0 0.0056818184 0.0 0.0 0.0 0.0 0.0 0.0 0.0 0.0 0.0 0.014285714 0.0 0.0 0.0 0.0 0.0 0.0 0.0 0.013333334 0.0 0.0 0.0 0.0 0.0 0.0 0.0 0.0 0.0 0.0 0.0 0.0 0.0 0.02 0.0 0.0 0.0 0.0 0.027777778 0.0 0.0 0.0 0.01754386 0.0 0.01724138 0.0 0.0 0.0 0.0 0.0 0.0 0.0121951215 0.0 0.0 0.0 0.0 0.0 0.0 0.0 0.0 0.0 0.0 0.0 0.0 0.0 0.0 0.024691358 0.0 0.0 0.0 0.0 0.0 0.0 0.0 0.0 0.021276595 0.0 0.0 0.0 0.0 0.03125 0.0 0.0 0.0 0.0 0.00952381 0.0 0.007874016 0.0 0.004651163 0.0 0.0 0.0 0.0 0.0 0.0 0.0 0.075 0.0 0.028571429 0.0 0.0 0.0 0.0 0.0 0.0 0.0 0.0 0.0 0.0 0.0 0.0 0.0 0.0 0.0 0.0076923077 0.014492754 0.007142857 0.0 0.0 0.0 0.06666667 0.0 0.0 0.0 0.0 0.0 0.0 0.018867925 0.0 0.0 0.0 0.0 0.0 0.0 0.0 0.0 0.0 0.0 0.0 0.0 0.0 0.0 0.0 0.02247191 0.0 0.03448276 0.0 0.0 0.0 0.0 0.0 0.0 0.0 0.018867925 0.0 0.0 0.0 0.0 0.0 0.0 0.0 0.0 0.0 0.0 0.0 0.0 0.0 0.0 0.0 0.0 0.0 0.0 0.0 0.0 0.0 0.0 0.0 0.0 0.0 0.0 0.0 0.0 0.0 0.0 0.0 0.0 0.0 0.0 0.0 1.2 0.0 0.0 0.0 0.012048192 0.0 0.0 0.0 0.0 0.0 0.018518519 0.0 0.0 0.0 0.0 0.0 0.0 0.0 0.039215688 0.0 0.0 0.0 0.0 0.0 0.0 0.0 0.0 0.0 0.0 0.0 0.0 0.0 0.0 0.0 0.0 0.0 0.025 0.0 0.0 0.0 0.0 0.0 0.0 0.0 0.0 0.0 0.0 0.0 0.0 0.0 0.0 0.0 0.0 0.0 0.0 0.0 0.0 0.0 0.0 0.0 0.0 0.0 0.07692308 0.0 0.0 0.0 0.0 0.16666667 0.0 0.0 0.0 0.0 0.0 0.0 0.0 0.0 0.0 0.0 0.0 0.0 0.0 0.0 0.0 0.0 0.0 0.0 0.0 0.0 0.0 0.0 0.0 0.0 0.0 0.0 0.0 0.0 0.25 0.0 0.0 0.0 0.0 0.0 0.0 0.0 0.0 0.0 0.0 0.0 0.0 0.0 0.0 0.0 0.0 0.0 0.0 0.0 0.0 0.0 0.0 0.0 0.0 0.0 0.0 0.0 0.0 0.0 0.0 0.0 0.0 0.0 0.0 0.0 0.0 0.0 0.0 0.0 0.0 0.0 0.0 0.0 0.0 0.25 0.0 0.0 0.0 0.0 0.0 0.0 0.0 0.0 0.0 0.0 0.0 0.0 0.0 0.0 0.0 0.0 0.0 0.0 0.0 0.0 0.0 0.0 0.0 0.0 0.0 0.0 0.0 0.0 0.0 0.0 0.0 0.0 0.0 0.0 0.0 0.0 0.0 0.0 0.0 0.0 0.0 0.0 0.0 0.0 0.0 0.0 0.0 0.0 0.0 0.0 0.0 0.0 0.0 0.0 0.0 0.0 0.0 0.0 0.0 0.0 0.0 0.0 0.0 0.0 0.0 0.0
record 0.0077390424 0.0054644807 0.0070448983 0.006818182 0.0050037066 0.0 0.007216664 0.019607844 0.0034246575 0.0064247265 0.0 0.008396162 0.0043290043 0.0 0.0 0.01459854 0.0 0.017964073 0.011111111 0.00877193 0.005652569 0.0022988506 0.016393442 0.004454343 0.0060728746 0.0 0.01369863 0.010989011 0.006948702 0.011764706 0.0041067763 0.011363637 0.011258398 0.008333334 0.0044566337 0.004878049 0.014492754 0.0025062656 0.004901961 0.0054719565 0.019607844 0.0 0.007936508 0.0065445025 0.0 0.0041972715 0.004484305 0.003929273 0.00877193 0.0 0.002617801 0.0 0.03076923 0.0056179776 0.005154639 0.005602241 0.0 0.03125 0.005952381 0.0 0.0 0.011375388 0.015151516 0.0 0.0 0.0 0.0 0.01754386 0.019169329 0.0 0.002762431 0.0 0.0 0.01923077 0.0 0.0 0.0069444445 0.0 0.0088495575 0.018867925 0.0 0.006763285 0.0125 0.0 0.007843138 0.003537736 0.0052083335 0.0 0.010526316 0.005194805 0.0 0.0 0.008835342 0.008992806 0.0054347827 0.010166358 0.0 0.03125 0.006980803 0.0077279755 0.0 0.009345794 0.0 0.0 0.003327787 0.007352941 0.006849315 0.0028248588 0.007978723 0.006385696 0.011764706 0.008163265 0.015625 0.0 0.0 0.0 0.011494253 0.010695187 0.0049751243 0.0 0.0038240917 0.012903226 0.0076045627 0.0 0.010638298 0.005586592 0.015873017 0.0 0.0 0.007380074 0.0 0.01980198 0.033898305 0.0 0.00880088 0.017699115 0.008547009 0.022727273 0.0093240095 0.004784689 0.0 0.0029498525 0.0074962517 0.0061443932 0.009803922 0.0 0.011976048 0.024390243 0.0 0.012048192 0.008888889 0.0 0.0 0.03508772 0.03883495 0.008810572 0.0 0.0 0.0 0.0 0.0 0.0 0.0 0.01746725 0.011235955 0.011235955 0.004149378 0.011904762 0.0069444445 0.008097166 0.033333335 0.0 0.006756757 0.0 0.016949153 0.0 0.014084507 0.0 0.0 0.014492754 0.00982801 0.0 0.0 0.0 0.0058139535 0.014285714 0.0 0.013513514 0.0 0.0043290043 0.0058651026 0.0 0.0063119926 0.0 0.0 0.010706638 0.0 0.006666667 0.0 0.0 0.0 0.020576132 0.004282655 0.0 0.0 0.0 0.0 0.0 0.008426966 0.0 0.0 0.0 0.007770008 0.0032051282 0.0 0.0 0.009803922 0.0 0.014285714 0.0 0.0 0.0 0.0 0.0 0.010526316 0.014925373 0.0 0.0 0.0 0.0 0.014705882 0.018518519 0.014184397 0.008 0.0 0.0 0.0 0.006024096 0.0076045627 0.02631579 0.0 0.0 0.0 0.0 0.0 0.016891891 0.0 0.0 0.0 0.0 0.0 0.0 0.0 0.009345794 0.0074626864 0.0054945056 0.0 0.0 0.008196721 0.0 0.023529412 0.0 0.0 0.0 0.0 0.016666668 0.0 0.0 0.0 0.017094018 0.0 0.0 0.0 0.0 0.016949153 0.0 0.021276595 0.015075377 0.018181818 0.0 0.010752688 0.018181818 0.0 0.0088495575 0.031746034 0.016129032 0.014705882 0.00990099 0.025316456 0.026455026 0.018181818 0.039215688 0.03508772 0.017857144 0.0 0.0 0.011235955 0.0066225166 0.0 0.0 0.011764706 0.0 0.0 0.00591716 0.0 0.015625 0.0 0.0625 0.011494253 0.018518519 0.01754386 0.0 0.0 0.0 0.0 0.0057142857 0.0 0.009478673 0.0 0.0 0.032258064 0.0 0.015625 0.0 0.013157895 0.0 0.0 0.0 0.0 0.015267176 0.0 0.0 0.012987013 0.0034246575 0.0 0.0 0.005154639 0.0 0.017857144 0.05263158 0.01923077 0.03448276 0.009708738 0.04761905 0.0 0.0 0.0 0.0 0.0 0.0 0.0 0.0 0.0 0.014285714 0.0 0.0 0.0 0.0 0.0030864198 0.009836066 0.028571429 0.0 0.007194245 0.0057471264 0.007751938 0.0051020407 0.0 0.010989011 0.0078125 0.0 0.014634146 0.0 0.017857144 0.0 0.0 0.025 0.0 0.037037037 0.018181818 0.0 0.0 0.0 0.0 0.0 0.0 0.01183432 0.04347826 0.010416667 0.0 0.014925373 0.03448276 0.009803922 0.0 0.0 0.0058479533 0.015625 0.0 0.0 0.007246377 0.03448276 0.019607844 0.0 0.0 0.0 0.01724138 0.0 0.014925373 0.0 0.0 0.046875 0.0 0.0 0.018348623 0.0 0.0 0.0 0.025 0.0 0.0 0.0 0.0 0.0 0.0 0.0 0.012987013 0.037037037 0.015873017 0.0 0.0 0.0 0.0 0.0 0.0 0.011764706 0.0 0.0 0.0056818184 0.06818182 0.0 0.032786883 0.0 0.0 0.009803922 0.0 0.0 0.0 0.014285714 0.0 0.01754386 0.0 0.0 0.0 0.0 0.033898305 0.013333334 0.023809524 0.0 0.0 0.0 0.0 0.0 0.0 0.0054644807 0.0 0.0 0.007518797 0.0 0.05357143 0.02 0.011904762 0.0 0.014925373 0.0 0.0 0.009433962 0.0 0.05 0.0 0.0 0.0 0.0 0.032258064 0.011627907 0.0 0.0 0.0 0.024390243 0.0 0.014285714 0.0 0.0 0.023255814 0.0 0.0 0.05263158 0.011235955 0.0 0.0 0.010752688 0.0 0.0 0.0 0.0 0.025 0.0 0.0 0.025641026 0.02 0.0 0.0 0.021276595 0.016666668 0.077922076 0.0 0.014705882 0.03125 0.0 0.014925373 0.018691588 1.060606 0.01904762 0.0 0.0 0.0 0.0 0.0 0.0 0.0 0.00877193 0.0 0.0 0.0 0.0 0.0 0.014285714 0.0 0.018867925 0.0 0.005586592 0.0 0.0 0.0 0.016949153 0.0 0.0 0.0 0.0 0.0 0.0 0.0 0.0076923077 0.0 0.007142857 0.0 0.0 0.0 0.0 0.016949153 0.0 0.0 0.0 0.024390243 0.0 0.0 0.0 0.0 0.0 0.0 0.0 0.0 0.0 0.0 0.0 0.0 0.0078125 0.0 0.0 0.027777778 0.0 0.0 0.030303031 0.0 0.01923077 0.0 0.0 0.0 0.0 0.0 0.0 0.0 0.023529412 0.0 0.2 0.01369863 0.0 0.0 0.0 0.0 0.0 0.0 0.0 0.022988506 0.012820513 0.0 0.0 0.083333336 0.0 0.0 0.0 0.032258064 0.0 0.0 0.0 0.0 0.0 0.0 0.0 0.0 0.035714287 0.0 0.016393442 0.014705882 0.032258064 0.0 0.0 0.0 0.0 0.0 0.0 0.0 0.0 0.0 0.0 0.0 0.0 0.0 0.0 0.0 0.030303031 0.0 0.0 0.0 0.0 0.019607844 0.0 0.0 0.0 0.0 0.0 0.0 0.03125 0.0 0.0 0.0 0.0 0.04761905 0.0 0.0 0.0 0.0 0.0 0.0125 0.0 0.0 0.0 0.0 0.0 0.0 0.0 0.0 0.0 0.01724138 0.0 0.0 0.0 0.0 0.0 0.0 0.0 0.0 0.0 0.0 0.0 0.0 0.02173913 0.0 0.0 0.03846154 0.0 0.0 0.0 0.0 0.0 0.0 0.0 0.0 0.0 0.0 0.0 0.0 0.0 0.0 0.0 0.0 0.0 0.0 0.0 0.0 0.0 0.0 0.0 0.0 0.08 0.0 0.0 0.0 0.0 0.0 0.0 0.0 0.0 0.0 0.0 0.0 0.0 0.0 0.0 0.0 0.0 0.0 0.0 0.0 0.0 0.0 0.0 0.0 0.0 0.0 0.0 0.0 0.0 0.0 0.0 0.0 0.0 0.14285715 0.0 0.0 0.0 0.0 0.0 0.0 0.0 0.0 0.0 0.0 0.0 0.0 0.0 0.0 0.0 0.0 0.0 0.0 0.0 0.0 0.0 0.0 0.0 0.0 0.0 0.0 0.0 0.0 0.0 0.0 0.33333334 0.0 0.0 0.0 0.0 0.0 0.0 0.0 0.0 0.0 0.0 0.0 0.0 0.0 0.0 0.0 0.0 0.0 0.0 0.0 0.0 0.0 0.0 0.0 0.0 0.0 0.0 0.0 0.0 0.0 0.0 0.0 0.0 0.0 0.0 0.0 0.0 0.0 0.0 0.0 0.0 0.0 0.0 0.0 0.0 0.0 0.0 0.0 0.0 0.0 0.0 0.0 0.0 0.0 0.0 0.0 0.0
energy 0.0068711126 0.016393442 0.006976612 0.005 0.009266123 0.0 0.0086928 0.0 0.0 0.007553395 0.0 0.008910213 0.0 0.0 0.0 0.00729927 0.0 0.0 0.0027777778 0.0014619883 0.00555163 0.0 0.0 0.004454343 0.004048583 0.0 0.0071029933 0.010989011 0.0077661965 0.023529412 0.0041067763 0.0 0.008353005 0.008333334 0.006856359 0.004878049 0.0 0.0 0.003267974 0.0072959415 0.0 0.0 0.0 0.0032722512 0.0 0.0041972715 0.0 0.007858546 0.0 0.0 0.0 0.0 0.01923077 0.012640449 0.005154639 0.014005602 0.037037037 0.0 0.0029761905 0.03773585 0.0 0.0103412615 0.045454547 0.018072288 0.0 0.022222223 0.007633588 0.03508772 0.0063897762 0.0 0.008287293 0.023255814 0.014705882 0.028846154 0.022900764 0.008333334 0.0069444445 0.0 0.0088495575 0.0 0.0 0.011594203 0.0125 0.0 0.0 0.014150944 0.0052083335 0.01863354 0.010526316 0.005194805 0.015151516 0.0 0.004819277 0.0058453237 0.010869565 9.2421443E-4 0.0 0.0 0.006980803 0.00309119 0.014354067 0.009345794 0.011299435 0.0 0.003327787 0.0045955884 0.006849315 0.0 0.0 0.004469987 0.0 0.0 0.0 0.0 0.0 0.0 0.0 0.0089126555 0.0049751243 0.0 0.013384321 0.006451613 0.0 0.0 0.005319149 0.002793296 0.0 0.0 0.0 0.0 0.0 0.02970297 0.0 0.0088495575 0.0066006603 0.0 0.0 0.0 0.0093240095 0.0 0.0 0.0 0.010494753 0.0030721966 0.0 0.016666668 0.005988024 0.0 0.05263158 0.006024096 0.0044444446 0.006557377 0.0 0.01754386 0.0 0.004405286 0.0067114094 0.0 0.010526316 0.0 0.0 0.0 0.010695187 0.0 0.0 0.011235955 0.016597511 0.0 0.0 0.004048583 0.0 0.0 0.006756757 0.03076923 0.016949153 0.0 0.0070422534 0.0 0.0 0.0 0.0024570024 0.0 0.007575758 0.0 0.008720931 0.042857144 0.004830918 0.013513514 0.0 0.0 0.0 0.01604278 0.0054102796 0.045454547 0.0 0.006423983 0.0 0.0044444446 0.011235955 0.0 0.011764706 0.008230452 0.0074946466 0.016393442 0.0 0.0 0.0 0.0 0.0014044944 0.0 0.04 0.0 0.0031080032 0.009615385 0.0 0.0 0.0 0.0 0.014285714 0.006756757 0.0 0.0 0.0 0.0 0.0015037594 0.014925373 0.0 0.0 0.00952381 0.0 0.0 0.0 0.0 0.012 0.027777778 0.0 0.0065789474 0.0 0.0038022813 0.0 0.009009009 0.021276595 0.0 0.0 0.0 0.006756757 0.0 0.0 0.011494253 0.016129032 0.04761905 0.009708738 0.01010101 0.009345794 0.0074626864 0.0054945056 0.0 0.0 0.016393442 0.016393442 0.0 0.012345679 0.005882353 0.007575758 0.0 0.016666668 0.015873017 0.0 0.0 0.008547009 0.0 0.014285714 0.0 0.0 0.0 0.010416667 0.010638298 0.0050251256 0.018181818 0.0 0.032258064 0.0 0.0 0.0 0.015873017 0.0 0.014705882 0.0 0.0 0.0 0.0 0.0 0.01754386 0.008928572 0.0 0.0 0.0 0.0066225166 0.0 0.0 0.0 0.0 0.0 0.0 0.0 0.03125 0.0 0.09375 0.0 0.0 0.01754386 0.0 0.0 0.0 0.0 0.0057142857 0.0 0.0 0.0 0.0 0.0 0.058252428 0.0 0.0 0.013157895 0.0 0.0 0.008928572 0.0052083335 0.0 0.0 0.05263158 0.0 0.006849315 0.025641026 0.0 0.0154639175 0.0 0.0 0.05263158 0.01923077 0.0 0.0 0.0 0.041666668 0.008333334 0.0 0.00729927 0.033333335 0.0 0.0 0.011235955 0.028571429 0.0 0.014814815 0.0 0.0 0.02247191 0.009259259 0.009836066 0.0 0.0 0.02877698 0.0 0.007751938 0.015306123 0.0 0.0 0.0078125 0.03846154 0.009756098 0.0 0.071428575 0.0 0.0 0.0375 0.0 0.012345679 0.018181818 0.010416667 0.0 0.0 0.0 0.0 0.0070422534 0.00591716 0.0 0.0 0.0 0.0 0.0 0.009803922 0.0 0.0 0.0058479533 1.09375 0.03125 0.0 0.009057971 0.00862069 0.0 0.0 0.0 0.028985508 0.01724138 0.013333334 0.029850746 0.04918033 0.0 0.0 0.0 0.019607844 0.0 0.027027028 0.0 0.016393442 0.0 0.011904762 0.0 0.0 0.0 0.0 0.0 0.0 0.012987013 0.0 0.0 0.0 0.0 0.0 0.0 0.013333334 0.0 0.0 0.0 0.041237112 0.0056818184 0.0 0.0 0.016393442 0.018181818 0.0 0.029411765 0.0 0.0 0.018867925 0.014285714 0.0 0.0 0.020408163 0.0 0.0 0.02 0.0 0.013333334 0.0 0.0 0.0 0.08510638 0.009345794 0.0 0.0 0.0 0.08 0.037037037 0.007518797 0.011235955 0.035714287 0.04 0.035714287 0.010989011 0.029850746 0.0 0.06944445 0.009433962 0.017857144 0.0 0.0 0.01459854 0.0 0.056338027 0.032258064 0.0 0.015873017 0.0 0.0 0.0121951215 0.0 0.014285714 0.010989011 0.0 0.011627907 0.0 0.0 0.0 0.0 0.0 0.0 0.0 0.0 0.0 0.0 0.0 0.0 0.015151516 0.0 0.051282052 0.0 0.03448276 0.015625 0.0 0.008333334 0.077922076 0.028169014 0.0 0.0 0.0 0.0 0.018691588 0.015151516 0.0 0.0 0.007874016 0.01369863 0.018604651 0.0 0.0 0.016483517 0.00877193 0.0 0.0 0.0 0.05 0.0 0.028571429 0.0 0.0 0.0 0.011173184 0.0 0.015151516 0.0 0.016949153 0.0 0.0 0.0 0.0 0.0 0.0 0.013513514 0.0076923077 0.0 0.014285714 0.0 0.0 0.0 0.0 0.016949153 0.0 0.0 0.0 0.0 0.0 0.0 0.0 0.0 0.06896552 0.0 0.0 0.0 0.016949153 0.0 0.0 0.0 0.0 0.020618556 0.0 0.0 0.0 0.0 0.060606062 0.0 0.0 0.0 0.0 0.03448276 0.0 0.0 0.0 0.0 0.0 0.0 0.0 0.02739726 0.0 0.0 0.0 0.0 0.0 0.019607844 0.0 0.0 0.0 0.0 0.016129032 0.0 0.0 0.0 0.055555556 0.0 0.0 0.0 0.0 0.0 0.0 0.0 0.0 0.0 0.0 0.030303031 0.0 0.0 0.0 0.0 0.0 0.0 0.0 0.0 0.0 0.012048192 0.0 0.01724138 0.015625 0.0 0.0 0.0 0.0 0.0625 0.0 0.0 0.0 0.09090909 0.0 0.0 0.055555556 0.039215688 0.0 0.0 0.13636364 0.0 0.0 0.0 0.0 0.0 0.0 0.01904762 0.0 0.0 0.0 0.0 0.0 0.0 0.0 0.0 0.0 0.0 0.0 0.0 0.0 0.0 0.0 0.0 0.0 0.0 0.0 0.0 0.0 0.0 0.0 0.0 0.0 0.04347826 0.0 0.0 0.02173913 0.0 0.0 0.0 0.0 0.0 0.0 0.0 0.0 0.25 0.0 0.0 0.04 0.0 0.0 0.0 0.0 0.0 0.0 0.0 0.0 0.0 0.0 0.0625 0.0 0.0 0.0 0.0 0.0 0.0 0.0 0.0 0.0 0.0 0.0 0.0 0.0 0.0 0.0 0.0 0.0 0.0 0.0 0.0 0.0 0.0 0.0 0.0 0.0 0.0 0.0 0.0 0.0 0.0 0.0 0.09090909 0.0 0.0 0.0 0.0 0.0 0.0 0.0 0.0 0.0 0.0 0.0 0.0 0.0 0.0 0.0 0.16666667 0.0 0.0 0.0 0.0 0.0 0.0 0.0 0.0 0.0 0.0 0.0 0.0 0.0 0.0 0.0 0.0 0.0 0.0 0.0 0.0 0.0 0.0 0.0 0.0 0.0 0.0 0.0 0.0 0.0 0.22222222 0.0 0.0 0.0 0.0 0.0 0.0 0.0 0.0 0.0 0.0 0.0 0.0 0.0 0.0 0.0 0.0 0.0 0.0 0.0 0.0 0.0 0.0 0.0 0.0 0.0 0.0 0.0 0.0 0.0 0.0 0.0 0.0 0.0 0.0 0.0 0.0 0.0 0.0 0.0 0.0 0.0 0.0 0.0 0.0 0.0 0.0 0.0
announcement 0.0032547375 0.0 0.0019461674 0.0018181818 0.002038547 0.0 0.0022962112 0.0 0.0 0.001649592 0.0 0.0027416039 0.008658009 0.0 0.0 0.0 0.0 0.0 0.0 0.0014619883 0.0015140809 0.0022988506 0.04918033 0.0022271716 0.004048583 0.0 0.00304414 0.0 0.0016349888 0.0 0.0013689254 0.0 0.0019974578 0.008333334 0.0017140898 0.0 0.0 0.0 0.003267974 0.0036479707 0.0 0.0 0.0 0.002617801 0.0 0.0020986358 0.0 0.007858546 0.0 0.009259259 0.002617801 0.0 0.0 0.0 0.0 0.0 0.0 0.0 0.0 0.0 0.0 0.0010341262 0.0 0.0 0.0 0.0 0.0 0.0 0.0 0.041666668 0.002762431 0.0 0.004901961 0.009615385 0.007633588 0.0 0.0034722222 0.0 0.0 0.0 0.0 0.0028985508 0.0 0.0 0.003921569 0.004716981 0.0 0.0062111802 0.0 0.0 0.0 0.0 8.0321287E-4 0.004496403 0.0 9.2421443E-4 0.0 0.0 0.0034904014 0.001545595 0.004784689 0.009345794 0.0 0.0 0.0 0.007352941 0.0 0.008474576 0.005319149 0.0012771392 0.0 0.0020408162 0.015625 0.0 0.0 0.01923077 0.0 0.0 0.0099502485 0.016393442 0.0038240917 0.0 0.0 0.0 0.0 0.0 0.0 0.0 0.0 0.0 0.0 0.0 0.0 0.0 0.0 0.0088495575 0.0 0.0 0.0046620048 0.0 0.0 0.0 0.0014992504 0.0015360983 0.009803922 0.0 0.0 0.0 0.0 0.0 0.0 0.0 0.0 0.0 0.0 0.0 0.0033557047 0.0 0.0 0.0125 0.0 0.0 0.0 0.0 0.0 0.0 0.0 0.0 0.013888889 0.004048583 0.0 0.0 0.0 0.0 0.0056497175 0.0 0.0040241447 0.0 0.0 0.0 0.0 0.0 0.007575758 0.0 0.0 0.0 0.0 0.0 0.0 0.0 0.0 0.0053475937 0.0 0.045454547 0.0 0.0 0.0 0.0 0.0 0.0 0.0 0.0 0.0 0.0 0.0 0.0 0.016129032 0.027777778 0.0 0.03448276 0.0 0.0 0.0 0.0032051282 0.0 0.0 0.0 0.0 0.0 0.006756757 0.0 0.0 0.0 0.0 0.0 0.0 0.0 0.015151516 0.0 0.010416667 0.014705882 0.009259259 0.0070921984 0.0 0.0 0.0121951215 0.0 0.0 0.0 0.0 0.0 0.021276595 0.0 0.0 0.0 0.0033783785 0.0 0.0 0.0 0.0 0.0 0.0 0.0 0.0 0.0074626864 0.0 0.0 0.0 0.0 0.032786883 0.0 0.0 0.005882353 0.0 0.0 0.0 0.0 0.013157895 0.0 0.0 0.0 0.0 0.0 0.0 0.016949153 0.0 0.010638298 0.0 0.0 0.0 0.010752688 0.0 0.0 0.0 0.0 0.016129032 0.014705882 0.0 0.0 0.0 0.009090909 0.0 0.0 0.0 0.0 0.0 0.0 0.0066225166 0.0 0.0 0.0 0.0 0.0 0.0 0.0 0.0 0.0 0.0 0.0 0.0 0.0 0.0 0.0 0.0 0.0 0.0 0.0 0.0 0.0 0.0 0.0 0.0 0.0 0.0 0.0 0.0 0.0 0.008928572 0.0 0.0 0.0 0.0 0.0 0.0 0.0 0.0 0.005154639 0.024390243 0.0 0.03508772 0.01923077 0.0 0.0 0.0 0.0 0.0 0.0 0.0 0.0 0.0 0.0 0.0056179776 0.014285714 0.0 0.0 0.0 0.0 0.0 0.0030864198 0.0 0.0 0.010204081 0.0 0.011494253 0.0 0.0 0.0 0.0 0.0 0.0 0.014634146 0.02 0.0 0.0 0.0 0.0 0.0 0.0 0.0 0.010416667 0.0 0.0 0.0 0.0 0.0 0.0 0.0 0.0 0.0 0.014925373 0.0 0.0 0.0 0.0 0.0 0.0 0.0 0.019607844 0.0054347827 0.0 0.0 0.0 0.0 0.0 0.0 0.0 0.0 0.016393442 0.0 0.0 0.0 0.0 0.0 0.0 0.0 0.032786883 0.0 0.0 0.0 0.0 0.0 0.0 0.0 0.0 0.0 0.0 0.0 0.0 0.0 0.0 0.0 0.0 0.018181818 0.0 0.0 0.0 0.011363637 0.0 0.018181818 0.032786883 0.0 0.0 0.009803922 0.0 0.0 0.0 0.0 0.0 0.0 0.0 0.0 0.0 0.0 0.0 0.0 0.0 0.0 0.0 0.0 0.0 0.0 0.0 0.0054644807 0.0 0.0 0.0 0.02247191 0.0 0.0 0.011904762 0.0 0.0 0.0 0.0 0.0 0.0 0.0 0.0 0.00729927 0.0 0.0 0.0 0.0 0.0 0.0 0.0 0.0 0.0 0.0 0.0 0.02 0.0 0.0 0.0 0.0 0.02247191 0.0 0.0 0.0 0.0 0.0 0.0 0.0 0.0 0.0 0.0 0.025641026 0.0 0.0 0.0 0.0 0.0 0.012987013 0.0 0.0 0.0 0.0 0.0 0.0 0.0 0.0 0.0 0.007874016 0.0 0.0 0.0 0.0 0.0054945056 0.0 0.0 0.01923077 0.0 0.0 0.0 0.0 0.0 0.0 0.0 0.0 0.0 0.0 0.0 0.0 0.0 0.0 0.0 0.0 0.0 0.0 0.013513514 0.0 0.0 0.007142857 0.0 0.0 0.0 0.0 0.0 0.0 0.010869565 0.014285714 0.0 0.0 0.0 0.0 0.0 0.0 0.0 0.0 0.0 0.0 0.0 0.0 0.0 0.0 0.0 0.0 0.0 0.0 0.0 0.0 0.03448276 0.0 0.0 0.0 0.0 0.0 0.0 0.0 0.0 0.0 0.017857144 0.0 0.0 0.0 0.0 0.0 0.0 0.0 0.0 0.0 0.0 0.0 0.0 0.0 0.0 0.0 0.0 0.0 0.0 0.0 0.0 0.0 0.0 0.0 0.0 0.0 0.0 0.0 0.0 0.0 0.0 0.016129032 0.0 0.0 0.0 0.0 0.0 0.0 0.0 0.019607844 0.0 0.0 0.0 0.0 0.0 0.0 0.0 0.0 0.0 0.0 0.09090909 0.0 0.0 0.0 0.0 0.0 0.0 0.0 0.0 0.0 0.0 0.0 1.0 0.0 0.0 0.0 0.0 0.0 0.0 0.0 0.0 0.0 0.0 0.0 0.0 0.017857144 0.0 0.0 0.0 0.0 0.0 0.0 0.0 0.0 0.0 0.0 0.0 0.0 0.0 0.0 0.04347826 0.0 0.0 0.0 0.0 0.0 0.0 0.0 0.0 0.0 0.0 0.0 0.0 0.0 0.0 0.0 0.0 0.0 0.0 0.0 0.0 0.0 0.0 0.0 0.0 0.0 0.0 0.0 0.0 0.0 0.0 0.0 0.0 0.0 0.0 0.0 0.0 0.0 0.0 0.0 0.0 0.0 0.0 0.0 0.0 0.0 0.0 0.0 0.0 0.0 0.055555556 0.0 0.0 0.0 0.0 0.0 0.0 0.0 0.0 0.0 0.0 0.0 0.0 0.0 0.0 0.0 0.0 0.0 0.0 0.0 0.0 0.0 0.25 0.0 0.0 0.0 0.0 0.0 0.0 0.0 0.0 0.0 0.0 0.0 0.0 0.0 0.0 0.0 0.0 0.0 0.0 0.0 0.16666667 0.0 0.0 0.0 0.0 0.0 0.0 0.0 0.0 0.0 0.0 0.0 0.0 0.0 0.0 0.0 0.0 0.0 0.0 0.0 0.0 0.0 0.0 0.0 0.0 0.0 0.0 0.0 0.0 0.0 0.0 0.0 0.0 0.0 0.0 0.0 0.0 0.0 0.0 0.0 0.0 0.0 0.0 0.0 0.0 0.0 0.0 0.0 0.0 0.0 0.0 0.0 0.0 0.0 0.0 0.0 0.0 0.0 0.0 0.0
mile 5.062925E-4 0.0 4.7800603E-4 0.0 1.8532247E-4 0.0 1.6401509E-4 0.0 0.0 6.94565E-4 0.0 5.140507E-4 0.0 0.0066225166 0.0 0.0 0.0 0.0 0.0 0.0 5.0469366E-4 0.0022988506 0.0 0.0 0.004048583 0.0 0.0 0.0 4.087472E-4 0.0 0.0 0.0 7.263483E-4 0.0 0.0 0.0024390244 0.0 0.0 0.0 0.0 0.0 0.0 0.0 0.0 0.0 0.0 0.0 0.0019646366 0.0 0.0 0.0 0.0 0.0 0.0 0.0 0.0 0.018518519 0.0 0.0 0.0 0.0 0.0 0.0 0.0 0.0 0.0 0.0 0.0 0.0 0.0 0.0 0.0 0.0 0.0 0.0 0.0 0.0 0.011904762 0.0 0.0 0.0 0.0 0.0 0.0 0.0 0.0 0.0 0.0 0.0 0.0 0.0 0.0 0.0 4.496403E-4 0.010869565 9.2421443E-4 0.0 0.0 0.0 0.0 0.0 0.0 0.0 0.0 0.0 0.0 0.0 0.0 0.0 0.0 0.0 0.0 0.0 0.0 0.0 0.0 0.0 0.0 0.0049751243 0.0 0.0 0.0 0.0 0.0 0.0 0.001396648 0.0 0.0 0.0 0.0 0.0 0.0 0.0 0.0 0.0 0.0 0.0 0.0 0.0 0.0 0.0 0.0 0.0 0.0 0.0 0.016666668 0.0 0.0 0.0 0.0 0.0 0.0 0.0 0.0 0.0 0.0 0.0 0.0 0.0 0.0 0.0 0.0 0.0 0.0 0.011235955 0.0 0.0 0.0 0.0 0.0060728746 0.0 0.0 0.0 0.0 0.0 0.0 0.0 0.0 0.0 0.0 0.0024570024 0.0 0.0 0.0 0.0 0.0 0.0 0.0 0.1 0.0 0.0 0.0 0.0018034265 0.0 0.0 0.0 0.017857144 0.0 0.0 0.0 0.0 0.0 0.0 0.0 0.0 0.0 0.0 0.0 0.0 0.0 0.0 0.0 0.0 0.0 0.0 0.0 0.0 0.0 0.0 0.0 0.0 0.0 0.0 0.0 0.0 0.0 0.0 0.0 0.0 0.0 0.0 0.0 0.0070921984 0.0 0.0 0.0 0.0 0.0 0.0038022813 0.0 0.0 0.0 0.0 0.0 0.0 0.0 0.0 0.0 0.0 0.0 0.0 0.0 0.0 0.0 0.0 0.0 0.0 0.0 0.0 0.0 0.0 0.0 0.0 0.0 0.0 0.0 0.0 0.0 0.0 0.0 0.0 0.0 0.0 0.0 0.0 0.0 0.0 0.0 0.0 0.0 0.0 0.0 0.0 0.0 0.0 0.0 0.0 0.0 0.0 0.0 0.0 0.019607844 0.0 0.0 0.015151516 0.0 0.0 0.0 0.0 0.0 0.0 0.0 0.0 0.0 0.0 0.0 0.0 0.0 0.0 0.0 0.0 0.0 0.0 0.0 0.0 0.0 0.0 0.0 0.0 0.0 0.0 0.0 0.0 0.0 0.0 0.0 0.0 0.0 0.0 0.0 0.0 0.0 0.0 0.0 0.0 0.0 0.0 0.0 0.0 0.0 0.0 0.0 0.0 0.0 0.0 0.0 0.0 0.0 0.0 0.0 0.0 0.0 0.0 0.0 0.0 0.0 0.0 0.0 0.0 0.0032786885 0.0 0.0 0.0 0.0 0.0 0.0 0.0 0.0 0.0078125 0.0 0.0 0.0 0.0 0.0 0.0 0.0 0.0 0.0 0.0 0.0 0.0 0.0 0.0 0.0 0.0 0.0 0.0 0.0 0.0 0.0 0.0 0.0 0.0 0.0 0.0 0.0 0.0 0.0 0.0 0.0 0.0 0.0 0.0 0.0 0.0 0.0 0.0 0.0 0.0 0.0 0.0 0.0 0.0091743115 0.0 0.0 0.0 0.0 0.0 0.0 0.0 0.01923077 0.0 0.0 0.0 0.0 0.0 0.0 0.0 0.0 0.0 0.0 0.0 0.0 0.011764706 0.0 0.0 0.0 0.0 0.0 0.0 0.0 0.0 0.0 0.0 0.0 0.0 0.0 0.0 0.0 0.0 0.0 0.0 0.0 0.016949153 0.013333334 0.0 0.011494253 0.0 0.0 0.009345794 0.0 0.0 0.0 0.0 0.0 0.0 0.0 0.0 0.02 0.0 0.0 0.0 0.0 0.0 0.0 0.0 0.0 0.0 0.0 0.0 0.0 0.0 0.0 0.0 0.0 0.0 0.0 0.0 0.0 0.0 0.0 0.0 0.0 0.0 0.0 0.011235955 0.0 0.0 0.0 0.0 0.0 0.0 0.0 0.0 0.0 0.0 0.0 0.0 0.0 0.0 0.0 0.0 0.0 0.0 0.0 0.0 0.0 0.014925373 0.0 0.0 0.0 0.0 0.0 0.0 0.0 0.0 0.0 0.0 0.0 0.0 0.0 0.0 0.0 0.0 0.0 0.0 0.018867925 0.0 0.0 0.0 0.0 0.0 0.0 0.0 0.0 0.0 0.0 0.0 0.0 0.0 0.0 0.0 0.0 0.0 0.0 0.0 0.0 0.0 0.0 0.0 0.0 0.0 0.0 0.0 0.0 0.0 0.0 0.0 0.0 0.0 0.0 0.0 0.0 0.0 0.0 0.0 0.0 0.0 0.0 0.0 0.0 0.0 0.0 0.0 0.0 0.0 0.0 0.0 0.0 0.0 0.0 0.0 0.0 0.0 0.0 0.0 0.0 0.0 0.0 0.0 0.0 0.0 0.0 0.0 0.0 0.0 0.0 0.0 0.0 0.0 0.0 0.0 0.0 0.0 0.0 0.0 0.0 0.0 0.0 0.0 0.0 0.0 0.0 0.0 0.0 0.0 0.0 0.0 0.0 0.012048192 0.0 0.0 0.0 0.0 0.0 0.0 0.0 0.0 0.0 0.0 0.0 0.0 0.0 0.0 0.0 0.0 0.0 0.0 0.0 0.0 0.0 0.0 0.0 0.0 0.0 0.0 0.0 0.03773585 0.0 0.0 0.0 0.0 0.0 0.0 1.0 0.0 0.0 0.0 0.0 0.0 0.0 0.0 0.0 0.0 0.0 0.0 0.0 0.0 0.0 0.0 0.0 0.0 0.045454547 0.0 0.0 0.0 0.0 0.0 0.0 0.0 0.0 0.0 0.0 0.0 0.0 0.0 0.0 0.0 0.0 0.0 0.0 0.0 0.0 0.0 0.0 0.0 0.0 0.0 0.0 0.0 0.0 0.0 0.0 0.0 0.0 0.0 0.0 0.0 0.0 0.0 0.0 0.0 0.0 0.0 0.0 0.0 0.0 0.0 0.0 0.0 0.0 0.0 0.0 0.0 0.0 0.0 0.0 0.0 0.0 0.0 0.0 0.0 0.0 0.0 0.0 0.0 0.0 0.0 0.0 0.0 0.0 0.0 0.0 0.0 0.0 0.0 0.0 0.0 0.0 0.0 0.0 0.0 0.0 0.0 0.0 0.0 0.0 0.0 0.0 0.0 0.0 0.0 0.0 0.0 0.0 0.0 0.0 0.0 0.0 0.0 0.0 0.0 0.0 0.11111111 0.0 0.0 0.0 0.0 0.0 0.0 0.0 0.0 0.0 0.0 0.0 0.0 0.0 0.0 0.0 0.0 0.0 0.0 0.0 0.0 0.0 0.0 0.0 0.0 0.0 0.0 0.0 0.0 0.0 0.0 0.0 0.0 0.0 0.0 0.0 0.0 0.0 0.0 0.0 0.0 0.0 0.0 0.0 0.0 0.0 0.0 0.0 0.0 0.0
airport 0.0023868075 0.0 0.0019575485 9.090909E-4 0.0014825797 0.0 9.840905E-4 0.0 0.0034246575 0.0018232332 0.0 0.0020562029 0.0 0.0 0.0 0.0 0.0 0.005988024 0.0013888889 0.0029239766 0.0019178359 0.004597701 0.0 0.0 0.0 0.0 0.00304414 0.0 0.002043736 0.0 0.0013689254 0.0 0.0030869802 0.0 0.0013712719 0.0024390244 0.0 0.0 0.0 0.0 0.0 0.0 0.0 0.0013089005 0.0 0.0010493179 0.0 0.003929273 0.00877193 0.0 0.0 0.0 0.0 0.0028089888 0.0 0.0028011205 0.0 0.0 0.0 0.0 0.0 0.0 0.0 0.0 0.0 0.0 0.0 0.0 0.0 0.041666668 0.002762431 0.004651163 0.0 0.0 0.0 0.0 0.0034722222 0.0 0.0 0.0 0.0 0.0028985508 0.0 0.028169014 0.003921569 0.003537736 0.0026041667 0.0 0.0 0.0 0.0 0.0 0.004819277 0.0017985612 0.0 0.0018484289 0.011494253 0.0 0.0 0.0 0.0023923444 0.0 0.0 0.0 0.0016638935 9.1911765E-4 0.0 0.0 0.0 0.0019157088 0.0 0.0040816325 0.015625 0.0 0.0 0.0 0.0 0.0 0.0049751243 0.04918033 0.0 0.0 0.0038022813 0.0 0.005319149 0.0 0.0 0.0 0.0 0.0018450185 0.0 0.0 0.0 0.0 0.00220022 0.0 0.0 0.0 0.0023310024 0.004784689 0.0 0.0029498525 0.0029985008 0.0015360983 0.0 0.0 0.0 0.0 0.0 0.0 0.0 0.0 0.0 0.0 0.0 0.0 0.0 0.0 0.002631579 0.0 0.0 0.0 0.0 0.0 0.0 0.011235955 0.0 0.0 0.0 0.0060728746 0.0 0.0 0.0 0.0 0.0 0.0 0.0010060362 0.0 0.0 0.0 0.0 0.013888889 0.0 0.0 0.0 0.0 0.0 0.0 0.0 0.0043290043 0.0 0.0 9.0171327E-4 0.0 0.0 0.0 0.0 0.0 0.0 0.0 0.0 0.008230452 0.0032119914 0.0 0.0 0.0 0.0 0.0 0.0014044944 0.0 0.0 0.0 7.770008E-4 0.0064102565 0.0 0.008064516 0.0 0.0 0.0 0.013513514 0.0 0.0 0.0 0.05882353 0.0015037594 0.014925373 0.0 0.0 0.0 0.0 0.0 0.0 0.0 0.004 0.0 0.0 0.0 0.0 0.0038022813 0.0 0.0 0.0 0.0 0.0 0.0 0.0 0.0 0.0 0.0 0.016129032 0.015873017 0.0 0.0 0.0 0.0 0.0 0.0 0.0 0.008196721 0.016393442 0.011764706 0.0 0.0 0.0 0.0 0.0 0.0 0.0 0.0 0.0 0.0 0.0 0.0 0.0 0.0 0.0 0.0 0.0050251256 0.0 0.0 0.0 0.0 0.0 0.0 0.0 0.0 0.0 0.0 0.012658228 0.0 0.0 0.0 0.0 0.008928572 0.015151516 0.0 0.011235955 0.013245033 0.010416667 0.0 0.0 0.0 0.0 0.0 0.0 0.0 0.0 0.0 0.0 0.018518519 0.0 0.0 0.0 0.0 0.0 0.0 0.0 0.014218009 0.0 0.0 0.0 0.029126214 0.0 0.0 0.0 0.0 0.0 0.0 0.0 0.0 0.0 0.0 0.0 0.0 0.0 0.0 0.0 0.0 0.0 0.0 0.0 0.0 0.0 0.0 0.0 0.008333334 0.041666668 0.00729927 0.0 0.0 0.0 0.0 0.0 0.0 0.0 0.0 0.0 0.0 0.0 0.0 0.0 0.0 0.0 0.0057471264 0.0 0.0 0.0 0.0 0.0 0.0 0.0 0.0 0.0 0.0 0.0 0.0 0.0 0.012345679 0.0 0.020833334 0.0 0.0 0.0 0.0 0.0 0.0 0.0 0.0 0.0 0.0 0.0 0.0 0.0 0.0 0.0 0.0 0.0 0.0 0.0 0.0 0.0 0.0 0.0 0.014492754 0.0 0.013333334 0.0 0.0 0.0 0.0 0.024096385 0.0 0.0 0.0 0.0 0.0 0.0 0.0 0.0 0.0 0.0 0.0 0.0 0.0 0.025974026 0.0 0.0 0.0 0.0 0.0 0.006802721 0.0 0.0 0.011764706 0.018867925 0.0 0.0 0.0 0.0 0.0 0.018181818 0.0 0.0 0.0 0.011235955 0.0 0.0 0.0 0.01754386 0.0 0.0 0.0 0.0 0.0 0.0 0.0 0.0 0.0 0.04255319 0.0 0.0 0.05 0.0 0.0 0.0 0.007518797 0.0 0.0 0.0 0.0 0.0 0.014925373 0.0 0.0 0.009433962 0.0 0.0 0.0 0.0 0.0 0.0 0.0 0.0 0.015873017 0.0 0.01923077 0.0 0.0 0.0 0.0 0.02 0.0 0.0 0.024390243 0.0 0.0 0.0 0.0 0.0 0.0 0.0 0.0 0.0 0.0 0.0 0.0 0.0 0.0 0.0 0.0 0.021276595 0.0 0.0 0.0 0.0 0.0 0.0 0.0 0.009345794 0.0 0.0 0.0 0.0 0.0 0.0 0.21428572 0.0 0.0 0.0 0.05 0.0 0.04 0.0 0.0 0.0 0.0 0.0 0.0 0.0 0.0 0.0 0.010638298 0.0 0.0 0.0 0.0 0.016393442 0.0 0.0 0.0 0.0 0.0 0.0 0.0 0.0 0.0 0.0 0.0 0.0 0.0 0.0 0.0 0.0 0.0 0.0 0.0 0.0 0.0 0.017857144 0.0 0.0 0.02 0.0 0.0 0.0 0.0 0.0 0.0 0.0 0.0 0.0 0.0 0.0 0.0 0.0 0.0 0.0 0.0 0.0 0.0 0.0 0.0 0.0 0.0 0.0 0.0 0.010752688 0.0 0.0 0.0 0.0 0.0 0.0 0.0 0.0 0.0 0.0 0.0 0.0 0.0 0.0 0.0 0.0 0.0 0.0 0.0 0.0 0.0 0.035714287 0.0 0.0 0.0 0.0 0.0 0.0 0.0 0.0 0.0 0.0 0.0 0.0 0.0 0.0 0.0 0.0 0.0 1.1904762 0.0 0.0 0.0 0.0 0.0 0.0 0.0 0.0 0.019607844 0.0 0.0 0.0 0.0 0.0 0.0 0.0 0.0 0.0 0.0 0.0 0.0 0.0 0.0 0.0 0.0 0.0 0.0 0.0 0.0 0.0 0.0 0.0 0.0 0.0 0.0 0.0 0.0 0.0 0.0 0.0 0.0 0.0 0.0 0.0 0.0 0.0 0.0 0.0 0.0 0.0 0.0 0.0 0.0 0.0 0.0 0.0 0.0 0.0 0.0 0.0 0.0 0.0 0.0 0.0 0.0 0.0 0.0 0.0 0.0 0.0 0.0 0.0 0.0 0.0 0.0 0.0 0.0 0.0 0.0 0.0 0.0 0.0 0.0 0.0 0.0 0.0 0.0 0.0 0.0 0.0 0.0 0.0 0.0 0.0 0.0 0.0 0.0 0.0 0.0 0.0 0.0 0.0 0.0 0.0 0.0 0.0 0.0 0.0 0.0 0.0 0.0 0.0 0.0 0.0 0.0 0.0 0.0 0.0 0.0 0.0 0.0 0.0 0.0 0.0 0.0 0.0 0.0 0.0 0.0 0.0 0.0 0.0 0.0 0.0 0.0 0.0 0.0 0.0 0.0 0.0 0.0 0.0 0.0 0.0 0.0 0.0 0.0 0.0 0.0 0.0 0.0 0.0 0.0 0.0 0.0 0.0 0.0 0.0 0.0 0.0 0.0 0.0 0.0 0.0 0.0 0.0 0.0 0.0 0.0 0.0 0.0 0.0 0.0 0.0 0.0 0.0 0.0 0.0 0.0 0.0 0.0 0.0 0.0 0.0 0.0 0.0 0.0 0.0 0.0 0.0 0.0 0.0 0.0 0.0 0.0 0.0
population 0.0028931 0.0 0.0021965515 4.5454546E-4 0.0022238696 0.0 0.0016401509 0.0 0.006849315 0.0024309775 0.0 0.003427005 0.0 0.0 0.0 0.0 0.0 0.005988024 0.0055555557 0.0014619883 0.0017159585 0.0022988506 0.0 0.0 0.0060728746 0.0 5.0735666E-4 0.0 0.0026568568 0.0 0.0013689254 0.0 0.002542219 0.0 0.0010284539 0.0 0.0 0.0050125313 0.004901961 9.119927E-4 0.0 0.0 0.0 6.5445027E-4 0.0 0.003147954 0.0 0.003929273 0.0 0.0 0.0 0.0 0.0038461538 0.0056179776 0.010309278 0.004201681 0.0 0.0 0.0029761905 0.0 0.014705882 0.0020682523 0.0 0.006024096 0.0 0.0 0.0 0.0 0.0 0.0 0.0013812155 0.0 0.0 0.009615385 0.0 0.0 0.0013888889 0.0 0.0 0.0 0.0 0.0028985508 0.0 0.0 0.0 0.0011792453 0.0026041667 0.0 0.010526316 0.007792208 0.0 0.0 0.0024096386 0.0022482015 0.0 9.2421443E-4 0.0 0.0 0.0 0.004636785 0.009569378 0.0 0.011299435 0.014925373 0.006655574 0.0036764706 0.006849315 0.0028248588 0.0 0.0012771392 0.0 0.0020408162 0.0 0.0 0.0 0.0 0.0 0.0017825312 0.0099502485 0.0 0.0 0.0032258064 0.0 0.0 0.0 0.0041899444 0.0 0.0 0.0 0.0055350554 0.0 0.0 0.016949153 0.0088495575 0.0033003301 0.0 0.0 0.0 0.0 0.009569378 0.0 0.005899705 0.0014992504 0.0015360983 0.0 0.0 0.0 0.0 0.0 0.0 0.0 0.0032786885 0.0 0.0 0.0 0.013215859 0.010067114 0.0 0.002631579 0.0 0.0 0.0 0.010695187 0.0 0.0 0.0 0.008298756 0.0 0.0 0.0020242915 0.0 0.0 0.006756757 0.0 0.0 0.0 0.0020120724 0.0 0.0 0.0 0.0073710075 0.0 0.0 0.0 0.0 0.0 0.0 0.0 0.0 0.0043290043 0.0029325513 0.0 0.0027051398 0.0 0.0 0.0 0.0 0.0 0.0 0.0 0.0 0.008230452 0.0021413276 0.0 0.0 0.0 0.016129032 0.0 0.0014044944 0.0 0.0 0.0 0.0031080032 0.0032051282 0.0 0.0 0.0 0.0 0.0 0.0 0.0 0.0 0.012820513 0.0 0.0 0.0 0.0 0.0 0.00952381 0.0 0.0 0.0 0.0070921984 0.0 0.0 0.0121951215 0.0 0.0 0.0038022813 0.0 0.0 0.0 0.0 0.0 0.0 0.006756757 0.0 0.0 0.011494253 0.0 0.0 0.009708738 0.0 0.0 0.0 0.0 0.0 0.0 0.0 0.0 0.0 0.0 0.011764706 0.0 0.0 0.0 0.0 0.0 0.012048192 0.0 0.0 0.0 0.0 0.0 0.0 0.0 0.0 0.0 0.0 0.009345794 0.0 0.0 0.01923077 0.0 0.0 0.0 0.014705882 0.0 0.0 0.0 0.0 0.05882353 0.0 0.0 0.0 0.01923077 0.011235955 0.026490066 0.041666668 1.0 0.011764706 0.0 0.0 0.0 0.0 0.0 0.0 0.0 0.0 0.0 0.0 0.0 0.016666668 0.0 0.0 0.0 0.0 0.0047393367 0.0 0.0 0.0 0.0 0.0 0.0 0.0 0.0 0.0 0.0 0.010416667 0.0 0.0 0.0 0.012987013 0.0 0.0 0.0 0.0 0.0 0.0 0.0 0.0 0.0 0.0 0.0 0.0 0.008333334 0.0 0.0 0.0 0.0 0.0 0.0 0.0 0.0 0.0 0.01754386 0.0 0.011235955 0.0030864198 0.0032786885 0.0 0.0 0.01438849 0.0 0.0 0.0 0.0 0.0 0.0078125 0.0 0.0 0.0 0.0 0.0 0.0 0.0 0.0 0.0 0.0 0.0 0.0 0.0 0.0 0.0 0.0 0.0 0.0 0.0 0.0 0.0 0.0 0.0 0.0 0.0 0.0 0.0 0.0 0.0 0.0018115942 0.0 0.0 0.0 0.0 0.0 0.0 0.0 0.0 0.0 0.0 0.0 0.0 0.0 0.0 0.0 0.0 0.0 0.0125 0.0 0.0 0.0 0.01923077 0.014492754 0.0 0.0 0.0 0.0 0.0 0.0 0.0 0.0 0.0 0.0 0.0 0.0 0.0 0.010309278 0.0 0.0 0.0 0.016393442 0.009090909 0.0 0.009803922 0.0 0.0 0.0 0.0 0.0 0.0 0.0 0.0 0.0 0.0 0.0 0.0 0.0 0.011494253 0.0 0.0 0.0 0.012820513 0.0 0.0 0.0 0.0 0.0 0.011235955 0.017857144 0.0 0.0 0.0 0.0 0.0074074073 0.013888889 0.0 0.0 0.0 0.0 0.0 0.0 0.0 0.0 0.011627907 0.0 0.0 0.0 0.0 0.0 0.0 0.0 0.0 0.0 0.0 0.0 0.0 0.0 0.0 0.0 0.010752688 0.029411765 0.0 0.0 0.0 0.0 0.015151516 0.0 0.0 0.0 0.0 0.0 0.0 0.0 0.0 0.0 0.0 0.0 0.0 0.0 0.0 0.0 0.0 0.0 0.0 0.0 0.0 0.0 0.0 0.0 0.0 0.0 0.0 0.0 0.0 0.016129032 0.0 0.0 0.0 0.0 0.011173184 0.0 0.0 0.0 0.0 0.0 0.0 0.0 0.0 0.0 0.0 0.0 0.0 0.0 0.0 0.0 0.0 0.0 0.0 0.0 0.0 0.0 0.0 0.0 0.0 0.0 0.0 0.0 0.0 0.0 0.0 0.0 0.0 0.0 0.1 0.0 0.0 0.0 0.0 0.0 0.0 0.0 0.0 0.0 0.0 0.013513514 0.0 0.0 0.0 0.0 0.0 0.0 0.0 0.017857144 0.0 0.0 0.0 0.0 0.0 0.0 0.0 0.0 0.0 0.011494253 0.0 0.0 0.032258064 0.0 0.0 0.0 0.0 0.0 0.0 0.0 0.0 0.0 0.0 0.0 0.0 0.0 0.0 0.0 0.0 0.0 0.0 0.0 0.16666667 0.0 0.0 0.0 0.0 0.0 0.019607844 0.0 0.0 0.0 0.0 0.0 0.0 0.0 0.015151516 0.0 0.0 0.0 0.0 0.0 0.0 0.0 0.0 0.0 0.0 0.0 0.03125 0.0 0.0 0.0 0.0 0.0 0.0 0.0 0.0 0.0 0.0 0.0 0.0 0.0 0.0 0.0 0.0 0.0 0.0 0.0 0.0 0.0 0.0 0.0 0.0 0.0 0.0 0.0 0.0 0.0 0.06666667 0.0 0.0 0.0 0.0 0.0 0.0 0.0 0.0 0.0 0.0 0.0 0.0 0.0 0.0 0.0 0.0 0.0 0.0 0.0 0.0 0.0 0.0 0.0 0.0 0.0 0.0 0.0 0.0 0.0 0.0 0.0 0.0 0.0 0.0 0.0 0.0 0.0 0.0 0.09090909 0.0 0.0 0.0 0.0 0.0 0.0 0.0 0.0 0.0 0.0 0.0 0.0 0.0 0.0 0.0 0.0 0.0 0.0 0.0 0.0 0.0 0.0 0.0 0.0 0.0 0.0 0.0 0.0 0.0 0.0 0.0 0.0 0.0 0.0 0.0 0.0 0.0 0.0 0.0 0.0 0.0 0.0 0.0 0.0625 0.0 0.0 0.0 0.0 0.0 0.0 0.0 0.0 0.0 0.0 0.0 0.0 0.0 0.0 0.0 0.0 0.0 0.0 0.0 0.11111111 0.0 0.0 0.0 0.0 0.0 0.0 0.0 0.0 0.0 0.0 0.0 0.0 0.0 0.0 0.0 0.0 0.0 0.0 0.0 0.0 0.0 0.0 0.0 0.0 0.0 0.0 0.0 0.0 0.0 0.0 0.0 0.0 0.0 0.0 0.0 0.0 0.0 0.0 0.0 0.0 0.0 0.0 0.0 0.0 0.0 0.0 0.0 0.0 0.0
planning 0.00318241 0.0 0.0027656064 0.0054545454 0.0031504817 0.0 0.0032803018 0.0 0.0 0.0032123632 0.0 0.0018848527 0.0 0.0 0.0 0.0 0.0 0.005988024 0.0069444445 0.0014619883 0.0018168972 0.0022988506 0.0 0.0 0.0020242915 0.0 0.0025367835 0.0 0.0024524832 0.0 0.0 0.0 0.0034501543 0.0 0.0054850876 0.0 0.0 0.0025062656 0.001633987 0.004103967 0.009803922 0.0125 0.0 0.0032722512 0.0 0.003147954 0.0 0.003929273 0.00877193 0.0 0.0 0.0 0.0038461538 0.0 0.0 0.0 0.0 0.0 0.008928572 0.0 0.0 0.0051706308 0.0 0.018072288 0.0 0.0 0.003816794 0.0 0.0 0.0 0.002762431 0.0 0.0 0.0 0.007633588 0.0 0.004166667 0.011904762 0.0088495575 0.018867925 0.0 0.0028985508 0.0375 0.0 0.0 0.0011792453 0.0026041667 0.0 0.0 0.0025974025 0.0 0.01724138 0.0024096386 0.0049460432 0.0 9.2421443E-4 0.011494253 0.0 0.0017452007 0.00618238 0.0 0.0 0.0 0.0 0.011647254 9.1911765E-4 0.0 0.0028248588 0.005319149 0.0012771392 0.0 0.0 0.0 0.0 0.012658228 0.0 0.0 0.0035650623 0.0049751243 0.016393442 0.0038240917 0.0 0.0 0.083333336 0.0 0.002793296 0.0 0.0 0.0 0.0018450185 0.0 0.0 0.0 0.0 0.00110011 0.0 0.0 0.0 0.0023310024 0.0 0.0 0.005899705 0.004497751 0.004608295 0.0 0.0 0.0 0.0 0.03508772 0.0 0.0044444446 0.0 0.0 0.0 0.0 0.0 0.0033557047 0.0 0.0 0.0125 0.0 0.0 0.0 0.0 0.011235955 0.011235955 0.016597511 0.0 0.013888889 0.0060728746 0.0 0.007633588 0.0 0.0 0.0 0.0 0.0010060362 0.010869565 0.0 0.0 0.004914005 0.013888889 0.007575758 0.0 0.0 0.0 0.004830918 0.0 0.0 0.0043290043 0.0 0.0 0.0027051398 0.0 0.0 0.0 0.0 0.0044444446 0.0 0.0 0.0 0.0 0.0032119914 0.0 0.027777778 0.022727273 0.0 0.0 0.0028089888 0.03448276 0.0 0.0 0.0015540016 0.0 0.0 0.0 0.009803922 0.0 0.0 0.0 0.0 0.012987013 0.012820513 0.0 0.0030075188 0.0 0.03773585 0.0 0.0 0.010416667 0.0 0.0 0.0070921984 0.004 0.0 0.0 0.0065789474 0.0 0.0 0.0 0.009009009 0.021276595 0.0 0.0 0.0 0.0 0.0 0.0 0.0 0.0 0.0 0.0 0.0 0.009345794 0.0074626864 0.0054945056 0.017857144 0.0 0.0 0.0 0.0 0.012345679 0.0 0.0 0.0 0.0 0.0 0.0 0.0 0.0 0.0 0.014285714 0.0 0.0 0.0 0.0 0.0 0.0 0.0 0.0 0.010752688 0.0 0.0 0.0 0.0 0.0 0.0 0.00990099 0.012658228 0.005291005 0.009090909 0.0 0.0 0.0 0.0 0.0 0.0 0.0 0.0 0.0 0.0 0.0 0.0 0.00591716 0.0 0.0 0.0 0.0 0.0 0.0 0.0 0.0 0.0 0.0 0.0 0.0 0.0 0.0 0.0 0.0 0.0 0.019417476 0.0 0.0 0.0 0.0 0.010309278 0.0 0.0052083335 0.007633588 0.0 0.0 0.012987013 0.0102739725 0.0 0.0 0.010309278 0.0 0.0 0.01754386 0.0 0.01724138 0.0 0.0 0.0 0.008333334 0.0 0.0 0.011111111 0.0 0.036363635 0.0 0.0 0.014285714 0.0 0.0 0.0 0.0 0.0 0.0 0.0 0.0 0.0 0.0057471264 0.015503876 0.0 0.0 0.032967035 0.0 0.0 0.004878049 0.0 0.0 0.0 0.0 0.0 0.0 0.012345679 0.036363635 0.010416667 0.0 0.0 0.0 0.0 0.0 0.0 0.0 0.0 0.0 0.0 0.0 0.0 0.0 0.0 0.0 0.015625 0.0 0.0 0.0 0.0 0.0 0.0 0.0 0.014492754 0.0 0.0 0.0 0.0 0.0 0.0 0.0 0.0 0.0 0.013513514 0.0 0.0 0.0 0.0 0.0 0.0 0.0 0.0 0.0 0.0 0.025974026 0.0 0.0 0.0 0.0 0.0 0.0 0.0 0.0 0.0 0.0 0.030927835 0.0 0.011363637 0.0 0.0 0.009090909 0.0 0.009803922 0.0 0.011235955 0.0 0.0 0.0 0.0 0.0 0.0 0.0 0.0 0.0 0.013333334 0.023809524 0.0 0.0 0.0 0.018691588 0.012820513 0.0 0.0 0.02 0.0 0.015037594 0.011235955 0.0 0.0 0.0 0.010989011 0.0 0.0 0.0 0.0 0.0 0.0 0.0 0.0 0.0 0.014084507 0.0 0.0 0.0 0.011764706 0.0 0.0 0.0 0.014285714 0.0 0.02 0.0 0.0 0.0 0.0 0.011235955 0.0 0.0 0.0 0.029411765 0.0 0.0 0.0 0.0 0.0 0.0 0.0 0.0 0.0 0.0 0.0 0.0 0.0 0.014084507 0.0 0.0 0.0 0.0 0.0 0.0 0.0 0.0 0.0 0.0 0.0 0.0 0.0 0.0054945056 0.0 0.0 0.0 0.0 0.0 0.0 0.0 0.0 0.0 0.0 0.011173184 0.0 0.0 0.021276595 0.0 0.0 0.0 0.0 0.016393442 0.0 0.0 0.013513514 0.0 0.0 0.0 0.0 0.0 0.027027028 0.0 0.0 0.0 0.010869565 0.0 0.0 0.0 0.018867925 0.0 0.0 0.0 0.0 0.0 0.0 0.0 0.0 0.0 0.0 0.0 0.0 0.0 0.0 0.0 0.0 0.0 0.0 0.0 0.0 0.0 0.0 0.0 0.0 0.0 0.0 0.0 0.017857144 0.0 0.01369863 0.0 0.0 0.0 0.0 0.0 0.0 0.0 0.0 0.0 0.0 0.0 0.0 0.0 0.0 0.0 0.0 0.0 0.0 0.0 0.0 0.0 0.0 0.0 0.0 0.0 0.0 0.0 0.0 0.0 0.023809524 0.0 0.0 0.014285714 0.0 0.0 0.0 0.0 0.0 0.0 0.0 0.0 0.0 0.0 0.0 0.0 0.02 0.0 0.0 0.0 0.0 0.0 0.039215688 0.0 0.0 0.0 0.0 0.0 0.0 0.0 0.0 0.0 0.0 0.0 0.0 0.0 0.0 0.0 0.0 0.0 0.0 0.0 0.0 0.0 0.0 0.0 0.0 0.0 0.0 0.0 0.0 0.0 0.0 0.0 0.0 0.0 0.0 0.0 0.0 0.0 0.0 0.0 0.0 0.0 0.0 0.0 0.0 0.0 0.0 0.0 0.0 0.0 0.0 1.08 0.0 0.039215688 0.0 0.0 0.0 0.0 0.0 0.0 0.0 0.0 0.0 0.0 0.0 0.0 0.0 0.0 0.0 0.0 0.0 0.0 0.0 0.0 0.0 0.0 0.0 0.0 0.0 0.0 0.0 0.0 0.0 0.0 0.2 0.0 0.0 0.0 0.0 0.0 0.0 0.0 0.0 0.0 0.0 0.0 0.0 0.0 0.0 0.09090909 0.0 0.0 0.0 0.0 0.0 0.0 0.0 0.0 0.0 0.0 0.0 0.0 0.0 0.0 0.0 0.0 0.0 0.0 0.0 0.0 0.0 0.0 0.0 0.0 0.0 0.0 0.0 0.0 0.0 0.0 0.0 0.0 0.0 0.0 0.0 0.0 0.0 0.0 0.0 0.0 0.0 0.0 0.0 0.0 0.0 0.0 0.0 0.0 0.0 0.0 1.0 0.0 0.0 0.0 0.0 0.0 0.0 0.0 0.0 0.0 0.0 0.0 0.0 0.0 0.0 0.0 0.0 0.0 0.0 0.0 0.0 0.0 0.0 0.0 0.0 0.0 0.0 0.0 0.0 0.0 0.0 0.0 0.0 0.0 0.0 0.0 0.0 0.0
canyon 2.169825E-4 0.0 6.9424685E-4 0.0 3.7064494E-4 0.0 3.2803018E-4 0.0 0.0 6.077444E-4 0.0 3.4270048E-4 0.0 0.0 0.0 0.0 0.0 0.0 0.0013888889 0.0014619883 6.056324E-4 0.0 0.0 0.0 0.0 0.0 0.0 0.0 4.087472E-4 0.0 0.0 0.0 9.079354E-4 0.0 0.0 0.0 0.0 0.0 0.003267974 0.0 0.0 0.0 0.0 0.0013089005 0.0 0.001573977 0.0 0.0 0.0 0.0 0.0 0.0 0.0 0.0028089888 0.0 0.0028011205 0.0 0.0 0.0029761905 0.0 0.0 0.0 0.0 0.0 0.0 0.0 0.0 0.0 0.0 0.0 0.0 0.0 0.0 0.0 0.0 0.0 0.0013888889 0.0 0.0 0.0 0.0 9.6618355E-4 0.0125 0.0 0.0 0.0 0.0 0.0 0.010526316 0.0 0.0 0.0 0.0 0.0 0.0 0.0 0.0 0.0 0.0 0.0 0.0 0.0 0.011299435 0.0 0.0 0.0 0.0 0.0 0.0026595744 0.0 0.0 0.0 0.0 0.0 0.0 0.0 0.0 0.0 0.0 0.0 0.0 0.0 0.0 0.0 0.0 0.0 0.0 0.0 0.0 0.0 0.0 0.0 0.0 0.0 0.0 0.0 0.0 0.0 0.0023310024 0.0 0.0 0.0 0.0 0.0 0.0 0.0 0.0 0.0 0.0 0.0 0.0 0.0 0.0 0.0 0.0 0.0 0.0 0.0 0.0 0.0 0.0 0.0 0.0 0.0 0.0 0.0 0.0 0.0 0.0 0.0 0.0 0.0 0.0 0.0 0.0 0.0 0.0 0.0 0.0 0.0 0.0 0.0 0.0 0.0 0.0 0.0 0.0 0.0 0.0 0.0 0.0 0.0 0.0 0.0 0.0 0.0 0.0 0.0022222223 0.0 0.0 0.0 0.0 0.0010706638 0.0 0.0 0.0 0.0 0.0 0.004213483 0.0 0.0 0.0 7.770008E-4 0.0 0.0 0.0 0.0 0.0 0.0 0.0 0.0 0.0 0.0 0.0 0.0 0.0 0.0 0.0 0.0 0.0 0.0 0.0 0.014184397 0.0 0.0 0.0 0.0 0.0 0.0 0.0 0.0 0.0 0.0 0.0 0.0 0.0 0.0 0.0 0.0 0.0 0.0 0.0 0.0 0.0 0.0 0.0 0.0 0.0 0.0 0.0 0.0 0.0 0.0 0.0 0.0 0.0 0.0 0.0 0.0 0.0 0.0 0.0 0.0 0.0 0.0 0.0 0.010638298 0.0 0.0 0.0 0.0 0.0 0.0 0.0 0.0 0.016129032 0.0 0.0 0.0 0.0 0.0 0.0 0.0 0.0 0.0 0.0 0.0 0.0 0.0 0.0 0.0 0.0 0.0 0.0 0.0 0.0 0.0 0.0 0.0 0.0 0.0 0.0 0.0 0.0 0.0 0.0 0.0 0.0 0.0 0.0 0.0 0.0 0.0 0.0 0.0 0.0 0.0 0.0 0.0 0.0 0.0 0.0 0.0 0.0 0.0 0.0 0.0 0.0 0.0 0.0 0.0 0.0 0.0 0.0 0.0 0.0 0.0 0.0 0.0 0.0 0.0 0.0 0.0 0.0 0.0 0.0 0.0 0.0 0.0 0.0 0.0 0.0 0.0 0.0 0.0 0.0 0.0 0.0 0.0 0.0 0.0 0.0 0.0 0.0 0.0 0.0 0.0 0.0 0.0 0.0 0.0 0.0 0.0 0.0 0.0 0.0 0.0 0.020833334 0.0 0.0 0.0 0.0 0.0 0.0 0.0 0.0 0.0 0.0 0.0018115942 0.0 0.0 0.0 0.0 0.0 0.0 0.0 0.0 0.0 0.0 0.0 0.0 0.0 0.0 0.0 0.0 0.0 0.0 0.0 0.0 0.0 0.0 0.0 0.0 0.0 0.0 0.0 0.0 0.0 0.0 0.0 0.0 0.0 0.0 0.0 0.0 0.0 0.0 0.0 0.0 0.0 0.0 0.0 0.0 0.0 0.0 0.0 0.0 0.0 0.0 0.0 0.0 0.0 0.0 0.0 0.0 0.0 0.0 0.0 0.0 0.0 0.0 0.016666668 0.0 0.0 0.0 0.0 0.0 0.0 0.0 0.0 0.0 0.0 0.0 0.0 0.0 0.0 0.0 0.0 0.0 0.0 0.0 0.0 0.0 0.0 0.0 0.0 0.0 0.0 0.0 0.0 0.0 0.0 0.0 0.0 0.0 0.0 0.0 0.0 0.0 0.0 0.0 0.0 0.0 0.0 0.0 0.0 0.0 0.0 0.0 0.0 0.0 0.0 0.0 0.0 0.0 0.0 0.0 0.0 0.0 0.0 0.0 0.0 0.0 0.0 0.0 0.0 0.0 0.0 0.0 0.0 0.0 0.0 0.0 0.0 0.0 0.0 0.0 0.0 0.0 0.0 0.0 0.0 0.0 0.0 0.0 0.0 0.0 0.0 0.0 0.0 0.0076923077 0.0 0.0 0.0 0.0 0.0 0.0 0.0 0.0 0.0 0.0 0.0 0.0 0.0 0.0 0.0 0.0 0.0 0.0 0.0 0.0 0.0 0.0 0.0 0.0 0.0 0.0 0.0 0.0 0.0 0.0 0.0 0.0 0.0 0.0 0.0 0.0 0.0 0.0 0.0 0.0 0.0 0.0 0.0 0.0 0.0 0.0 0.0 0.0 0.0 0.0 0.0 0.0 0.0 0.0 0.0 0.0 0.0 0.0 0.0 0.0 0.0 0.0 1.3333334 0.0 0.0 0.0 0.0 0.0 0.0 0.0 0.0 0.0 0.0 0.0 0.0 0.0 0.0 0.0 0.0 0.0 0.0 0.0 0.0 0.0 0.0 0.0 0.0 0.0 0.0 0.0 0.0 0.0 0.0 0.0 0.0 0.0 0.0 0.0 0.0 0.0 0.0 0.0 0.0 0.0 0.0 0.0 0.0 0.0 0.0 0.0 0.0 0.0 0.0 0.0 0.0 0.0 0.0 0.0 0.0 0.0 0.0 0.0 0.0 0.0 0.0 0.0 0.0 0.0 0.0 0.0 0.0 0.0 0.0 0.0 0.0 0.0 0.0 0.0 0.0 0.0 0.0 0.0 0.0 0.0 0.0 0.0 0.0 0.0 0.0 0.0 0.0 0.0 0.0 0.0 0.0 0.0 0.0 0.0 0.0 0.0 0.0 0.0 0.0 0.0 0.0 0.0 0.0 0.0 0.0 0.0 0.0 0.0 0.0 0.0 0.0 0.0 0.0 0.0 0.0 0.0 0.0 0.0 0.0 0.0 0.0 0.0 0.0 0.0 0.0 0.0 0.0 0.0 0.0 0.0 0.0 0.0 0.0 0.0 0.0 0.0 0.0 0.0 0.0 0.0 0.0 0.0 0.0 0.0 0.0 0.0 0.0 0.0 0.0 0.0 0.0 0.0 0.0 0.0 0.0 0.0 0.0 0.0 0.0 0.0 0.0 0.0 0.0 0.0 0.0 0.0 0.0 0.0 0.0 0.0 0.0 0.0 0.0 0.0 0.0 0.0 0.0 0.0 0.0 0.0 0.0 0.0 0.0 0.0 0.0 0.0 0.0 0.0 0.0 0.0 0.0 0.0 0.0 0.0 0.0 0.0 0.0 0.0 0.0 0.0 0.0 0.0 0.0 0.0 0.0 0.0 0.0 0.0 0.0 0.0 0.0 0.0 0.0 0.0 0.0 0.0 0.0 0.0
delay 0.001012585 0.0054644807 7.739145E-4 0.0013636363 1.8532247E-4 0.0 6.5606035E-4 0.0 0.0 6.077444E-4 0.0 0.0017135025 0.0 0.0 0.0 0.0 0.0 0.0 0.0 0.0 8.075098E-4 0.0 0.0 0.0 0.0020242915 0.0 0.0010147133 0.0 4.087472E-4 0.0 6.844627E-4 0.0 9.079354E-4 0.0 0.0 0.0 0.0 0.0 0.001633987 0.0018239854 0.009803922 0.0 0.0 0.0 0.0 0.0010493179 0.0 0.003929273 0.0 0.0 0.0 0.0 0.0 0.0014044944 0.0 0.0014005603 0.0 0.0 0.0 0.0 0.0 0.0010341262 0.0 0.0 0.0 0.0 0.0 0.0 0.0 0.0 0.0013812155 0.009302326 0.004901961 0.0 0.007633588 0.0 6.9444446E-4 0.0 0.0 0.0 0.0 0.0 0.0 0.0 0.0 0.0023584906 0.0026041667 0.0 0.0 0.0 0.0 0.0 0.0016064257 0.0013489209 0.0 9.2421443E-4 0.0 0.0 0.0017452007 0.0 0.0 0.0 0.0 0.0 0.0 9.1911765E-4 0.0 0.0 0.0 0.0 0.0 0.0 0.0 0.0 0.012658228 0.0 0.0 0.0 0.0 0.0 0.0019120459 0.0032258064 0.0 0.0 0.005319149 0.002793296 0.0 0.0 0.0 0.0018450185 0.0 0.0 0.0 0.0 0.0 0.0088495575 0.0 0.0 0.0046620048 0.0 0.0 0.0 0.0 0.0 0.0 0.0 0.0 0.0 0.0 0.0 0.0 0.0 0.0 0.0 0.0 0.0 0.0 0.0 0.0 0.0 0.0 0.0 0.0 0.0 0.0 0.02247191 0.004149378 0.0 0.0 0.004048583 0.0 0.0 0.006756757 0.0 0.0 0.0 0.0 0.0 0.0 0.0 0.0 0.0 0.0 0.0 0.0 0.0 0.0 0.0 0.0 0.0 0.0 0.0 0.0018034265 0.0 0.0 0.0 0.0 0.0 0.0 0.0 0.0 0.0 0.0010706638 0.0 0.0 0.0 0.0 0.0 0.0 0.0 0.0 0.0 0.0 0.0 0.00591716 0.0 0.0 0.0 0.0 0.0 0.0 0.0 0.0 0.0 0.0 0.014925373 0.0 0.0 0.0 0.0 0.0 0.0 0.0 0.0 0.0 0.0 0.0 0.0 0.0 0.0 0.0 0.0 0.0 0.0 0.0 0.006756757 0.0 0.0 0.0 0.0 0.0 0.0 0.0 0.0 0.0074626864 0.0 0.0 0.0 0.0 0.0 0.0 0.0 0.0 0.007575758 0.0 0.0 0.0 0.0 0.0 0.0 0.0 0.0 0.0 0.0 0.0 0.0 0.0 0.0 0.0 0.0 0.0 0.0 0.0 0.0 0.0 0.0 0.0 0.0 0.012658228 0.0 0.0 0.0 0.03508772 0.0 0.0 0.0 0.0 0.0 0.0 0.0 0.0 0.0 0.0 0.0 0.0 0.0 0.0 0.0 0.0 0.0 0.0 0.0 0.0 0.0 0.0 0.0057142857 0.0 0.0 0.0 0.0 0.0 0.0 0.0 0.0 0.0 0.0 0.0 0.0 0.0052083335 0.0 0.0 0.0 0.0 0.0 0.0 0.0 0.0 0.0 0.0 0.0 0.0 0.0 0.0 0.0 0.0 0.0 0.0 0.0 0.0 0.0 0.0 0.0 0.014285714 0.0 0.0 0.0 0.0 0.0 0.0 0.0 0.0 0.0 0.0 0.0 0.0 0.0 0.0 0.0 0.0 0.0 0.0 0.0 0.0 0.0 0.018181818 0.0 0.0 0.0 0.0 0.010416667 0.0 0.0 0.0 0.03846154 0.0 0.0 0.0 0.0 0.0 0.0 0.0 0.0 0.0 0.0 0.0 0.0 0.0 0.0 0.0 0.0 0.019607844 0.0 0.0 0.0 0.0 0.0 0.0 0.0 0.0 0.0 0.0 0.0 0.0 0.0 0.0 0.0 0.0 0.0 0.0 0.0 0.0 0.0 0.0 0.0 0.0 0.0 0.0 0.0 0.0 0.0 0.0 0.0 0.0 0.0 0.0 0.0 0.0 0.0 0.0 0.0 0.0 0.0 0.0 0.0 0.0 0.0 0.0 0.0 0.0 0.0 0.0 0.0 0.0 0.0 0.0 0.0 0.0 0.0 0.0 0.0 0.0 0.0 0.0 0.02 0.0 0.0 0.0 0.0 0.0 0.0 0.0 0.0 0.0 0.0 0.0 0.0 0.0 0.03508772 0.00729927 0.0 0.0 0.0 0.0 0.0 0.0 0.0 0.0 0.0 0.0 0.0 0.0 0.0 0.0 0.0 0.0 0.0 0.0 0.0 0.0 0.0 0.0 0.012345679 0.0 0.0 0.0 0.0 0.0 0.0 0.0 0.0 0.0 0.0 0.0 0.0 0.0 0.0 0.0 0.0 0.0 0.0 0.0 0.0 0.0 0.0 0.0 0.0 0.0 0.0 0.0 0.0 0.0 0.0 0.0125 0.0 0.0 0.0 0.0 0.0 0.0 0.0 0.0 0.0 0.0 0.0 0.0 0.0 0.0 0.0 0.0 0.0 0.0 0.0 0.007142857 0.0 0.0 0.0 0.0 0.0 0.0 0.0 0.014285714 0.0 0.045454547 0.0 0.0 0.0 0.0 0.0 0.0 0.0 0.0 0.0 0.0 0.0 0.0 0.0 0.0 0.0 0.0 0.0 0.0 0.0 0.0 0.0 0.0 0.0 0.0 0.0 0.0 0.0 0.0 0.0 0.0 0.0 0.0 0.0 0.0 0.0 0.0 0.0 0.0 0.0 0.0 0.0 0.0 0.0 0.0 0.0 0.0 0.0 0.0 0.0 0.0 0.0 0.0 0.0 0.0 0.0 0.0 0.0 0.0 0.0 0.016129032 0.0 0.0 0.0 0.0 0.0 0.0 0.0 0.0 0.0 0.0 0.0 0.0 0.0 0.0 0.0 0.0 0.0 0.0 0.0 0.0 0.0 0.0 0.0 0.0 0.0 0.0 0.0 0.0 0.0 0.0 0.0 0.0 0.0 0.0 0.0 0.0 0.0 0.0 0.0 0.0 0.0 0.0 0.0 0.017857144 0.0 0.0 0.0 0.0 0.0 0.0 0.0 0.0 0.0 0.0 0.0 0.0 0.0 0.0 0.0 0.045454547 0.0 0.0 0.0 0.0 0.0 0.0 0.0 0.0 0.0 0.0 0.0 1.0 0.0 0.0 0.0 0.0 0.0 0.0 0.0 0.0 0.0 0.0 0.0 0.0 0.0 0.0 0.0 0.0 0.0 0.0 0.0 0.0 0.0 0.0 0.0 0.0 0.0 0.0 0.0 0.0 0.0 0.0 0.0 0.0 0.0 0.0 0.0 0.0 0.0 0.0 0.0 0.0 0.0 0.0 0.0 0.0 0.0 0.0 0.0 0.0 0.0 0.0 0.0 0.0 0.0 0.0 0.0 0.0 0.0 0.0 0.0 0.0 0.0 0.0 0.0 0.0 0.0 0.0 0.0 0.0 0.0 0.0 0.0 0.0 0.0 0.0 0.0 0.0 0.0 0.0 0.0 0.0 0.0 0.0 0.0 0.0 0.0 0.0 0.0 0.0 0.0 0.0 0.0 0.0 0.0 0.0 0.0 0.0 0.0 0.0 0.0 0.0 0.0 0.0 0.0 0.0 0.0 0.0 0.0 0.0 0.0 0.0 0.0 0.0 0.0 0.0 0.0 0.0 0.0 0.0 0.0 0.0 0.0 0.0 0.0 0.0 0.0 0.0 0.0 0.0 0.0 0.0 0.0 0.0 0.0 0.0 0.0 0.0 0.0 0.0
size 0.0036887024 0.0 0.002151027 4.5454546E-4 0.0035211267 0.0 0.0027882566 0.0 0.006849315 0.0022573364 0.0 0.0039410554 0.0043290043 0.0 0.0 0.00729927 0.0 0.005988024 0.0 0.0 0.0018168972 0.0022988506 0.0 0.011135858 0.010121457 0.0 0.0035514967 0.0 0.001021868 0.0 0.0027378509 0.0 0.002542219 0.008333334 0.0027425438 0.004878049 0.0 0.0025062656 0.011437909 0.0013679891 0.009803922 0.0 0.0 0.002617801 0.0 0.0036726128 0.0 0.00589391 0.0 0.009259259 0.002617801 0.0 0.0 0.0014044944 0.0 0.0028011205 0.0 0.0 0.017857144 0.0 0.0 0.0020682523 0.0 0.0 0.0 0.022222223 0.003816794 0.0 0.0127795525 0.0 0.002762431 0.0 0.0 0.0 0.007633588 0.0 0.0013888889 0.0 0.017699115 0.018867925 0.0 0.0028985508 0.0 0.0 0.003921569 0.003537736 0.0 0.0 0.0 0.0025974025 0.030303031 0.01724138 8.0321287E-4 0.0013489209 0.0 9.2421443E-4 0.0 0.0 0.0017452007 0.00309119 0.0 0.0 0.0 0.0 0.0 0.002757353 0.0 0.0028248588 0.0 6.385696E-4 0.011764706 0.006122449 0.0 0.0024570024 0.012658228 0.0 0.0 0.0035650623 0.0049751243 0.0 0.0057361377 0.0 0.0 0.083333336 0.005319149 0.002793296 0.0 0.0 0.0 0.009225092 0.0 0.0 0.0 0.0 0.00220022 0.017699115 0.0 0.0 0.0023310024 0.0 0.014084507 0.0 0.0014992504 0.0030721966 0.0 0.0 0.0 0.0 0.0 0.0 0.0044444446 0.0 0.0 0.0 0.019417476 0.0 0.0 0.0 0.002631579 0.0125 0.0 0.0 0.0053475937 0.0 0.0 0.0 0.004149378 0.0 0.013888889 0.0 0.0 0.0 0.0 0.0 0.0 0.0 0.0020120724 0.0 0.0 0.0 0.00982801 0.0 0.0 0.0 0.008720931 0.0 0.0 0.006756757 0.0 0.0043290043 0.0 0.0 9.0171327E-4 0.0 0.0 0.006423983 0.0 0.0 0.0 0.0 0.0 0.0 0.0032119914 0.0 0.0 0.0 0.0 0.0 0.0028089888 0.03448276 0.0 0.0 7.770008E-4 0.0 0.0 0.0 0.0 0.0 0.0 0.0 0.0 0.0 0.0 0.0 0.0015037594 0.0 0.0 0.0 0.0 0.0 0.014705882 0.0 0.0 0.004 0.0 0.0 0.0 0.0 0.015209125 0.013157895 0.0 0.0 0.0 0.0 0.0 0.0033783785 0.0 0.0 0.011494253 0.016129032 0.0 0.019417476 0.0 0.018691588 0.0 0.0 0.0 0.0 0.0 0.0 0.0 0.012345679 0.0 0.0 0.0 0.0 0.0 0.0 0.0 0.0 0.0 0.0 0.0 0.0 0.0 0.0 0.0 0.0050251256 0.0 0.0 0.010752688 0.0 0.0 0.0 0.031746034 0.0 0.0 0.0 0.0 0.0 0.0 0.019607844 0.0 0.0 0.0 0.0 0.02247191 0.013245033 0.010416667 0.0 0.0 0.0 0.0 0.0 0.018518519 0.0 0.0 0.0 0.03448276 0.0 0.0 0.0 0.0 0.0 0.0 0.0 0.0 0.0 0.0 0.036363635 0.008064516 0.0 0.0 0.027027028 0.013157895 0.0 0.0 0.0 0.0 0.007633588 0.0 0.0 0.0 0.0102739725 0.0 0.0 0.0 0.0 0.0 0.0 0.0 0.0 0.0 0.0 0.0 0.0 0.041666668 0.00729927 0.0 0.0 0.0 0.0 0.0 0.0 0.0 0.01754386 0.0 0.0 0.0 0.0 0.0 0.0 0.007194245 0.0 0.0 0.0 0.0 0.0 0.0 0.0 0.0 0.02 0.0 0.0 0.0 0.0 0.0 0.0 0.0 0.0 0.0 0.0 0.04 0.03846154 0.0070422534 0.02366864 1.173913 0.0 0.0 0.0 0.0 0.0 0.0 0.0 0.0 0.0 0.0 0.0 0.0036231885 0.0 0.0 0.018867925 0.0 0.0 0.0 0.0 0.0 0.0 0.0 0.0 0.012048192 0.0 0.0 0.0 0.0 0.0 0.0 0.0 0.0 0.0 0.0 0.0 0.0 0.0 0.0 0.0 0.0 0.0 0.0 0.0 0.006802721 0.0 0.0 0.0 0.0 0.010309278 0.0 0.011363637 0.018181818 0.0 0.0 0.0 0.009803922 0.0 0.0 0.0 0.0 0.0 0.0 0.0 0.0 0.0 0.0 0.0 0.0 0.0 0.0 0.0 0.0 0.018691588 0.0 0.0 0.0 0.0 0.0 0.030075189 0.0 0.0 0.06 0.0 0.0 0.014925373 0.0 0.0 0.0 0.017857144 0.0 0.0 0.00729927 0.0 0.0 0.0 0.0 0.0 0.011764706 0.0 0.0 0.0 0.0 0.0 0.02 0.0 0.0 0.0 0.0 0.0 0.0 0.0 0.0 0.0 0.0 0.0 0.0 0.0 0.0 0.0 0.0 0.0 0.0 0.0 0.0 0.0 0.0 0.0 0.0 0.0 0.0 0.0 0.0 0.015151516 0.0 0.0 0.0 0.01369863 0.0 0.0 0.0 0.0 0.0 0.0 0.0 0.0 0.0 0.0 0.0 0.0 0.0 0.0 0.005586592 0.0 0.0 0.0 0.0 0.0 0.0 0.0 0.0 0.0 0.012048192 0.0 0.0 0.0 0.0 0.0 0.0 0.0 0.0 0.016949153 0.0 0.0 0.0 0.0 0.0 0.0 0.0 0.0 0.0 0.0 0.0 0.0 0.0 0.0 0.0 0.0 0.0 0.0 0.0 0.0 0.0 0.0 0.0 0.0 0.0 0.0 0.0 0.0 0.014705882 0.0 0.0 0.0 0.0 0.0 0.0 0.0 0.0 0.0 0.010752688 0.0 0.0 0.0 0.0 0.0 0.0 0.0 0.0 0.0 0.0 0.0 0.0 0.0 0.0 0.0 0.0 0.0 0.0 0.0 0.0 0.0 0.0 0.0 0.0 0.0 0.0 0.0 0.0 0.0 0.0 0.0 0.0 0.0 0.0 0.0 0.0 0.0 0.0 0.0 0.0 0.0 0.0 0.0 0.0 0.0 0.0 0.019607844 0.0 0.0 0.0 0.0 0.0 0.0 0.0 0.0 0.0 0.0 0.0 0.0 0.0 0.0 0.0 0.0 0.0 0.0 0.0 0.0625 0.0 0.0 0.0 0.0 0.0 0.0 0.0 0.0 0.0 0.0 0.0 0.0 0.0 0.0 0.0 0.0 0.0 0.0 0.0 0.0 0.0 0.0 0.0 0.0 0.0 0.0 0.0 0.0 0.0 0.0 0.0 0.0 0.0 0.0 0.0 0.0 0.0 0.0 0.0 0.0 0.0 0.0 0.0 0.0 0.0 0.0 0.045454547 0.0 0.0 0.0 0.0 0.0 0.0 0.0 0.0 0.0 0.0 0.0 0.0 0.0 0.0 0.0 0.0 0.0 0.0 0.0 0.0 0.0 0.0 0.0 0.0 0.0 0.0 0.0 0.0 0.0 0.0 0.0 0.0 0.0 0.0 0.0 0.0 0.0 0.0 0.0 0.0 0.0 0.0 0.0 0.0 0.0 0.0 0.0 0.0 0.0 0.0 0.0 0.0 0.0 0.0 0.0 0.0 0.0 0.0 0.0 0.0 0.0 0.0 0.0 0.0 0.0 0.0 0.0 0.0 0.0 0.0 0.0 0.0 0.0 0.0 0.0 0.0 0.0 0.0 0.0 0.0 0.0 0.0 0.0 0.0 0.0 0.0 0.0 0.0 0.0 0.0 0.0 0.0 0.0 0.0 0.0 0.0 0.0 0.0 0.0 0.0 0.0 0.0 0.0 0.0 0.0 0.0 0.0 0.0 0.0 0.0 0.0 0.0 0.0 0.0 0.0 0.0 0.0 0.0 0.0 0.0 0.0 0.0
peace 0.004773615 0.0 0.0037785238 0.004090909 0.0033358042 0.0 0.0034443168 0.0 0.006849315 0.0036464664 0.0 0.0047978065 0.0043290043 0.0066225166 0.028985508 0.00729927 0.0 0.0 0.0013888889 0.0014619883 0.0027253458 0.0022988506 0.0 0.0 0.004048583 0.0 0.00304414 0.0 0.0049049663 0.0 6.844627E-4 0.011363637 0.0029053933 0.0 0.0030853616 0.004878049 0.0 0.0050125313 0.0 0.0031919745 0.0 0.0 0.0 0.0058900523 0.0 0.0020986358 0.013452915 0.00589391 0.00877193 0.0 0.002617801 0.0 0.0 0.004213483 0.005154639 0.004201681 0.0 0.0 0.005952381 0.0 0.0 0.0031023785 0.0 0.0 0.0 0.0 0.0 0.0 0.0031948881 0.041666668 0.002762431 0.023255814 0.004901961 0.028846154 0.0 0.0 0.004166667 0.0 0.0 0.018867925 0.0 0.0 0.0 0.0 0.007843138 0.007075472 0.0 0.024844721 0.0 0.005194805 0.0 0.0 0.0024096386 0.0026978417 0.0054347827 0.0064695007 0.0 0.03125 0.0034904014 0.00309119 0.0023923444 0.0 0.0 0.0 0.0 0.008272059 0.006849315 0.0056497175 0.007978723 0.003192848 0.005882353 0.0020408162 0.0 0.0 0.0 0.0 0.0 0.0017825312 0.0 0.016393442 0.0019120459 0.0 0.0038022813 0.0 0.0 0.002793296 0.0 0.0 0.0 0.003690037 0.0 0.0 0.0 0.0 0.00440044 0.0 0.0 0.0 0.0023310024 0.0 0.0 0.0029498525 0.0067466265 0.0030721966 0.019607844 0.0 0.005988024 0.0 0.0 0.0 0.0 0.0 0.0 0.0 0.0 0.0 0.0 0.018518519 0.005263158 0.0 0.013157895 0.011764706 0.0053475937 0.0 0.011235955 0.02247191 0.016597511 0.0 0.0 0.008097166 0.0 0.0 0.0 0.0 0.0056497175 0.0 0.0070422534 0.0 0.0 0.0 0.0024570024 0.0 0.0 0.0 0.0029069767 0.0 0.004830918 0.006756757 0.0 0.017316017 0.0 0.0053475937 0.0 0.0 0.0 0.0021413276 0.0 0.0022222223 0.0 0.0 0.023529412 0.0 0.0010706638 0.0 0.0 0.0 0.0 0.0 0.004213483 0.0 0.04 0.0 0.0023310024 0.0032051282 0.0295858 0.0 0.009803922 0.0 0.0 0.0 0.0 0.0 0.012820513 0.0 0.0015037594 0.0 0.0 0.0 0.0 0.010416667 0.014705882 0.009259259 0.0 0.006 0.0 0.0 0.0 0.012048192 0.0 0.0 0.0 0.0 0.009615385 0.0 0.0 0.0 0.0 0.0 0.011494253 0.0 0.015873017 0.0 0.01010101 0.0 0.0 0.0 0.0 0.0 0.0 0.0 0.0 0.024691358 0.0 0.0 0.0 0.0 0.0 0.0 0.0 0.0 0.0 0.0 0.0 0.0 0.0 0.0 0.0 0.0 0.0 0.0 0.0 0.0 0.0 0.0 0.0 0.0 0.0 0.00990099 0.0 0.02116402 0.0 0.0 0.0 0.008928572 0.0 0.0 0.0 0.0 0.0 0.0 0.0 0.0 0.0 0.0 0.0 0.0 0.0 0.0 0.011494253 0.0 0.0 0.0 0.0 0.0 0.0 0.0 0.0 0.0047393367 0.014705882 0.0 0.0 0.019417476 0.0 0.0 0.0 0.0 0.0 0.0 0.0 0.0 0.0 0.0 0.0 0.01369863 0.0 0.0 0.005154639 0.0 0.0 0.01754386 0.0 0.01724138 0.0 0.0 0.0 0.0 0.0 0.01459854 0.0 0.0 0.0 0.0056179776 0.0 0.0 0.0 0.0 0.0 0.0 0.0030864198 0.0 0.014285714 0.0 0.01438849 0.0057471264 0.0 0.010204081 0.0 0.0 0.0078125 0.03846154 0.019512195 0.0 0.0 0.0 0.018181818 0.0 0.0 0.0 0.0 0.010416667 0.0 0.0 0.0 0.0 0.0 0.00591716 0.0 0.010416667 0.0 0.0 0.0 0.009803922 0.0 0.0 0.0 0.0 0.0 0.0 0.0036231885 0.00862069 0.0 0.0 0.0 0.0 0.03448276 0.0 0.0 0.016393442 0.020833334 0.0 0.0 0.0 0.0 0.0 0.0 0.0 0.0 0.0 0.0 0.0 0.0 0.0 0.0 0.0 0.012987013 0.0 0.0 0.0 0.0 0.0 0.0 0.0 0.0 0.0 0.0 0.010309278 0.0 0.0 0.0 0.016393442 0.0 0.0 0.019607844 0.0 0.0 0.0 0.0 0.0 0.0 0.0 0.0 0.0 0.0 0.0 0.0 0.0 0.011494253 0.0 0.0 0.0 0.0 0.0 0.0054644807 0.0 0.0 0.0 0.011235955 0.0 0.0 0.0 0.0 0.0 0.0 0.0 0.0 0.0 0.0 0.0 0.00729927 0.0 0.0 0.0 0.0 0.0 0.0 0.0 0.0 1.060606 0.014285714 0.0 0.02 0.0 0.0 0.0 0.0 0.011235955 0.0 0.0 0.0 0.0 0.0 0.0 0.0 0.0 0.0 0.0 0.0 0.0 0.01724138 0.0 0.0 0.0 0.0 0.028169014 0.0 0.0 0.0 0.0 0.0 0.0 0.0 0.0 0.0 0.01369863 0.0 0.0 0.0 0.0 0.0 0.0 0.0 0.0 0.0 0.0 0.014285714 0.0 0.0 0.0 0.005586592 0.0 0.0 0.0 0.016949153 0.0 0.0 0.0 0.0 0.0 0.0 0.0 0.0 0.0 0.0 0.0 0.0 0.0 0.0 0.0 0.0 0.0 0.014285714 0.0 0.0 0.0 0.05263158 0.0 0.0 0.0 0.0 0.03076923 0.0 0.0 0.0 0.0 0.0078125 0.0 0.0 0.0 0.0 0.0 0.030303031 0.0 0.0 0.0 0.0 0.03448276 0.0 0.0 0.0 0.0 0.0 0.0 0.0 0.0 0.0 0.0 0.0 0.0 0.0 0.0 0.0 0.0 0.0 0.04 0.0 0.0 0.0 0.0 0.0 0.0 0.0 0.0 0.0 0.0 0.0 0.0 0.0 0.0 0.0 0.0 0.0 0.0 0.016129032 0.0 0.0 0.0 0.0 0.017857144 0.0 0.012048192 0.1764706 0.0 0.0 0.0 0.0 0.0 0.0 0.0 0.0 0.0 0.0 0.0 0.037037037 0.0 0.0 0.0 0.0 0.0 0.0 0.0 0.0 0.0 0.0 0.0 0.0 0.0 0.0 0.0 0.0 0.0 0.0 0.0 0.0 0.0 0.0 0.0 0.0 0.071428575 0.0 0.0 0.0 0.0 0.0 0.0 0.0 0.0 0.0 0.0 0.07692308 0.0 0.0 0.0 0.0 0.0 0.0 0.0 0.0 0.0 0.0 0.0 0.0 0.0 0.0 0.125 0.0 0.0 0.0 0.0 0.0 0.0 0.0 0.0 0.0 0.0 0.0 0.0 0.33333334 0.0 0.0 0.0 0.045454547 0.0 0.0 0.0 0.0 0.018518519 0.0 0.0 0.0 0.0 0.0 0.0 0.0 0.0 0.22222222 0.0 0.0 0.0 0.0 0.0 0.0 0.0 0.0 0.0 0.0 0.0 0.0 0.0 0.0 0.0 0.0 0.0 0.0 0.0 0.0 0.0 0.0 0.0 0.0 0.0 0.0 0.0 0.0 0.0 0.0 0.0 0.0 0.0 0.0 0.25 0.0 0.0 0.0 0.0 0.0 0.0 0.0 0.0 0.0 0.0 0.0 0.0 0.0 0.0 0.0 0.0 0.0 0.0 0.0 0.0 0.0 0.0 0.0 0.0 0.0 0.0 0.0 0.0 0.0 0.0 0.0 0.0 0.0 0.0 1.0 0.0 0.0 0.0 0.0 0.0 0.0 0.0 0.0 0.0 0.0 0.0 0.0 0.0 0.0 0.0 0.0 0.0 0.0 0.0 0.0 0.0 0.0 0.0 0.0 0.0 0.0 0.0 0.0 0.0 0.0 0.0 0.0 0.0 0.0 0.0 0.0 0.0 0.0
science 0.0022421526 0.016393442 0.0018778809 0.0022727272 0.0022238696 0.0 0.0021321962 0.0 0.0034246575 0.0028650807 0.0 0.0020562029 0.0 0.0 0.0 0.0 0.0 0.0 0.0013888889 0.0 0.0018168972 0.0 0.0 0.0 0.004048583 0.0 5.0735666E-4 0.0 0.0028612304 0.0 0.0020533882 0.0 0.0018158708 0.0 0.0044566337 0.0024390244 0.0 0.0 0.003267974 0.0018239854 0.0 0.0 0.0 0.0013089005 0.0 0.003147954 0.0 0.003929273 0.0 0.009259259 0.005235602 0.0 0.0038461538 0.0028089888 0.0 0.0028011205 0.0 0.0 0.0 0.0 0.0 0.0010341262 0.0 0.0 0.0 0.022222223 0.0 0.0 0.0 0.0 0.0013812155 0.0 0.004901961 0.009615385 0.0 0.0 0.0020833334 0.0 0.0 0.0 0.0 0.0038647342 0.0 0.0 0.0 0.0011792453 0.0 0.0 0.0 0.0025974025 0.0 0.0 0.0024096386 0.0022482015 0.0 0.0 0.0 0.0 0.0017452007 0.0 0.0 0.0 0.0 0.0 0.0016638935 0.0 0.0 0.0028248588 0.0 0.0019157088 0.0 0.0020408162 0.0 0.0 0.0 0.0 0.0 0.0 0.0 0.0 0.0019120459 0.0 0.0 0.0 0.005319149 0.001396648 0.0 0.0 0.0 0.0018450185 0.0 0.0 0.0 0.0 0.0 0.0 0.0 0.0 0.0 0.0 0.014084507 0.0 0.0029985008 0.0030721966 0.0 0.0 0.0 0.0 0.0 0.006024096 0.0 0.0 0.0 0.0 0.0 0.0 0.0 0.0 0.002631579 0.0 0.0 0.0 0.0 0.0 0.0 0.011235955 0.0 0.0 0.0 0.0 0.0 0.0 0.0 0.015384615 0.0 0.0 0.0030181087 0.0 0.0 0.0 0.0024570024 0.0 0.0 0.0 0.0 0.0 0.004830918 0.0 0.0 0.0 0.0029325513 0.0053475937 0.0063119926 0.0 0.0 0.0 0.0 0.0022222223 0.0 0.0 0.0 0.0 0.0 0.0 0.0 0.0 0.0 0.0 0.0 0.0 0.0 0.0 7.770008E-4 0.0032051282 0.0 0.0 0.0 0.0 0.0 0.0 0.0 0.0 0.0 0.0 0.0 0.0 0.0 0.0 0.0 0.0 0.0 0.0 0.014184397 0.002 0.0 0.0 0.0 0.0 0.0 0.0 0.009009009 0.010638298 0.0 0.0 0.0 0.0 0.0 0.0 0.0 0.0 0.031746034 0.009708738 0.0 0.0 0.0 0.0 0.0 0.0 0.0 0.0 0.0 0.0 0.0 0.0 0.0 0.0 0.0 0.0 0.0 0.0 0.0 0.0 0.0 0.0060975607 0.033898305 0.0 0.0 0.0 0.0 0.0 0.0 0.0 0.0 0.0 0.0 0.016129032 0.0 0.0 0.012658228 0.0 0.0 0.0 0.0 0.0 0.015151516 0.0 0.0 0.0 0.0 0.0 0.0 0.0 0.016393442 0.0 0.0 0.0 0.0 0.0 0.0 0.0 0.0 0.0 0.0 0.0 0.0 0.0 0.0 0.0 0.0 0.0 0.0 0.0 0.0 0.0 0.0 0.0 0.0 0.017857144 0.0 0.0 0.0 0.0 0.0 0.0 0.0 0.0 0.0 0.0 0.0 0.0 0.0 0.0 0.0 0.0 0.020833334 0.0 0.0 0.0 0.0 0.0 0.0 0.0 0.0 0.0 0.0074074073 0.0 0.0 0.0 0.0 0.0032786885 0.0 0.0 0.0 0.0057471264 0.0 0.0 0.0 0.0 0.0 0.0 0.004878049 0.0 0.035714287 0.0 0.054545455 0.0 0.0 0.0 0.0 0.0 0.0 0.0 0.0 0.0 0.0 0.0 0.0 0.0 0.0 0.0 0.0 0.009803922 0.0 0.0 0.0 0.015625 0.0 0.0 0.0036231885 0.0 0.0 0.0 0.0 0.04347826 0.0 0.013333334 0.0 0.0 0.0 0.0 0.0 0.0 0.0 0.0 0.011764706 0.0 0.0125 0.011904762 0.0 0.0 0.0 0.0 0.0 0.0 0.0 0.0 0.0 0.0 0.0 0.0 0.006802721 0.0 0.0 0.0 0.0 0.0 0.0 0.0 0.0 0.016393442 0.0 0.0 0.019607844 0.0 0.0 0.0 0.0 0.0 0.0 0.0 0.0 0.0 0.0 0.0 0.0 0.0 0.0 0.0 0.021276595 0.0 0.0 0.0 0.0 0.02 0.0 0.0 0.0 0.0 0.0 0.0 0.0 0.0 0.0 0.013888889 0.0 0.0 0.0 0.01754386 0.0 0.0 0.0 0.0 0.0 0.0 0.0 0.0 0.0121951215 0.0 0.0 0.0 0.0 0.0 0.0 0.0 0.0 0.011235955 0.0 0.0 0.0 0.0 0.0 0.012345679 0.0 0.0 0.0 0.012820513 0.0 0.0 0.0 0.015625 0.021276595 0.0 0.0 0.0 0.0 0.0 0.0 0.0 0.0 0.0 0.0 0.0 0.0 0.0 0.0 0.0 0.015873017 0.0 0.00877193 0.0 0.0 0.0 0.0 0.016129032 0.0 0.0 0.0 0.0 0.022346368 0.0 0.0 0.010638298 0.050847456 0.0 0.0 0.0 0.0 0.0 0.0 0.013513514 0.0 0.0 0.0 0.0 0.0 0.0 0.0 0.0 0.0 0.0 0.0 0.0 0.0 0.0 0.0 0.0 0.0 0.0 0.0 0.0 0.0 0.02 0.0 0.0 0.0 0.0 0.0 0.0 0.0 0.0 0.0 0.0 0.0 0.0 0.0 0.0 0.0 0.0 0.0 0.0 0.0 0.0 0.0 0.0 0.0 0.0 0.0 0.0 0.0 0.039215688 0.0 0.0 0.0 0.0 0.0 0.0 0.0 0.0 0.0 0.0 0.0 0.030303031 0.0 0.0 0.0 0.0 0.0 0.0 0.0 0.0 0.0 0.0 0.0 0.023809524 0.0 0.0 0.0 0.0 0.0 0.0 0.0 0.0 0.015625 0.0 0.0 0.0 0.0 0.125 0.0 0.0 0.0 0.0 0.0 0.0 1.1111112 0.0 0.0 0.0 0.0 0.0 0.0 0.0 0.0 0.0 0.0 0.0 0.0 0.0 0.0 0.0 0.071428575 0.0 0.0 0.0 0.0 0.0 0.0 0.14285715 0.0 0.0 0.0 0.0 0.0 0.0 0.0 0.0 0.0 0.0 0.0 0.0 0.0 0.0 0.0 0.0 0.0 0.1 0.0 0.0 0.0 0.0 0.0 0.0 0.0 0.0 0.0 0.0 0.0 0.0 0.0 0.0 0.0 0.0 0.0 0.0 0.0 0.0 0.0 0.0 0.0 0.0 0.0 0.0 0.0 0.0 0.0 0.0 0.0 0.2 0.0 0.0 0.0 0.0 0.0 0.0 0.0 0.0 0.0 0.0 0.0 0.0 0.0 0.0 0.0 0.0 0.0 0.0 0.0 0.0 0.0 0.0 0.0 0.0 0.0 0.0 0.0 0.0 0.0 0.14285715 0.0 0.0 0.0 0.0 0.1 0.0 0.0 0.0 0.0 0.0 0.0 0.0 0.0 0.0 0.0 0.0 0.0 0.0 0.0 0.0 0.0 0.0 0.0 0.0 0.0 0.0 0.0 0.0 0.0 0.0 0.0 0.0 0.0 0.0 0.0 0.0 0.0 0.0 0.0 0.0 0.0 0.0 0.0 0.0 0.0 0.0 0.0 0.0 0.0 0.0 0.0 0.0 0.0 0.0 0.0 0.0 0.0 0.0 0.0 0.0 0.0 0.0 0.0 0.0 0.0 0.0 0.0 0.0 0.0 0.0 0.0 0.0 0.0 0.0 0.0 0.0 0.0 0.0 0.0 0.0 0.0 0.0 0.0 0.0 0.0
dawn 7.23275E-4 0.0 4.6662494E-4 4.5454546E-4 7.4128987E-4 0.0 0.0 0.0 0.0 5.2092376E-4 0.0 0.0013708019 0.0 0.0 0.0 0.0 0.0 0.0 0.0 0.0 4.037549E-4 0.0 0.0 0.0 0.0 0.0 5.0735666E-4 0.0 4.087472E-4 0.0 6.844627E-4 0.0 1.8158708E-4 0.0 0.0 0.0 0.014492754 0.0 0.0 0.0 0.0 0.0 0.0 0.0 0.0 5.2465894E-4 0.0 0.0 0.0 0.0 0.0 0.0 0.0 0.0 0.0 0.0 0.0 0.0 0.0 0.0 0.0 0.0 0.0 0.006024096 0.0 0.0 0.0 0.0 0.0 0.0 0.0 0.0 0.0 0.0 0.0 0.008333334 0.0 0.0 0.0 0.0 0.0 0.0 0.0 0.0 0.0 0.0011792453 0.0 0.0 0.0 0.0 0.0 0.0 8.0321287E-4 8.992806E-4 0.0 0.0 0.0 0.0 0.0 0.0 0.0 0.0 0.0 0.0 0.0 9.1911765E-4 0.0 0.0028248588 0.0 6.385696E-4 0.0 0.0 0.015625 0.0 0.0 0.0 0.0 0.0 0.0 0.0 0.0 0.0 0.0 0.0 0.0 0.001396648 0.0 0.0 0.0 0.0 0.0 0.0 0.0 0.0 0.0 0.0 0.0 0.0 0.0 0.0 0.0 0.0 7.496252E-4 0.0 0.0 0.0 0.0 0.0 0.0 0.0 0.0 0.0 0.0 0.0 0.0 0.0 0.0 0.0 0.005263158 0.0 0.0 0.0 0.0 0.0 0.011235955 0.0 0.0 0.0 0.0 0.0020242915 0.0 0.007633588 0.0 0.0 0.0 0.0 0.0010060362 0.0 0.0 0.0 0.0024570024 0.0 0.0 0.0 0.0 0.0 0.0 0.0 0.0 0.0 0.0 0.0 0.0 0.0 0.0 0.0 0.0 0.0 0.0 0.0 0.0 0.0 0.0010706638 0.0 0.0 0.0 0.0 0.0 0.0 0.0 0.0 0.0 0.0 0.0 0.0 0.0 0.019607844 0.0 0.0 0.0 0.0 0.0 0.0 0.0 0.0 0.0 0.0 0.0 0.0 0.0 0.0 0.0 0.0 0.0 0.0 0.0 0.0 0.0 0.0 0.0 0.0 0.0 0.009615385 0.0 0.0 0.0 0.0 0.0 0.0 0.0 0.0 0.0 0.0 0.0 0.0 0.0 0.0 0.0 0.0 0.0 0.0 0.0 0.0 0.0 0.0 0.0 0.0 0.0 0.0 0.0 0.0 0.0 0.0 0.0 0.0 0.0 0.0 0.0 0.0 0.0 0.0 0.0 0.01923077 0.0088495575 0.0 0.0 0.0 0.0 0.0 0.0 0.0 0.0 0.0 0.0 0.0 0.0 0.0 0.0 0.0 0.0 0.0 0.0 0.0 0.0 0.0 0.0 0.0 0.0 0.0 0.0 0.0 0.0 0.0 0.0 0.0 0.0 0.0 0.0047393367 0.0 0.0 0.0 0.0 0.0 0.0 0.0 0.0 0.0 0.008928572 0.0 0.0 0.0 0.0 0.0 0.0 0.0 0.0 0.0 0.0 0.0 0.0 0.0 0.0 0.0 0.0 0.0 0.0 0.0 0.00729927 0.0 0.0 0.0 0.0 0.0 0.0 0.0 0.0 0.0 0.0 0.0 0.0 0.0 0.0 0.0 0.0 0.0 0.0 0.0 0.0 0.0 0.0 0.0 0.0 0.0 0.0 0.0 0.0 0.0 0.0 0.0 0.0 0.0 0.0 0.0 0.0 0.0 0.0 0.0 0.0 0.0 0.0 0.0 0.0 0.0 0.0 0.0 0.0 0.0 0.0 0.0 0.0 0.0 0.0 0.0 0.0 0.0 0.0 0.0 0.0 0.0 0.0 0.0 0.0 0.0 0.0 0.0 0.0 0.0 0.0 0.0 0.0 0.0 0.0 0.0 0.0 0.0 0.0 0.0 0.0 0.0 0.0 0.0 0.0 0.0 0.0 0.0 0.0 0.0 0.0 0.0 0.0 0.0 0.0 0.0 0.0 0.0 0.0 0.0 0.0 0.0 0.0 0.0 0.0 0.02 0.0 0.0 0.0 0.0 0.0 0.0 0.0 0.0 0.0 0.010928961 0.0 0.0 0.0 0.0 0.0 0.0 0.0 0.0 0.0 0.0 0.0 0.0 0.0 0.0 0.0 0.0 0.0 0.0 0.0 0.0 0.0 0.0 0.0 0.0 0.0 0.0 0.0 0.0 0.0 0.0 0.0 0.0 0.0 0.0 0.0 0.0 0.0 0.0 0.0 0.0 0.0 0.0 0.0 0.0 0.0 0.0 0.0 0.0 0.0 0.0 0.014084507 0.0 0.0 0.0 0.0 0.0 0.0 0.0 0.0 0.0 0.0 0.0 0.0 0.0 0.0 0.0 0.0 0.0 0.0 0.0 0.0 0.0 0.0 0.0 0.0 0.0 0.0 0.0 0.0 0.0 0.0 0.0 0.0 0.0 0.0 0.0 0.0 0.0 0.0 0.0 0.0 0.0 0.0 0.0 0.0 0.0 0.010869565 0.0 0.0 0.0 0.0 0.0 0.0 0.0 0.0 0.0 0.0 0.0 0.0 0.0 0.0 0.0078125 0.0 0.0 0.0 0.0 0.0 0.0 0.0 0.0 0.0 0.0 0.0 0.0 0.0 0.0 0.0 0.0 0.0 0.0 0.0 0.0 0.0 0.0 0.0 0.0 0.0 0.0 0.0 0.0 0.0 0.0 0.0 0.0 0.0 0.0 0.0 0.0 0.0 0.0 0.0 0.0 0.0 0.0 0.0 0.0 0.0 0.0 0.0 0.0 0.0 0.0 0.0 0.0 0.0 0.0 0.0 0.0 0.0 0.0 0.0 0.0 0.0 0.0 0.0 0.0 0.0 0.0 0.0 0.0 0.0 0.0 0.0 0.0 0.0 0.0 0.0 0.0 0.0 0.0 0.0 0.0 0.0 0.0 0.0 0.0 0.0 0.0 0.0 0.0 0.0 0.0 0.0 0.0 0.0 0.0 0.0 0.09090909 0.0 0.0 0.0 0.0 0.0 0.0 0.0 0.0 0.0 0.0 0.0 0.0 0.0 0.0 0.0 0.0 0.0 0.0 0.0 0.0 0.0 0.0 0.0 0.0 0.0 0.0 0.0 0.0 0.0 0.0 0.0 0.0 0.0 0.0 0.0 0.0 0.0 0.0 0.0 0.0 0.0 0.0 0.0 0.0 0.0 0.0 0.0 0.0 0.0 0.0 0.0 0.0 0.0 0.0 0.0 0.0 0.0 0.0 0.0 0.0 0.0 0.0 0.0 0.0 0.0 0.0 0.0 0.0 0.0 0.0 0.0 0.0 0.0 0.0 0.0 0.0 0.0 0.0 0.0 0.0 0.0 0.0 0.0 0.0 0.0 0.0 0.0 0.0 0.0 0.0 0.0 0.0 0.0 0.0 0.0 0.0 0.0 0.0 0.0 0.0 0.0 0.0 0.0 0.0 0.0 0.0 0.0 0.0 0.0 0.0 0.0 0.0 0.0 1.0 0.0 0.0 0.0 0.0 0.0 0.0 0.0 0.0 0.0 0.0 0.0 0.0 0.0 0.0 0.0 0.0 0.0 0.0 0.0 0.0 0.0 0.0 0.0 0.0 0.0 0.0 0.0 0.0 0.0 0.0 0.0 0.0 0.0 0.33333334 0.0 0.0 0.0 0.0 0.0 0.0 0.0 0.0 0.0 0.0 0.0 0.0 0.0 0.0
brother 0.0016635325 0.0 0.0021055026 0.0031818182 0.002779837 0.0 0.0013121207 0.0 0.0 0.0032123632 0.0 0.0018848527 0.0 0.0 0.0 0.0 0.013333334 0.0 0.004166667 0.0014619883 0.0018168972 0.0022988506 0.0 0.0066815144 0.0020242915 0.0 0.00152207 0.010989011 0.0022481096 0.0 0.0 0.0 0.002542219 0.0 0.0054850876 0.0 0.0 0.0 0.006535948 9.119927E-4 0.0 0.0 0.0 0.0019633507 0.0 0.0020986358 0.0 0.0 0.0 0.0 0.0 0.0 0.0 0.004213483 0.0 0.005602241 0.0 0.0 0.0 0.0 0.0 0.0 0.0 0.0 0.0 0.0 0.0 0.0 0.0 0.0 0.0 0.0 0.0 0.0 0.0 0.0 6.9444446E-4 0.0 0.0 0.0 0.0 9.6618355E-4 0.0 0.0 0.0 0.004716981 0.0 0.0 0.0 0.005194805 0.0 0.0 0.004016064 0.0053956835 0.0 0.012014788 0.0 0.0 0.0 0.0 0.004784689 0.0 0.033898305 0.0 0.003327787 0.0036764706 0.0 0.0 0.0 0.0038314175 0.0 0.0020408162 0.0 0.004914005 0.012658228 0.01923077 0.0 0.0 0.0 0.0 0.0 0.0 0.0038022813 0.0 0.0 0.002793296 0.0 0.009009009 0.0 0.0 0.0 0.0 0.0 0.0 0.00110011 0.0 0.0 0.022727273 0.0023310024 0.004784689 0.0 0.0 7.496252E-4 0.0030721966 0.0 0.0 0.005988024 0.0 0.0 0.0 0.0 0.0032786885 0.0 0.0 0.0 0.0 0.0 0.0 0.0 0.0 0.0 0.0 0.0 0.0 0.0 0.0 0.0 0.011904762 0.0 0.0 0.0 0.0 0.0 0.0 0.0 0.0 0.0010060362 0.0 0.0 0.0 0.0 0.0 0.0 0.0 0.0029069767 0.0 0.0 0.0 0.0 0.0 0.0 0.0 0.0027051398 0.0 0.0 0.0021413276 0.0 0.0 0.0 0.015625 0.0 0.0 0.0010706638 0.0 0.0 0.0 0.0 0.0 0.0 0.0 0.0 0.0 0.0023310024 0.0 0.01183432 0.024193548 0.0 0.0 0.0 0.0 0.0 0.0 0.0 0.0 0.0030075188 0.0 0.0 0.0 0.0 0.020833334 0.0 0.0 0.0 0.002 0.0 0.0 0.0 0.0 0.0 0.0 0.0 0.0 0.0 0.0 0.0 0.0 0.0 0.0 0.0 0.0 0.0 0.0 0.0 0.0 0.0 0.0 0.0 0.0 0.008196721 0.0 0.0 0.0 0.0 0.015151516 0.0 0.0 0.0 0.0 0.0 0.0 0.0 0.0 0.0 0.0 0.0 0.0 0.010638298 0.0 0.0 0.0 0.0 0.0 0.0 0.0 0.015873017 0.0 0.0 0.0 0.0 0.0 0.009090909 0.019607844 0.0 0.008928572 0.0 0.0 0.0 0.0 0.0 0.0 0.0 0.0 0.0 0.00591716 0.0 0.0 0.0 0.0 0.0 0.0 0.01754386 0.0 0.0 0.023809524 0.0 0.0 0.0 0.0 0.014705882 0.0 0.0 0.0 0.0 0.0 0.013157895 0.0 0.0 0.0 0.0 0.0 0.0 0.0 0.0 0.0 0.0 0.013513514 0.0 0.0 0.0 0.0 0.0 0.01724138 0.0 0.0 0.0 0.0 0.0 0.0 0.011111111 0.0 0.0 0.0 0.0 0.0 0.0 0.0 0.0 0.0 0.0 0.0032786885 0.0 0.0 0.0 0.0 0.0 0.015306123 0.0 0.0 0.0 0.0 0.0 0.0 0.0 0.0 0.0 0.0125 0.0 0.024691358 0.018181818 0.0 0.0 0.0 0.0 0.0 0.0 0.0 0.0 0.0 0.0 0.0 0.0 0.0 0.0 0.0 0.0 0.0 0.0 0.0 0.0018115942 0.0 0.0 0.0 0.0 0.0 0.0 0.0 0.0 0.0 0.0 0.0 0.0 0.0 0.0 0.0 0.023529412 0.0 0.0 0.0 0.0 0.0 0.0 0.0 0.0 0.0 0.0 0.0 0.031746034 0.0 0.0 0.0 0.0 0.0 0.0 0.0 0.0 0.0 0.0056818184 0.0 0.0 0.0 0.0 0.0 0.0 0.0 0.0 0.0 0.0 0.0 0.01754386 0.0 0.0 0.0 0.0 0.0 0.0 0.0 0.0 0.0 0.0 0.009345794 0.0 0.0 0.0054644807 0.0 0.0 0.0 0.0 0.0 0.0 0.0 0.0 0.0 0.0 0.0 0.009433962 0.0 0.0 0.0 0.0 0.0 0.0 0.0 0.0 0.0 0.0 0.0 0.0121951215 0.0 0.0 0.0 0.0 0.0 0.0 0.0 0.0 0.0 0.0 0.0 0.0 0.014705882 0.0 0.0 0.0 0.0 0.0 0.0 0.0 0.0 0.0 0.0 0.0 0.0 0.0 0.0 0.0 0.0 0.0 0.0 0.009345794 0.0 0.0 0.0 0.0 0.0 0.0 0.0 0.0 0.016483517 0.0 0.0 0.0 0.0 0.0 0.0 0.0 0.0 0.0 0.0 0.0 0.0 0.0 0.0 0.0 0.0 0.0 0.0 0.0 0.0 0.0 0.0 0.0 0.0 0.014285714 0.0 0.0 0.0 0.0 0.0 0.0 0.010869565 0.0 0.0 0.0 0.0 0.0 0.0 0.0 0.0 0.0 0.0 0.0 0.02 0.0 0.0 0.0 0.0 0.0 0.0 0.0 0.0 0.0 0.0 0.0 0.0 0.0 0.0 0.0 0.0 0.0 0.0 0.0 0.0 0.0 0.0 0.0 0.0 0.0 0.0 0.0 0.0 0.0 0.0 0.0 0.04 0.0 0.0 0.0 0.0 0.0 0.0 0.0 0.0 0.0 0.0 0.0 0.0 0.0 0.0 0.0 0.0 0.0 0.0 0.0 0.0 0.0 0.0 0.014285714 0.0 0.0 0.0 0.0 0.0 0.015625 0.0 0.02631579 0.0 0.0 0.0 0.0 0.0 0.0 0.0 0.0 0.019607844 0.0 0.0 0.0 0.0 0.0 0.0 0.0 0.16666667 0.0 0.0 0.0 0.0 0.0 0.0 0.0 0.0 0.0 0.0 0.0 0.0 0.0 0.0 0.017857144 0.0 0.0 0.0 0.0 0.0 0.0 0.0 0.0 0.0 0.0 0.0 0.0 0.0 0.0 0.0 0.0 0.0 0.0 0.0 0.0 0.0 0.0 0.0 0.0 0.0 0.0 0.0 0.0 0.0 0.0 0.0 0.0 0.0 0.0 0.0 0.0 0.0 0.0 0.04347826 0.0 0.0 0.0 0.0 0.0 0.0 0.0 0.0 0.0 0.0 0.0 0.0 0.0 0.0 0.0 0.0 0.0 0.0 0.0 0.0 0.0 0.0 0.0 0.0 0.0 0.0 0.0 0.0 0.0 0.0 0.0 0.0 0.0 0.0 0.0 0.0 0.0 1.0 0.0 0.0 0.0 0.0 0.0 0.0 0.0 0.0 0.0 0.0 0.0 0.0 0.0 0.0 0.0 0.0 0.0 0.0 0.0 0.0 0.0 0.0 0.0 0.0 0.0 0.0 0.0 0.0 0.0 0.0 0.0 0.0 0.0 0.0 0.0 0.0 0.0 0.0 0.0 0.0 0.0 0.0 0.0 0.0 0.0 0.0 0.0 0.0 0.0 0.0 0.0 0.0 0.0 0.0 0.0 0.0 0.0 0.0 0.0 0.0 0.0 0.0 0.0 0.0 0.0 0.0 0.0 0.0 0.0 0.0 0.0 0.0 0.0 0.0 0.0 0.0 0.0 0.0 0.0 0.0 0.0 0.0 0.0 0.0 0.0 0.0 0.0 0.0 0.0
